svm_type c_svc
kernel_type rbf
gamma 0.5
nr_class 2
total_sv 569
rho 1.62193
label 1 2
probA -3.24591
probB -0.0934112
nr_sv 217 352
SV
5.543201338906478 1:0.265304 4:0.665431 5:0.531712 6:0.742716 7:0.927923 8:0.62861 9:0.0837457 10:0.0904208 11:0.506956 12:0.478791 14:0.181678 15:0.217446 16:0.212196 17:0.574015 18:0.112201 19:0.296694 20:0.48502 21:0.580045 22:0.850885 23:0.695273 24:0.754519 25:0.735066 26:0.480115 27:0.0923602 28:0.770336 29:0.206138 30:0.272587 31:0.0453014 32:0.177873 33:0.119539 34:0.133595 35:0.101261 36:0.0651353 37:0.393824 39:0.10674 41:0.0693367 43:0.511188 44:0.195874 45:0.286841 46:0.809149 47:0.337859 48:0.341331 49:0.0528055 51:0.668842 52:0.073812 53:0.690794 54:0.195974 55:0.809901 57:0.835846 59:0.247098 62:0.239573 63:0.415097 64:0.163085 65:0.102766 
6.566407522417459 1:0.35367 4:0.494934 5:0.297759 6:0.616688 7:0.530032 8:0.467597 10:0.315464 11:0.6588 12:0.359163 14:0.316923 15:0.126439 16:0.164516 17:0.424077 18:0.130484 19:0.456468 20:0.282027 21:0.149762 22:0.556134 23:0.655689 24:0.572385 25:0.449651 26:0.682152 27:0.21482 28:0.818568 29:0.359593 31:0.105366 32:0.362001 33:0.0695091 34:0.388412 36:0.075749 37:0.411212 38:0.08188 40:0.114379 41:0.403175 43:0.333348 44:0.151861 45:0.250186 46:1 47:0.550078 48:0.132317 50:0.100089 51:0.683651 52:0.171679 53:0.699611 54:0.227908 55:0.706026 57:0.247503 59:0.114945 60:0.246585 61:0.228335 62:0.18574 63:0.347614 64:0.0632197 65:0.239022 66:0.133488 67:0.17304 
0.01631040747518184 1:1 4:0.603648 5:0.462877 6:0.712085 7:0.530032 8:0.859419 10:0.0880744 11:0.742716 12:0.749216 13:0.253999 14:0.442408 15:0.052951 17:0.861869 19:0.865142 21:0.811311 22:0.556134 23:0.676435 24:0.630103 25:0.513992 26:0.645439 27:0.989598 28:0.807263 30:0.132757 32:0.259886 34:0.325322 36:0.571006 37:0.41251 38:0.13716 39:0.10397 41:0.675374 42:0.0548642 43:0.562339 44:0.063597 46:1 47:0.329092 49:0.154306 51:0.719549 52:0.790863 53:0.707878 54:0.0954443 55:0.642735 56:0.132182 57:0.15056 58:0.258313 59:0.0481372 61:0.191247 62:0.311141 63:0.371553 
1.208614869030383 1:1 3:0.206374 4:0.411074 5:0.28599 6:0.251691 7:0.91352 8:1 10:0.243826 11:0.506956 12:1 13:0.351587 15:0.219884 16:0.190734 17:0.944308 18:0.453836 19:1 20:0.408716 21:0.495878 22:0.850885 23:0.541851 24:0.608349 25:0.770302 26:1 28:0.616688 29:0.4169 30:0.459406 32:0.359735 33:0.0805866 34:0.270187 36:0.0878209 37:0.475509 38:0.094929 39:0.143916 40:0.132607 41:0.0934856 43:0.297651 44:0.0880311 45:0.290057 46:0.70117 47:0.819953 48:0.383509 49:0.142393 51:0.632479 53:0.771139 54:0.132114 55:0.725576 57:0.68385 58:0.119186 59:0.333158 62:0.969036 63:0.299773 64:0.14659 65:0.277114 67:0.200617 
0.942079314678049 1:0.596414 4:0.28327 5:0.551016 6:0.382356 7:0.592995 8:0.784823 9:0.101652 10:0.109755 11:0.251691 12:0.252325 13:0.633046 14:0.110262 15:0.0659853 16:0.171712 17:0.489432 18:0.136192 19:0.854595 20:0.294364 21:0.554746 22:0.765086 23:0.712523 24:0.510947 25:0.449651 26:1 27:0.560543 28:0.471226 32:0.215906 33:0.0725497 34:0.162161 36:0.31625 37:0.331029 38:0.170924 39:0.129563 41:0.252487 42:0.0683694 43:0.614382 44:0.237756 46:0.242476 47:0.49212 48:0.0690525 49:0.0640964 50:0.104468 51:0.82946 52:0.537567 53:0.551596 55:0.634572 57:1 58:0.2146 59:0.0599866 61:0.119162 62:0.484664 63:0.381537 64:0.0659853 65:0.124739 67:0.180609 
0.907451522468171 1:0.602485 4:0.473718 5:0.337406 6:0.695421 7:0.642958 8:0.784823 10:0.248107 11:0.638532 12:0.749216 13:0.17888 14:0.373881 15:0.298327 17:0.574015 18:0.615739 19:0.854595 20:0.166357 21:0.811311 22:0.765086 23:0.655689 24:0.544999 25:0.449651 26:0.788188 27:0.506857 28:0.783192 29:0.282813 30:0.186989 32:0.549077 34:0.274931 35:0.138926 36:0.357451 37:0.402532 39:0.146442 41:0.570762 43:0.616228 46:0.615153 47:0.648939 48:0.0780486 49:0.21734 50:0.118078 51:0.661302 52:0.506334 53:0.607587 54:0.403302 55:0.634074 56:0.186179 57:0.888886 59:0.339008 60:0.0969671 61:0.269373 62:0.98605 63:0.298752 65:0.28198 67:0.204139 
0.7239502603612726 1:1 2:0.169558 3:0.087793 4:0.423571 5:0.452419 6:0.712085 7:0.966623 8:0.599994 9:0.048034 11:0.471226 12:0.937559 14:0.521024 17:1 18:0.257419 19:0.867171 20:0.208644 21:0.603211 22:1 23:0.769867 24:0.571998 25:1 26:0.39579 27:0.10595 28:0.430287 32:0.204045 34:0.306505 35:0.11616 36:0.224157 37:0.452931 41:0.397694 42:0.0646135 43:0.677426 45:0.0822616 46:0.634679 47:0.0775142 48:0.065259 51:0.670345 52:0.254018 53:0.693103 54:0.337214 55:0.573864 56:0.778351 57:1 61:0.450462 63:0.399814 64:0.0623603 65:0.235772 66:0.263346 
1.015118592766501 1:0.668264 2:0.198516 3:0.102787 4:0.385618 5:0.181332 6:0.807263 7:0.966623 8:0.859419 9:0.0562375 10:0.607199 11:0.783192 12:0.807412 13:0.525334 14:0.244003 15:0.365052 17:0.938236 19:0.480067 20:0.325704 21:0.317452 22:0.716616 23:0.606578 24:0.589522 25:0.708711 26:0.645439 27:0.248089 28:0.783192 29:0.138427 30:0.18305 31:0.121684 32:0.35834 34:0.269139 37:0.517984 38:0.0945606 40:0.132093 41:0.838105 43:0.703304 45:0.192621 46:0.634679 47:0.72602 48:0.229213 49:0.0709204 51:0.644386 52:0.2974 53:0.656568 54:0.131602 55:0.544109 57:0.940138 59:0.0663731 61:0.527395 62:0.643518 63:0.130679 64:0.0730104 65:0.414058 67:0.199838 
0.01921179785076108 1:1 2:0.402272 4:0.516348 5:0.424333 6:0.6588 7:0.927923 8:0.614881 10:0.123042 11:0.506956 12:0.941836 13:0.177422 14:0.618057 15:0.295895 16:0.0962506 17:0.99855 18:0.15268 19:0.865142 20:0.165001 21:0.495878 22:0.481872 23:0.743195 24:0.426527 25:0.565853 26:0.537468 28:0.324544 29:0.420762 30:0.185465 32:0.242045 34:0.545381 35:0.275587 36:0.265903 37:0.35002 41:0.471758 43:0.748996 45:0.0975816 46:0.594109 47:0.64365 48:0.154825 49:0.143713 51:0.739552 52:0.602649 53:0.520696 55:0.541123 57:0.606427 58:0.12029 59:0.403494 62:0.434673 63:0.363626 64:0.073974 
0.4673616989808712 1:0.668264 2:0.187782 3:0.194457 4:0.504083 5:0.301222 6:0.324544 7:0.941519 8:1 10:0.459492 11:0.6588 12:0.807412 14:0.115404 15:0.27625 17:0.938236 18:0.570172 19:0.68655 20:0.154046 21:0.80068 22:0.702382 23:0.769867 24:0.652356 25:0.609296 26:0.788188 27:0.586684 28:0.783192 31:0.0575521 32:0.395456 33:0.0759331 34:0.509171 35:0.257289 36:0.0827497 37:0.449203 41:0.352349 42:0.143116 43:0.591966 45:0.273308 46:0.634679 47:0.68676 48:0.0722728 49:0.0670855 50:0.109339 51:0.765023 52:0.0937728 53:0.596706 55:0.837675 57:1 59:0.188352 61:0.124719 62:0.405813 63:0.288962 
2.927427995523318 1:0.316118 2:0.190702 3:0.0987404 4:0.717181 5:0.206336 6:0.638532 7:0.802655 8:0.62861 9:0.108047 11:0.251691 12:0.478791 13:0.168218 15:0.140273 17:0.424077 18:0.289519 19:0.456468 20:0.391103 21:0.603211 22:0.850885 23:0.909452 24:0.585395 25:0.410586 26:0.682152 27:0.476646 28:0.756865 29:0.132978 30:0.175843 31:0.058447 32:0.172117 34:0.0861814 35:0.391935 36:0.504218 37:0.420805 40:0.253786 41:0.357828 42:0.145341 43:0.476843 45:0.185038 46:0.546375 47:0.17436 48:0.293586 49:0.0681287 50:0.11104 51:0.699562 52:0.380924 53:0.691424 54:0.126421 55:0.777729 57:0.835846 59:0.191281 60:0.0911875 61:0.126658 62:0.103031 63:0.365405 64:0.0701364 65:0.132586 66:0.148093 67:0.191972 
0.2480092131372025 1:0.602485 4:0.510251 5:0.527157 6:0.742716 7:0.642958 8:0.664366 10:0.22047 11:0.430287 12:0.749216 13:0.158954 14:0.44298 15:0.0662741 17:0.574015 18:0.547152 19:0.854595 20:0.147826 21:0.495878 22:0.702382 23:0.57676 24:0.657144 25:0.309685 26:0.580983 27:0.337799 28:0.538655 29:0.251311 30:0.332321 31:0.0552284 32:0.162639 34:0.570049 36:0.397044 37:0.436061 38:0.085836 41:0.507185 43:0.493641 44:0.0795988 46:0.368357 47:0.164758 49:0.193131 51:0.73427 52:0.26996 53:0.578366 54:0.119459 55:0.662644 56:0.330881 57:0.888886 58:0.10777 59:0.180748 60:0.086166 61:0.359051 62:0.389429 63:0.453853 65:0.25057 
2.073413675787111 1:0.596414 3:0.0728553 4:0.653033 5:0.505991 6:0.506956 7:0.966623 8:0.664366 9:0.0797223 11:0.695421 12:0.252325 13:0.124119 14:0.172949 15:0.1035 16:0.202002 17:0.459808 19:0.854595 20:0.11543 21:0.317452 22:0.687041 23:1 24:0.564338 25:0.309685 26:0.580983 27:0.791306 28:1 29:0.196235 32:0.338655 33:0.0568982 34:0.317943 36:0.31003 37:0.490403 38:0.134049 41:0.792066 43:0.582483 45:0.0682651 46:0.652893 47:0.128651 48:0.108311 49:0.100537 51:0.799799 52:0.421595 53:0.643948 55:0.666788 56:0.129184 57:0.247503 58:0.0841515 62:0.152042 63:0.289028 65:0.195656 66:0.218539 
1.305211971051054 1:1 2:0.17225 4:0.621743 5:0.582171 6:0.471226 7:0.592995 8:0.67484 10:0.105372 11:0.324544 12:0.581145 13:0.151942 14:0.105859 16:0.164856 17:0.944308 18:0.130753 19:0.759532 20:0.141305 21:0.603211 22:0.652244 23:1 24:0.695332 25:0.240167 26:0.658519 27:0.322896 28:0.251691 29:0.360336 30:0.238245 31:0.052792 32:0.207285 33:0.208958 34:0.0778429 35:0.118005 36:0.0759055 37:0.36 38:0.246148 41:0.0808016 42:0.131279 43:0.502462 44:0.0760872 45:0.250703 46:0.70117 47:0.0787449 48:0.0662951 49:0.123074 51:0.69426 52:0.172034 53:0.68657 54:0.228379 55:0.595595 56:0.158142 57:0.463385 59:0.172774 61:0.114404 62:0.0930621 63:0.483818 65:0.479032 66:0.133764 67:0.173397 
0.1577018415831458 1:0.602485 4:0.493292 5:0.522829 6:0.638532 7:0.530032 8:0.784823 10:0.379503 11:1 12:0.749216 13:0.182409 14:0.381258 15:0.22816 17:0.574015 19:0.854595 20:0.254459 21:0.149762 22:0.522473 23:0.676435 24:0.479553 25:0.609296 26:1 27:0.646072 28:0.783192 32:0.311062 33:0.167239 35:0.141667 36:0.364504 37:0.390127 39:0.149332 40:0.137598 41:0.388016 42:0.0788014 43:0.478381 45:0.100325 46:0.594109 47:0.567209 48:0.159177 49:0.295505 50:0.240815 51:0.663891 52:0.41306 53:0.71369 54:0.137087 55:0.624986 57:0.854679 59:0.345697 61:0.274688 62:0.558615 63:0.362945 64:0.0760534 66:0.160586 67:0.208167 
3.661379913919383 1:0.186386 4:0.4545 5:0.519034 6:0.712085 7:0.927923 8:0.467597 9:0.0461384 10:0.0996317 11:0.859727 12:0.478791 14:0.300278 15:0.179698 17:0.31812 19:0.395515 20:0.400821 21:1 22:0.63224 23:0.769867 24:0.555567 25:0.770302 26:0.682152 27:0.305306 28:0.783192 29:0.454275 30:0.225266 32:0.440984 34:0.0736024 35:0.223153 37:0.379997 38:0.0775795 39:0.117613 41:0.381999 43:0.656713 44:0.0719423 45:0.237046 46:0.634679 47:0.14891 48:0.188051 49:0.523662 50:0.189665 51:0.616762 52:0.243993 53:0.633133 54:0.107969 55:0.615973 57:0.68385 59:0.27227 60:0.0778778 61:0.108171 63:0.400746 65:0.452936 67:0.327903 
0.5264472895171673 1:1 2:0.174442 4:0.417548 5:0.490818 6:1 7:0.845476 8:0.545911 10:0.106713 11:1 12:0.941836 13:0.615501 14:0.321619 15:0.128313 17:0.99855 18:0.132417 19:0.759532 21:0.753502 22:0.63224 23:0.769867 24:0.553494 25:0.565853 26:0.39579 27:0.763011 28:1 29:0.12164 30:0.241276 32:0.472325 34:0.157667 35:0.358518 37:0.348583 41:0.572808 43:0.573021 46:0.686014 47:0.637975 49:0.18696 51:0.644731 52:0.435557 53:0.691896 54:0.231285 55:0.690316 57:0.835846 59:0.174972 61:0.231719 62:0.376985 63:0.458815 64:0.0641564 66:0.135466 67:0.351208 
1.087032242405029 1:0.265304 2:0.399102 4:0.543828 5:0.367468 6:0.6588 7:0.592995 8:0.227276 9:0.113061 11:0.727818 12:0.648073 14:0.122637 15:0.220173 16:0.190984 17:0.536818 18:0.302954 19:0.208438 21:0.495878 22:0.716616 23:0.695273 24:0.571462 25:0.565853 26:0.332169 27:0.249382 28:0.783192 29:0.417447 30:0.368007 32:0.360207 33:0.161384 34:0.270542 35:0.273415 36:0.263808 37:0.412407 38:0.28516 39:0.288208 40:0.265562 41:0.187216 43:0.734879 45:0.193625 46:0.652893 47:0.364902 48:0.153605 49:0.42774 51:0.671807 52:0.1993 53:0.744148 55:0.638739 57:0.557704 59:0.133438 61:0.132536 62:0.215624 63:0.329646 64:0.220173 65:0.416216 66:0.154965 
0.2274098229727572 1:1 2:0.184551 4:0.600646 5:0.500384 6:1 7:0.966623 8:0.795417 9:0.209125 10:0.112897 11:0.593004 12:0.937559 15:0.0678744 16:0.176628 17:1 18:0.140091 19:0.867171 20:0.151396 21:0.526883 22:0.850885 23:0.499744 24:0.656162 26:0.721806 27:0.115318 28:0.807263 29:0.514757 30:0.42543 32:0.111044 34:0.166804 37:0.256409 38:0.0879085 39:0.133272 40:0.1228 43:0.62705 44:0.163041 45:0.268606 46:0.488395 47:0.0843683 48:0.213088 49:0.0659314 51:0.717985 52:0.0921596 53:0.739935 54:0.244687 55:0.706822 57:0.627907 58:0.110372 59:0.370224 60:0.0882465 61:0.122574 62:0.099708 63:0.274093 64:0.407246 65:0.51324 66:0.143316 67:0.18578 
1.109295373579137 1:1 2:0.17323 4:0.628425 5:0.485612 6:0.430287 7:0.444833 8:1 10:0.211942 11:0.471226 12:0.666121 14:0.319383 15:0.445974 17:0.861869 18:0.131497 19:1 20:0.355271 21:1 22:0.361475 23:0.743195 24:0.68947 25:0.36485 26:0.658519 27:0.216488 28:0.430287 29:0.362384 30:0.159733 32:0.312695 33:0.280195 34:0.234856 35:0.118676 36:0.0763371 37:0.388241 39:0.250193 41:0.325044 43:0.52359 45:0.336171 46:0.488395 47:0.237578 48:0.133344 49:0.18566 50:0.302599 51:0.831999 52:0.173012 53:0.686752 54:0.229677 55:0.742532 57:0.247503 59:0.115837 61:0.115054 62:0.374365 63:0.434839 65:0.240878 
5.002483370293392 1:0.265304 2:0.182733 4:0.537363 5:0.550895 6:1 7:0.592995 8:0.62861 9:0.0517662 11:0.56714 12:0.252325 13:0.161189 14:0.336904 15:0.201617 16:0.174888 17:0.459808 19:0.42884 20:0.224856 21:0.526883 22:0.812608 23:0.632601 24:0.621201 25:0.449651 26:0.442806 27:0.114182 28:0.471226 29:0.127421 30:0.0842478 31:0.112009 32:0.219899 33:0.221674 34:0.24774 36:0.161049 37:0.410942 38:0.0870424 39:0.395877 41:0.342875 43:0.431903 44:0.161435 45:0.26596 46:0.488395 47:0.167074 50:0.319199 51:0.732972 52:0.182503 53:0.715522 54:0.484553 55:0.639011 56:0.167766 57:0.757519 58:0.218568 59:0.122192 63:0.362103 66:0.141904 
7.288549762390379 1:0.35367 4:0.530208 5:0.569041 6:0.382356 7:0.719763 8:0.431261 9:0.152114 10:0.109492 11:0.56714 12:0.359163 13:0.315767 15:0.131655 17:0.223491 18:0.135866 19:0.296694 21:0.811311 22:0.584885 23:0.875096 24:0.539283 25:0.449651 26:0.560526 27:0.447363 28:0.324544 29:0.124809 30:0.165041 32:0.0538476 33:0.0723763 34:0.323547 36:0.0788737 37:0.390149 38:0.170515 41:0.419806 43:0.488755 45:0.0868354 46:0.594109 47:0.163648 49:0.0639432 50:0.208436 51:0.797103 52:0.268141 53:0.565725 55:0.716806 56:0.328651 57:0.647839 58:0.214087 59:0.119686 61:0.118877 62:0.290103 63:0.457887 65:0.373322 66:0.138994 
1.689638907748601 1:0.602485 4:0.486806 5:0.153785 6:0.6588 7:0.825008 8:0.583738 9:0.0553257 10:0.477883 11:0.506956 12:0.888708 14:0.480094 15:0.143653 16:0.0934568 17:0.459808 18:0.148248 19:0.854595 20:0.240317 21:0.80068 22:0.584885 23:0.909452 24:0.596014 25:0.735066 26:0.75433 27:0.244067 28:0.324544 29:0.408549 30:0.270122 32:0.528795 33:0.236917 34:0.264775 35:0.133794 36:0.0860618 37:0.380105 38:0.0930275 39:0.141033 41:0.549678 42:0.074422 43:0.592369 45:0.378997 46:0.368357 47:0.535687 48:0.225496 49:0.418624 51:0.754862 52:0.390104 53:0.764873 54:0.258936 55:0.751128 57:0.647839 59:0.195891 61:0.259422 62:0.422056 63:0.179454 65:0.271563 
1.065433622495453 1:1 2:0.162091 3:0.0839265 4:0.524629 5:0.317547 6:0.616688 7:0.941519 8:0.62861 10:0.099157 11:1 12:1 13:0.285961 14:0.398463 15:0.29807 17:0.944308 18:0.246083 19:0.759532 21:0.317452 22:0.522473 23:0.875096 24:0.687183 25:0.565853 26:0.682152 27:0.506419 28:0.324544 30:0.149462 32:0.292589 34:0.219755 36:1 37:0.381125 41:0.608287 43:0.688711 46:0.809149 47:0.222301 49:0.115815 51:0.900749 52:0.971323 53:0.757373 55:0.699217 56:0.148814 57:0.423127 58:0.0969393 59:0.108389 62:0.175147 63:0.372571 67:0.489511 
1.19072330837709 1:0.602485 3:0.0981737 4:0.478071 5:0.483427 6:0.382356 7:0.802655 8:0.784823 9:0.107427 10:0.463959 11:0.859727 12:0.807412 13:0.167252 14:0.116526 15:0.278936 16:0.0907336 17:0.459808 18:0.143929 19:0.854595 20:0.233315 21:0.603211 22:0.850885 23:0.655689 24:0.511979 25:0.240167 26:1 28:0.56714 29:0.396645 30:0.0874172 32:0.456344 34:0.428434 35:0.129895 36:0.0835541 37:0.348609 38:0.0903169 40:0.126165 41:0.622605 43:0.645001 44:0.0837541 45:0.0919883 46:0.488395 47:0.346719 48:0.145951 49:0.0677376 50:0.44161 51:0.668206 52:0.189369 53:0.625868 54:0.377087 55:0.80398 57:0.68385 58:0.113395 59:0.0633944 61:0.251863 62:0.307319 63:0.314933 64:0.139468 65:0.263651 67:0.57261 
1.943182371821445 1:0.583451 3:0.0854947 4:0.481689 5:0.623706 6:0.430287 7:0.927923 8:0.431261 9:0.14033 10:0.20202 11:0.783192 12:0.780463 14:0.202954 15:0.0607278 17:0.938236 18:0.376022 19:0.518935 20:0.474093 21:0.603211 22:0.481872 23:0.655689 24:0.629232 25:0.679482 26:1 27:0.103176 28:0.616688 29:0.230279 30:0.0761273 31:0.0506065 32:0.149028 33:0.200308 34:0.223861 36:0.145527 37:0.40162 38:0.0786525 39:0.11924 42:0.125844 43:0.662905 44:0.218812 45:0.480649 46:0.147502 47:0.15097 48:0.0635506 49:0.0589894 50:0.096144 51:0.864395 52:0.164912 53:0.645437 54:0.218924 55:0.638332 57:0.583137 59:0.110414 60:0.0789549 61:0.548338 62:0.0892096 63:0.469734 65:0.459201 67:0.166219 
1.064620008997513 1:0.596414 3:0.0972169 4:0.516925 5:0.421118 6:0.934879 7:0.719763 8:0.702986 9:0.10638 10:0.114859 11:0.638532 12:0.552577 14:0.461562 15:0.276217 16:0.0898493 17:0.574015 18:0.142526 19:0.854595 20:0.308055 21:0.554746 22:1 23:0.867475 24:0.616804 25:0.66358 26:0.580983 27:0.117323 28:0.783192 29:0.392779 30:0.0865652 31:0.11509 32:0.282435 33:0.151848 34:0.339407 35:0.128629 36:0.0827398 37:0.486666 38:0.0894366 39:0.542356 41:0.440384 42:0.0715493 43:0.551903 44:0.165876 45:0.182184 46:0.634679 47:0.343339 48:0.289056 49:0.26831 50:0.437305 51:0.748123 52:0.375046 53:0.641181 54:0.248941 55:0.696517 57:0.888886 59:0.0627765 61:0.124704 62:0.101441 63:0.391146 64:0.345271 65:0.391621 
1.792020398911083 1:0.668264 4:0.600329 5:0.283267 6:0.6588 7:0.954395 8:1 10:0.425956 11:0.324544 12:0.815631 14:0.213963 15:0.0640221 16:0.0833018 17:0.938236 18:0.26428 19:0.68655 20:0.285606 21:0.554746 22:0.687041 23:0.875096 24:0.608251 25:0.240167 26:1 27:0.32632 28:0.593004 29:0.364156 32:0.261853 33:0.211174 34:0.47201 36:0.0767103 37:0.420535 38:0.0829192 39:0.125708 40:0.231661 41:0.48995 43:0.507982 45:0.422268 46:0.634679 47:0.0795798 48:0.133996 49:0.0621894 50:0.101359 51:0.720187 52:0.173858 53:0.624663 54:0.1154 55:0.785659 56:0.159819 57:0.606427 61:0.34685 62:0.188098 63:0.213408 64:0.128044 65:0.48411 67:0.175236 
1.247197791463643 1:0.583451 3:0.204472 4:0.335255 5:0.362956 6:0.251691 7:0.825008 8:0.62861 10:0.120789 11:0.324544 12:0.789863 13:0.348346 14:0.364044 15:0.0726195 17:0.938236 18:0.149885 19:0.500663 20:0.16198 21:0.526883 22:0.556134 23:0.57676 24:0.622255 25:0.735066 26:0.560526 27:0.493521 28:0.324544 30:0.0910346 31:0.121032 33:0.239532 34:0.178465 36:0.435058 37:0.477905 38:0.0940542 39:0.142589 40:0.131385 41:0.555744 43:0.504281 45:0.19159 46:0.414532 47:0.0902665 49:0.211622 51:0.684248 52:0.295807 53:0.690341 55:0.820187 56:0.18128 57:0.647839 61:0.52457 62:0.213357 63:0.317632 64:0.0726195 67:0.198768 
1.581701119054902 1:0.464032 3:0.0965845 4:0.666209 5:0.797336 7:0.966623 8:0.702986 10:0.114112 11:0.8399 12:0.789863 14:0.22928 15:0.068605 16:0.0892649 17:0.938236 18:0.141599 19:0.353521 20:0.0765128 21:0.317452 22:0.556134 23:0.655689 24:0.592926 25:0.410586 26:0.811354 27:0.349679 28:0.430287 29:0.130075 30:0.0860021 31:0.0571709 32:0.0561196 33:0.0754302 34:0.0842997 35:0.255585 36:0.49321 37:0.347339 38:0.17771 39:0.134707 40:0.124122 41:0.0875038 42:0.213252 43:0.537676 45:0.180999 46:0.242476 47:0.0852765 48:0.430764 51:0.952825 52:0.279455 53:0.69943 54:0.123661 55:0.539713 56:0.171259 57:0.68385 58:0.11156 59:0.0623682 60:0.267589 61:0.123893 62:0.302344 63:0.532599 64:0.27442 65:0.259383 66:0.289718 
1.931721450762574 1:1 3:0.107894 4:0.50373 5:0.399305 6:0.251691 7:0.845476 8:0.67484 9:0.118064 10:0.127474 11:0.430287 12:0.798833 14:0.384192 15:0.0766385 16:0.199435 17:0.99855 18:0.15818 19:0.759532 20:0.0854722 21:0.149762 22:0.430708 23:0.695273 24:0.663728 25:0.36485 26:0.537468 27:0.390626 28:0.430287 29:0.145306 30:0.0960728 31:0.127731 32:0.0626911 33:0.168525 34:0.282513 37:0.582153 39:0.150481 40:0.138657 41:0.1955 43:0.474086 44:0.184094 45:0.101097 46:0.147502 48:0.160402 49:0.0744447 50:0.242667 51:0.645324 52:0.10406 53:0.680059 54:0.276282 55:0.614847 56:0.191313 57:0.375994 60:0.298923 61:0.415201 62:0.112583 63:0.441551 64:0.383192 65:0.144878 
0.5401455926436988 1:0.553426 4:0.4065 5:0.32664 6:0.934879 7:0.954395 8:0.431261 9:0.0491299 10:0.530457 11:1 12:0.815631 13:0.458938 14:0.426329 15:0.0637829 17:0.938236 19:0.395515 20:0.213405 21:0.80068 22:0.876928 23:0.712523 24:0.669684 25:0.565853 26:0.658519 27:0.216734 28:0.56714 29:0.241864 30:0.0799572 32:0.260875 33:0.0701283 34:0.313498 36:0.305695 37:0.513095 41:0.406767 43:0.615185 44:0.0766068 45:0.0841383 46:0.594109 47:0.237848 48:0.0667478 49:0.123914 50:0.201962 51:0.659244 52:0.346417 53:0.682612 54:0.229938 55:0.726938 57:0.940138 59:0.347907 60:0.0829271 61:0.115185 62:0.187395 63:0.2291 65:0.120576 67:0.174581 
0.4936741999920498 1:0.544836 4:0.573471 5:0.542902 6:0.430287 7:0.750642 8:0.664366 9:0.0491829 11:0.430287 12:0.478791 14:0.320092 15:0.191556 17:0.59 18:0.395366 19:0.854595 20:0.213635 21:0.554746 22:0.522473 23:0.632601 24:0.565731 25:0.36485 26:0.692907 27:0.542421 28:0.616688 29:0.484251 30:0.320175 32:0.0522314 33:0.210612 34:0.470755 35:0.118939 37:0.335911 38:0.0826987 39:0.250748 40:0.115523 41:0.407206 43:0.59544 45:0.168459 46:0.242476 47:0.158737 48:0.0668199 49:0.186072 50:0.10109 51:0.822222 52:0.0866978 53:0.600484 54:0.230187 55:0.745746 57:0.627907 59:0.0580471 60:0.0830166 61:0.230619 62:0.187598 63:0.452902 65:0.362118 67:0.17477 
0.6024235218582614 1:0.668264 2:0.14959 3:0.0774537 4:0.52357 5:0.472425 6:0.506956 7:0.719763 8:1 9:0.0423771 11:0.251691 12:0.780463 13:0.131953 14:0.183865 15:0.0550162 16:0.286335 17:0.938236 18:0.113552 19:0.68655 20:0.552218 21:0.80068 22:0.652244 23:0.743195 24:0.536952 25:0.770302 26:0.631342 28:0.324544 29:0.10431 30:0.137935 31:0.0916935 32:0.135011 33:0.0604894 34:0.202806 36:0.0659196 37:0.359127 38:0.14251 39:0.21605 40:0.0995371 41:0.0701716 43:0.408886 44:0.330387 45:0.0725738 46:0.312662 47:0.205156 48:0.403014 50:0.348405 51:0.739998 52:0.0747008 53:0.636154 54:0.2975 55:0.721064 56:0.137337 57:0.319144 58:0.0894628 59:0.250073 60:0.071529 61:0.0993531 62:0.161638 63:0.313193 64:0.385113 65:0.104003 67:0.150586 
2.280164474681238 1:1 4:0.837113 5:0.257215 6:0.251691 7:0.864355 8:0.62861 10:0.125377 11:0.251691 12:0.941836 13:0.180789 14:0.377871 15:0.30151 17:0.99855 19:0.759532 20:0.42033 21:0.317452 22:0.850885 23:0.606578 24:0.620956 25:0.410586 26:0.682152 27:0.384199 30:0.661444 32:0.246638 33:0.248629 35:0.421224 37:0.431814 41:0.192284 43:0.530963 45:0.2983 46:0.571292 47:0.562169 48:0.0788814 49:0.219659 50:0.238675 51:0.676269 52:0.307042 53:0.646424 54:0.407605 55:0.662628 56:0.188165 57:0.68385 58:0.367718 59:0.411151 62:0.442921 63:0.231713 64:0.0753776 65:0.142494 66:0.318319 67:0.206318 
2.162883952142287 1:0.504254 3:0.0908439 4:0.521917 5:0.485912 6:0.56714 7:0.802655 8:0.664366 9:0.0497033 10:0.21466 11:0.712085 12:0.478791 14:0.323479 15:0.0645274 17:0.459808 18:0.133183 19:0.854595 20:0.287861 21:1 22:0.812608 23:1 24:0.597514 25:0.565853 26:0.560526 27:0.328896 28:0.6588 30:0.0808905 31:0.107546 32:0.369489 34:0.237868 35:0.240395 36:0.38658 37:0.379123 39:0.1267 41:0.576121 43:0.616309 44:0.310004 45:0.255361 46:0.634679 47:0.160416 48:0.135054 49:0.0626803 51:0.758364 52:0.613307 53:0.588957 54:0.232622 55:0.785865 57:0.498521 59:0.117323 60:0.251685 61:0.233059 63:0.434268 64:0.129055 65:0.365949 67:0.176619 
1.781380904195156 1:0.553426 2:0.179487 4:0.617875 5:0.50895 6:0.471226 7:0.978265 8:0.227276 9:0.15254 10:0.219598 11:1 12:0.807412 14:0.441227 17:0.938236 18:0.136247 19:0.395515 20:0.441725 21:0.624578 22:0.876928 23:0.875096 24:0.502015 25:0.628637 26:0.537468 27:0.112154 28:0.538655 29:0.250317 30:0.0827515 31:0.05501 32:0.323991 33:0.0725791 34:0.24334 35:0.245925 36:0.158189 37:0.277522 38:0.0854964 41:0.336786 43:0.60225 44:0.079284 45:0.261236 46:0.70117 47:0.24616 48:0.414483 49:0.0641223 51:0.837557 52:0.179262 53:0.643619 54:0.475947 55:0.778087 56:0.164786 57:0.940138 58:0.214686 60:0.17165 61:0.11921 62:0.193944 63:0.435142 64:0.264048 65:0.124789 
0.0179482530849452 1:0.553426 2:0.286423 3:0.0741512 4:0.457025 5:0.264683 6:1 7:0.954395 8:0.431261 11:0.382356 12:0.815631 13:0.252654 14:0.176026 15:0.0526704 16:0.0685316 17:0.938236 19:0.395515 20:0.41119 21:1 22:0.716616 23:0.875096 24:0.542631 25:0.609296 26:1 27:0.357948 28:0.783192 30:0.330134 31:0.043892 32:0.17234 33:0.289552 34:0.388319 36:0.0631089 37:0.439048 38:0.0682168 39:0.103419 41:0.470258 43:0.518955 44:0.12652 45:0.277918 46:0.809149 47:0.130939 48:0.110238 49:0.102325 50:0.333551 51:0.694971 52:0.286063 53:0.642863 54:0.379755 55:0.645923 57:0.557704 59:0.287293 62:0.23212 63:0.307735 64:0.0526704 67:0.288331 
1.326545358068497 1:0.35367 3:0.0926092 4:0.40806 5:0.597315 6:0.506956 7:0.684381 8:0.795417 9:0.0506691 10:0.328246 11:0.506956 12:0.648073 14:0.109921 15:0.328906 16:0.0855908 17:0.424077 18:0.135771 19:0.68655 20:0.293454 21:0.624578 22:1 23:1 24:0.603523 25:0.66358 26:0.811354 27:0.223524 28:1 30:0.412311 32:0.484287 33:0.0723255 34:0.08083 36:0.0788182 37:0.547789 39:0.258325 40:0.119014 41:0.419511 42:0.0681581 43:0.482341 45:0.173549 46:0.777707 47:0.490599 48:0.206517 49:0.191695 50:0.312434 51:0.837738 52:0.267953 53:0.690376 54:0.237142 55:0.625912 57:1 59:0.0598012 62:0.193266 63:0.4803 64:0.0657813 65:0.248706 67:0.540153 
3.40305368101843 1:0.316118 3:0.0715621 4:0.643945 5:0.52969 6:0.6588 7:0.592995 8:0.62861 10:0.422744 11:0.8399 12:0.427954 13:0.243832 15:0.203325 16:0.0661388 17:0.424077 18:0.104915 19:0.456468 20:0.0566904 21:0.80068 22:1 23:1 24:0.65615 25:0.541173 26:0.682152 27:0.345449 28:1 29:0.096376 30:0.254885 31:0.0423595 32:0.207903 33:0.111777 34:0.24984 35:0.0946851 37:0.242475 39:0.0998081 40:0.183931 41:0.259336 42:0.052668 43:0.678689 44:0.0610512 45:0.134107 46:1 47:0.126367 48:0.159583 49:0.0987525 50:0.160952 51:0.715303 52:0.138037 53:0.716662 55:0.593325 56:0.12689 57:1 59:0.184841 62:0.373358 63:0.350361 64:0.0508314 65:0.288276 67:0.139131 
2.733057137094403 1:0.265304 4:0.531446 5:0.324109 6:0.6588 7:0.642958 8:0.62861 10:0.208228 11:0.727818 12:0.427954 13:0.300257 14:0.418383 15:0.125188 17:0.223491 18:0.258385 19:0.42884 20:0.139618 21:0.644403 22:1 23:0.859559 24:0.542919 25:0.66358 26:0.442806 27:0.212695 28:0.712085 29:0.237356 30:0.156934 32:0.614432 33:0.0688214 34:0.692224 35:0.349788 36:0.0749996 37:0.441543 38:0.0810699 39:0.368714 40:0.226495 41:0.878208 43:0.569549 45:0.16514 46:0.87083 47:0.46683 48:0.196511 49:0.182407 50:0.198198 51:0.652531 52:0.254971 53:0.68621 55:0.672065 57:0.757519 58:0.101786 59:0.170711 60:0.0813816 62:0.275854 63:0.348046 65:0.354985 67:0.171328 
2.215787563416532 1:0.265304 3:0.0695935 4:0.539943 5:0.433027 6:0.251691 7:0.864355 8:0.62861 9:0.0380766 10:0.246669 11:1 12:0.478791 13:0.237124 14:0.165206 15:0.049433 16:0.128639 17:0.574015 19:0.42884 20:0.275655 21:0.80068 22:0.850885 23:0.875096 24:0.649357 25:1 26:0.682152 27:0.167973 28:1 30:0.123937 31:0.0411942 32:0.525677 33:0.108702 34:0.242967 35:0.0920804 36:0.05923 37:0.393352 39:0.0970624 40:0.0894358 41:0.504403 42:0.0512191 43:0.50266 44:0.118744 45:0.260835 46:0.652893 47:0.307228 48:0.0517308 49:0.0960359 50:0.234786 51:0.72635 52:0.20136 53:0.615732 55:0.631712 57:0.68385 59:0.0898782 60:0.0642701 62:0.217852 63:0.375118 65:0.186897 67:0.135304 
4.33693950666782 1:0.265304 4:0.551321 5:0.63048 6:0.382356 7:0.684381 8:0.702986 10:0.207852 11:0.506956 12:0.648073 14:0.208813 15:0.249924 17:0.37905 18:0.128959 19:0.208438 20:0.278731 21:0.374 22:0.652244 23:0.655689 24:0.587135 25:0.565853 26:0.811354 27:0.318465 28:0.506956 29:0.236927 30:0.234975 32:0.15333 33:0.137394 34:0.307098 35:0.116385 36:0.449183 37:0.388022 40:0.339128 41:0.796927 43:0.707053 45:0.329683 46:0.87083 47:0.310657 48:0.130771 49:0.0606924 50:0.197839 51:0.713985 52:0.509018 53:0.570173 54:0.112622 55:0.625987 56:0.155971 57:0.423127 59:0.113602 61:0.112834 62:0.18357 63:0.480082 64:0.062481 65:0.354343 
3.167254334260011 1:0.186386 4:0.621849 5:0.559294 6:0.506956 7:0.684381 8:0.431261 9:0.0504434 10:0.326784 11:0.742716 12:0.648073 13:0.314139 14:0.437727 15:0.196465 17:0.424077 18:0.405498 19:0.518935 20:0.0730367 21:0.495878 22:0.670408 23:0.712523 24:0.683542 25:0.483745 26:1 27:0.445057 28:0.382356 29:0.24833 30:0.16419 32:0.21428 33:0.504023 34:0.482819 35:0.121987 36:0.078467 37:0.331252 38:0.084818 40:0.118483 41:0.167057 43:0.537864 45:0.518327 46:0.87083 47:0.0814022 48:0.0685323 49:0.0636135 50:0.207361 51:0.825131 52:0.177839 53:0.770848 54:0.590214 55:0.765554 56:0.163478 57:0.606427 59:0.178604 61:0.118264 62:0.384811 63:0.4208 64:0.0654882 65:0.371398 67:0.358498 
1.994529493665261 1:0.316118 2:0.194568 3:0.201485 4:0.627354 5:0.812305 6:0.695421 7:0.719763 8:0.62861 10:0.119025 11:0.742716 12:0.359163 14:0.119575 15:0.357793 17:0.424077 19:0.456468 20:0.23942 21:1 22:0.670408 23:0.655689 24:0.654115 25:0.410586 26:0.442806 27:0.364733 28:0.807263 29:0.542698 30:0.269114 31:0.0596321 32:0.117071 33:0.393387 34:0.263787 36:0.0857404 37:0.402512 38:0.0926801 39:0.140506 41:0.456354 42:0.074144 43:0.632839 45:0.283186 46:1 47:0.444738 48:0.224655 49:0.13902 51:0.608229 52:0.388648 53:0.588925 54:0.386954 55:0.705777 57:0.757519 58:0.116363 59:0.130106 61:0.129227 62:0.42048 63:0.584025 64:0.143117 65:0.541099 
4.580409969386885 1:0.265304 2:0.383954 3:0.099401 4:0.677513 5:0.385875 6:0.742716 7:0.530032 8:0.523454 9:0.0543851 10:0.234879 11:0.742716 12:0.648073 13:0.169343 14:0.353948 15:0.141211 16:0.275604 17:0.31812 18:0.145728 19:0.456468 20:0.157488 21:0.603211 22:0.522473 23:0.833794 24:0.582523 25:0.66358 26:0.658519 28:0.638532 29:0.401603 31:0.117676 32:0.346536 33:0.0776298 34:0.260274 36:0.0845987 37:0.232878 39:0.27727 41:0.0900555 43:0.568568 44:0.339204 45:0.279415 46:0.488395 47:0.263289 48:0.0738876 49:0.0685845 51:0.726452 52:0.287604 53:0.681736 54:0.3818 55:0.725206 56:0.176253 57:0.15056 59:0.128374 62:0.20744 63:0.352124 64:0.211817 65:0.133473 67:0.193256 
3.743628724732919 1:0.186386 2:0.185815 4:0.463747 5:0.643794 6:0.6588 7:0.684381 8:0.323509 9:0.0526392 10:0.227339 11:0.859727 12:0.648073 13:0.163907 14:0.114195 15:0.068339 16:0.177838 17:0.37905 18:0.14105 19:0.208438 20:0.228648 21:0.624578 22:0.670408 23:0.833794 24:0.656132 25:0.449651 26:0.39579 27:0.116108 28:0.56714 29:0.259141 30:0.342675 32:0.614922 33:0.0751377 34:0.167946 35:0.127297 36:0.163766 37:0.251975 38:0.177021 40:0.247282 41:0.435823 43:0.758059 44:0.0820789 45:0.270445 46:0.453973 47:0.339783 48:0.143031 49:0.464679 51:0.681728 52:0.371162 53:0.50438 54:0.246363 55:0.701603 57:0.606427 58:0.111127 59:0.248505 61:0.123413 62:0.301172 63:0.347271 65:0.387565 67:0.187052 
0.1495492743768752 1:1 2:0.199826 3:0.20693 4:0.54389 5:0.261305 6:0.430287 7:0.642958 8:1 10:0.244482 11:0.616688 12:0.780463 14:0.245613 15:0.440953 16:0.0956238 17:0.861869 19:1 20:0.409816 21:0.495878 22:0.702382 23:0.875096 24:0.473349 25:0.541173 26:1 27:0.249726 28:0.324544 29:0.418022 30:0.552771 31:0.0612435 32:0.420821 33:0.24241 34:0.270915 35:0.136896 37:0.339701 38:0.0951845 41:0.374949 42:0.0761476 43:0.45862 45:0.387784 46:0.414532 47:0.0913513 48:0.307633 49:0.142777 51:0.745713 52:0.199575 53:0.727074 54:0.39741 55:0.723425 57:0.529692 59:0.200433 60:0.0955505 62:0.215921 63:0.176126 65:0.13893 67:0.402314 
3.894066660503466 1:0.265304 2:0.150625 3:0.155979 4:0.642059 5:0.486539 6:0.616688 7:0.719763 8:0.227276 9:0.0426703 11:0.695421 12:0.648073 13:0.132866 14:0.0925688 15:0.110794 17:0.424077 18:0.228675 19:0.353521 20:0.308911 21:0.495878 22:0.812608 23:0.909452 24:0.59881 25:0.513992 26:0.233361 27:0.282357 28:0.56714 29:0.105032 30:0.277778 31:0.046164 32:0.407836 34:0.27228 35:0.206379 36:0.0663757 37:0.481855 38:0.0717481 39:0.108772 41:0.423943 43:0.53949 45:0.146152 46:0.488395 47:0.137717 48:0.0579719 49:0.322866 50:0.087704 51:0.666812 52:0.150435 53:0.665688 54:0.099853 55:0.667245 57:0.627907 58:0.180164 59:0.151082 60:0.144048 62:0.244135 63:0.410909 65:0.104723 
4.43645095687833 1:0.186386 2:0.200947 4:0.627533 5:0.588467 6:0.638532 7:0.750642 8:0.62861 9:0.170779 11:0.382356 12:0.749216 13:0.177255 14:0.246991 15:0.147809 17:0.223491 18:0.915222 19:0.500663 21:0.624578 22:0.702382 23:0.632601 24:0.614614 25:0.735066 26:0.560526 27:0.251127 28:0.471226 29:0.140123 31:0.0615871 32:0.0604546 34:0.181623 35:0.137664 36:0.354206 37:0.434698 39:0.145113 40:0.13371 41:0.471316 43:0.553421 45:0.19498 46:0.70117 47:0.0918638 49:0.0717889 51:0.814719 52:0.501737 53:0.68686 54:0.133213 55:0.597436 57:0.854679 58:0.240355 59:0.0671859 60:0.0960866 61:0.133463 63:0.406212 65:0.419129 67:0.202285 
2.525865270581405 1:0.186386 2:0.405136 4:0.477422 5:0.535088 6:0.712085 7:0.802655 8:0.62861 9:0.0573854 10:0.123918 11:0.727818 12:0.478791 13:0.357371 14:0.248983 15:0.0745007 16:0.096936 17:0.31812 19:0.296694 20:0.083088 21:0.554746 22:0.794947 23:0.632601 24:0.658106 25:0.410586 26:0.560526 27:0.379729 28:0.430287 29:0.282506 30:0.186786 31:0.124168 33:0.0819123 34:0.0915441 36:0.178531 37:0.414713 38:0.192981 40:0.404367 41:0.0950235 42:0.231578 43:0.43597 46:0.488395 47:0.18521 48:0.0779637 49:0.072368 51:0.769029 52:0.30347 53:0.547717 55:0.501917 57:0.888886 58:0.484588 59:0.0677279 60:0.0968617 61:0.13454 62:0.218884 63:0.395795 64:0.0745007 65:0.140837 67:0.203917 
0.03451292700777529 1:1 4:0.470454 5:0.420782 6:0.934879 7:0.642958 8:1 10:0.214313 11:0.783192 12:0.749216 13:0.154515 14:0.107652 15:0.128846 16:0.167648 17:0.861869 18:0.132968 19:1 20:0.359245 21:0.580045 22:0.670408 23:0.695273 24:0.590273 25:0.679482 26:1 28:1 29:0.366438 30:0.0807598 31:0.107372 32:0.316193 33:0.212497 34:0.237484 35:0.120003 36:0.0771909 37:0.436444 38:0.250316 41:0.32868 43:0.592773 44:0.154752 45:0.254949 46:0.777707 47:0.480471 48:0.404507 49:0.062579 50:0.101994 51:0.708774 52:0.262421 53:0.740867 54:0.116123 55:0.693292 57:0.423127 59:0.117133 60:0.167519 61:0.116341 62:0.283914 63:0.354328 64:0.257693 65:0.243572 
1.553173906750515 1:1 3:0.100459 4:0.554883 5:0.490624 6:0.430287 7:0.966623 8:0.641349 9:0.054964 10:0.237379 11:0.153108 12:0.798833 14:0.119239 15:0.142714 16:0.278537 17:1 18:0.294558 19:0.865142 20:0.477493 21:0.495878 22:0.716616 23:0.875096 24:0.572268 25:0.309685 26:0.511047 27:0.363707 28:0.783192 29:0.135293 30:0.0894521 31:0.0594643 32:0.116742 33:0.078456 34:0.0876814 35:0.265838 37:0.475628 38:0.0924193 39:0.140111 40:0.129102 41:0.182028 42:0.0739354 43:0.671025 44:0.514223 45:0.188259 46:0.809149 47:0.266092 48:0.074674 51:0.709661 53:0.531105 55:0.715993 56:0.178129 57:0.940138 59:0.0648701 61:0.128863 62:0.104824 63:0.31098 64:0.285429 65:0.134894 67:0.195313 
0.9643780720992788 1:0.602485 2:0.192979 4:0.396749 5:0.373832 6:1 7:0.592995 8:0.784823 9:0.0546688 11:0.506956 12:0.606077 13:0.340454 14:0.118598 15:0.283896 17:0.459808 19:0.854595 20:0.237464 21:1 22:0.794947 23:0.875096 24:0.602508 25:0.410586 26:1 27:0.482338 29:0.269133 30:0.355887 32:0.406402 34:0.0872105 35:0.132205 37:0.446317 39:0.139358 41:0.362101 43:0.502818 46:0.453973 47:0.529327 48:0.074273 49:0.344711 50:0.112366 51:0.687972 52:0.0963682 53:0.616184 54:0.255862 55:0.644469 56:0.177172 57:1 59:0.516174 60:0.0922764 61:0.128171 62:0.417045 63:0.349258 64:0.0709739 65:0.13417 67:0.194264 
1.112371315049835 1:0.544836 3:0.0969863 4:0.6103 5:0.489028 6:0.677706 7:0.778037 8:0.702986 9:0.106128 10:0.114587 11:0.616688 12:0.552577 14:0.230234 15:0.0688904 16:0.0896362 17:0.459808 19:0.854595 20:0.230493 21:0.374 22:1 23:0.606578 24:0.623596 25:0.410586 26:0.811354 27:0.585223 28:0.538655 29:0.261232 30:0.0863599 31:0.114817 32:0.394472 33:0.151488 34:0.0846504 35:0.128324 37:0.554908 39:0.270535 40:0.249277 41:0.351471 42:0.0713796 43:0.481497 44:0.0827411 45:0.454379 46:0.453973 47:0.342525 48:0.288371 49:0.0669184 51:0.628396 53:0.615211 54:0.124175 55:0.748835 57:1 59:0.0626277 60:0.0895675 61:0.124408 62:0.101201 63:0.379447 64:0.344452 66:0.290923 67:0.377123 
0.3124242823867909 1:0.596414 2:0.341153 3:0.0883203 4:0.44127 5:0.600439 6:0.712085 7:0.978265 8:0.702986 9:0.0483225 10:0.104348 11:0.695421 12:0.427954 13:0.150466 14:0.104831 16:0.0816269 17:0.459808 19:0.854595 20:0.139932 21:0.246191 22:0.609978 23:0.57676 24:0.540561 25:0.309685 26:0.811354 27:0.213172 28:0.430287 29:0.118945 30:0.0786433 32:0.102635 34:0.154173 37:0.402468 38:0.081252 39:0.492722 41:0.240049 42:0.0650016 43:0.592238 44:0.0753479 45:0.0827557 46:0.488395 47:0.0779798 48:0.065651 49:0.121878 50:0.198643 51:0.752003 52:0.255543 53:0.651053 55:0.780665 57:0.247503 60:0.489385 61:0.56646 63:0.488619 64:0.125469 65:0.118594 66:0.264928 
5.896375361248929 1:0.186386 2:0.405955 3:0.210193 4:0.576378 5:0.38788 6:0.506956 7:0.864355 8:0.832397 11:0.506956 12:0.252325 14:0.124743 15:0.298605 16:0.388528 17:0.223491 18:0.154078 19:0.208438 20:0.499536 21:0.374 22:0.430708 23:0.499744 24:0.484173 25:0.449651 26:0.75433 28:0.829436 29:0.283077 31:0.0622095 32:0.183197 34:0.0917293 35:0.139055 37:0.428392 40:0.270123 41:0.190431 43:0.574739 44:0.179321 46:0.594109 47:0.278376 48:0.234364 49:0.0725144 51:0.725042 52:0.101361 53:0.619308 54:0.269118 55:0.715815 56:0.186353 59:0.13573 61:0.404436 62:0.109663 63:0.40905 64:0.149303 65:0.282243 
0.5178579666819341 1:1 4:0.550948 5:0.455088 6:0.742716 7:0.778037 8:0.795417 9:0.123464 10:0.177739 11:0.382356 12:0.725226 14:0.178561 15:0.106858 16:0.208556 17:0.944308 18:0.55138 19:0.867171 20:0.0595875 21:0.80068 22:1 23:0.446683 24:0.565241 25:0.565853 26:0.721806 27:0.363103 28:1 29:0.202602 30:0.0669777 31:0.0890484 32:0.0437055 34:0.590867 36:0.0640179 37:0.301749 38:0.0691994 41:0.272589 42:0.0553595 43:0.535584 44:0.128342 45:0.0704801 46:1 47:0.0664126 48:0.111825 50:0.0845886 51:0.795154 52:0.217637 53:0.712646 54:0.192612 55:0.708581 57:0.757519 58:0.260646 59:0.0485719 61:0.0964868 62:0.235463 63:0.414917 64:0.106858 65:0.505013 66:0.112815 
5.677454141566352 1:0.186386 2:0.116523 3:0.301664 4:0.583692 5:0.446766 6:0.934879 7:0.719763 8:0.523454 11:1 12:0.427954 14:0.0716112 17:0.31812 19:0.456468 20:0.0477947 21:0.753502 22:1 23:0.263367 24:0.643299 25:0.770302 26:0.658519 28:0.324544 32:0.490781 34:0.157977 36:0.205393 37:0.376003 40:0.0775346 41:0.710585 43:0.559509 46:0.488395 48:0.044847 51:0.714127 52:0.116377 53:0.604717 55:0.72028 57:1 61:0.0773913 62:0.0629543 63:0.317784 65:0.324054 67:0.117299 
0.3639356477290473 1:0.602485 4:0.563926 5:0.54559 6:0.638532 7:0.864355 8:0.664366 9:0.0947543 10:0.102307 11:0.616688 12:0.798833 13:0.147522 15:0.184523 17:0.514735 19:0.854595 20:0.274389 21:0.554746 22:0.794947 23:0.541851 24:0.652558 25:0.513992 26:0.692907 27:0.209002 28:0.430287 29:0.116618 30:0.154209 31:0.0512562 32:0.251569 33:0.135253 34:0.604628 35:0.114572 37:0.238912 39:0.120771 41:0.235353 43:0.560252 44:0.0738738 45:0.324547 46:0.87083 48:0.0643665 49:0.17924 50:0.194757 51:0.68359 53:0.702456 54:0.221735 55:0.846779 56:0.153541 57:0.529692 59:0.27958 62:0.0903549 63:0.427177 64:0.0615075 
1.916520243780845 1:1 4:0.646735 5:0.548251 6:1 7:0.825008 8:0.859419 9:0.12378 10:0.178194 11:0.324544 12:0.888708 13:0.128474 14:0.089509 15:0.321394 16:0.0696966 17:0.99855 18:0.110558 19:0.865142 20:0.23896 21:0.149762 22:0.876928 23:0.867475 24:0.645181 25:0.240167 26:0.599366 27:0.091008 28:0.430287 29:0.203121 30:0.0671491 31:0.0892762 32:0.350538 33:0.117789 34:0.13164 36:0.0641817 37:0.303681 38:0.277506 39:0.210354 40:0.0969128 41:0.341608 43:0.626608 44:0.257341 45:0.423962 46:0.87083 47:0.133165 48:0.0560557 49:0.104065 50:0.0848051 51:0.739306 52:0.145463 53:0.717137 54:0.0965524 55:0.698521 56:0.133716 57:0.940138 59:0.243481 60:0.20893 61:0.0967337 63:0.450975 64:0.0535657 65:0.506305 
0.05427111182575992 1:0.464032 3:0.0936083 4:0.601086 5:0.490978 6:0.382356 7:0.954395 8:0.431261 10:0.221191 11:0.695421 12:0.815631 13:0.159475 14:0.222215 15:0.132982 16:0.0865142 17:0.938236 19:0.353521 20:0.370775 21:1 22:0.652244 23:1 24:0.622164 25:0.309685 26:0.480115 27:0.451872 28:1 30:0.250056 32:0.489513 33:0.0731058 34:0.326808 35:0.24771 37:0.518661 38:0.0861168 41:0.33923 42:0.137787 43:0.459507 45:0.175421 46:0.652893 47:0.165297 48:0.139163 49:0.193763 51:0.681158 52:0.180562 53:0.641179 54:0.2397 55:0.770605 57:0.498521 58:0.108122 59:0.423125 62:0.195351 63:0.47027 65:0.125695 67:0.181994 
2.040721694472196 1:0.504254 2:0.174686 4:0.520452 5:0.29987 6:0.6588 7:0.778037 8:0.664366 11:1 12:0.359163 13:0.154091 14:0.214712 15:0.385477 16:0.0835935 17:0.459808 19:0.854595 20:0.214955 21:0.554746 22:0.522473 23:0.793462 24:0.559497 25:0.609296 26:0.537468 27:0.436617 28:1 29:0.121811 30:0.0805381 31:0.0535386 32:0.367878 33:0.353189 34:0.315775 35:0.119674 36:0.153958 37:0.462805 38:0.332838 41:0.245833 42:0.0665676 43:0.66726 44:0.0771633 45:0.254248 46:0.686014 47:0.159717 48:0.0672327 49:0.249628 51:0.799236 53:0.632369 54:0.115804 55:0.800385 56:0.160378 57:0.423127 58:0.208944 59:0.175217 61:0.116022 62:0.188756 63:0.364357 64:0.0642463 65:0.364354 67:0.17585 
1.437195634705742 1:0.504254 2:0.316765 4:0.480613 5:0.448562 6:0.616688 7:0.592995 8:0.784823 11:0.506956 12:0.252325 13:0.139709 14:0.29201 15:0.17475 16:0.0757916 17:0.459808 18:0.120227 19:0.854595 20:0.129928 21:0.624578 22:0.522473 23:0.867475 24:0.691458 25:0.565853 26:1 27:0.197933 28:0.795485 29:0.220884 30:0.0730213 31:0.0970834 32:0.285895 33:0.064045 34:0.357879 35:0.108504 36:0.139589 37:0.375551 38:0.0754434 39:0.114375 41:0.520075 43:0.561863 45:0.230519 46:0.652893 47:0.0724052 49:0.226331 51:0.691516 52:0.395459 53:0.589626 54:0.104996 55:0.634929 57:0.15056 59:0.158864 60:0.151467 62:0.171139 63:0.199391 65:0.550582 67:0.159437 
2.117558389980184 1:0.544836 3:0.0838809 4:0.490222 5:0.367564 6:0.638532 7:0.642958 8:0.784823 10:0.29731 11:0.471226 12:0.359163 13:0.285806 14:0.497808 15:0.119163 16:0.077524 17:0.59 18:0.24595 19:0.854595 21:0.811311 22:1 23:1 24:0.605957 25:0.609296 26:0.788188 27:0.506145 28:0.430287 29:0.225933 30:0.149381 32:0.487383 33:0.0655089 34:0.146424 35:0.221969 36:0.0713897 37:0.51789 41:0.835941 43:0.65215 45:0.157192 46:0.87083 47:0.444361 48:0.0623511 51:0.755855 52:0.485398 53:0.611835 54:0.107396 55:0.605967 57:1 59:0.270825 61:0.215195 62:0.350103 63:0.260241 65:0.225267 67:0.163082 
0.4655858067886738 1:1 4:0.630303 5:0.394278 6:0.506956 7:0.864355 8:0.795417 10:0.119534 11:0.86914 12:0.941836 13:0.172363 14:0.480346 15:0.287458 17:0.99855 19:1 20:0.0801479 21:0.80068 22:0.794947 23:0.499744 24:0.523374 25:0.240167 26:0.580983 27:0.122098 28:0.6588 29:0.136255 30:0.180176 32:0.470287 33:0.158028 34:0.441524 35:0.267728 36:0.172214 37:0.381832 39:0.423321 40:0.13002 41:0.733289 43:0.541347 45:0.284397 46:0.147502 47:0.625296 48:0.075205 49:0.0698073 50:0.113776 51:0.795282 52:0.195155 53:0.696892 54:0.388608 55:0.787245 56:0.179396 57:1 59:0.130663 62:0.316708 63:0.321783 
0.03745247550047789 1:0.602485 2:0.166476 4:0.566004 5:0.622865 6:0.934879 7:0.954395 8:0.784823 9:0.0471607 10:0.101839 11:1 12:0.941836 14:0.20462 15:0.244906 17:0.514735 18:0.505479 19:0.854595 20:0.0682838 21:0.317452 22:0.850885 23:0.875096 24:0.68382 25:0.410586 26:0.631342 27:0.312071 28:0.795485 29:0.116085 30:0.230257 32:0.350587 33:0.0673176 34:0.225699 36:0.0733608 37:0.411266 39:0.120219 41:0.312371 42:0.0634388 43:0.510383 44:0.0735364 45:0.161532 46:0.809149 47:0.30442 48:0.0640725 49:0.237895 51:0.644045 52:0.249399 53:0.684068 54:0.220722 55:0.793653 57:0.647839 59:0.278302 60:0.0796033 61:0.110568 62:0.269826 63:0.410952 64:0.0612265 65:0.462972 
1.155748803569593 1:1 2:0.171776 3:0.0889414 4:0.483768 5:0.492799 6:0.6588 7:1 8:0.545911 9:0.0973248 10:0.52541 11:1 12:1 14:0.316704 15:0.126352 17:0.944308 19:0.759532 20:0.140916 21:0.495878 22:0.556134 23:1 24:0.676779 25:0.36485 26:0.332169 27:0.322008 28:0.324544 29:0.239563 30:0.158393 31:0.0526467 32:0.413429 34:0.310515 35:0.11768 36:0.22709 37:0.459113 38:0.0818235 39:0.372141 41:0.644634 43:0.632861 45:0.333351 46:0.414532 47:0.392641 48:0.198338 49:0.184103 50:0.30006 51:0.728167 52:0.343121 53:0.608472 54:0.113875 55:0.632706 57:0.647839 59:0.114866 61:0.114089 62:0.464031 63:0.430831 65:0.477714 
2.424406939105324 1:0.504254 2:0.740175 4:0.593952 5:0.436078 6:0.593004 7:0.642958 8:0.664366 10:0.226396 11:0.616688 12:0.359163 13:0.163227 14:0.113722 15:0.408333 16:0.1771 17:0.459808 19:0.854595 20:0.3795 21:0.526883 22:0.850885 23:0.782004 24:0.674113 25:0.240167 26:0.692907 27:0.115626 28:0.153108 29:0.129033 30:0.0853132 32:0.334021 33:0.149652 34:0.167249 35:0.507077 36:0.163086 37:0.442725 39:0.267256 41:0.434015 43:0.421526 44:0.163477 45:0.179549 46:0.809149 47:0.25378 48:0.213657 49:0.0661073 51:0.639947 52:0.277217 53:0.646981 54:0.245341 55:0.713117 57:0.647839 58:0.110666 59:0.185606 61:0.368702 62:0.199948 63:0.374128 
0.2927230480447491 1:1 4:0.808834 5:0.378213 6:0.695421 7:0.802655 8:1 9:0.103418 11:0.8399 12:0.807412 13:0.16101 14:0.112177 15:0.268526 17:0.99855 18:0.138557 19:1 21:0.80068 22:0.850885 23:0.655689 24:0.622178 25:0.309685 26:1 27:0.114056 28:0.382356 29:0.254561 30:0.16831 31:0.111886 32:0.164742 33:0.0738099 34:0.329956 35:0.500191 37:0.456893 41:0.342497 43:0.363805 45:0.0885553 46:0.634679 47:0.250334 49:0.130419 51:0.80312 52:0.0911508 53:0.658659 54:0.363014 55:0.615524 56:0.16758 57:0.647839 59:0.244114 60:0.0872805 62:0.29585 63:0.3149 65:0.634528 
1.132783776939683 1:0.504254 3:0.177894 4:0.566376 5:0.37052 6:0.807263 7:0.778037 8:0.784823 10:0.315266 11:0.56714 12:0.359163 13:0.151533 15:0.0631799 17:0.459808 18:0.130402 19:0.854595 20:0.140925 21:0.80068 22:0.522473 23:0.867475 24:0.570849 25:1 26:0.788188 27:0.644056 28:0.471226 30:0.316806 31:0.0526499 32:0.413455 33:0.0694653 34:0.310535 35:0.353062 36:0.0757013 37:0.396791 38:0.0818285 40:0.114307 41:0.644675 43:0.719492 45:0.166686 46:0.312662 47:0.314133 49:0.306857 50:0.200053 51:0.745649 52:0.343143 53:0.782995 54:0.113882 55:0.735182 57:0.375994 58:0.205476 59:0.172309 61:0.228192 62:0.185624 63:0.320556 64:0.0631799 66:0.133404 67:0.172931 
7.834986145781884 1:0.186386 4:0.460907 5:0.39959 6:0.593004 7:0.592995 8:0.323509 9:0.11005 10:0.118821 11:0.430287 12:0.427954 14:0.477483 15:0.285744 16:0.371794 17:0.223491 18:0.147442 19:0.353521 20:0.398351 21:0.460928 22:0.850885 23:0.712523 24:0.70146 25:0.449651 26:0.233361 27:0.364109 28:0.430287 29:0.135443 32:0.175306 33:0.235629 34:0.263335 36:0.0855938 37:0.454638 38:0.185043 39:0.140266 41:0.546688 43:0.55763 44:0.257396 45:0.376935 46:0.809149 47:0.266387 48:0.0747568 49:0.138782 50:0.113097 51:0.778713 52:0.193991 53:0.662505 54:0.257528 55:0.730108 57:0.68385 58:0.232327 62:0.31482 63:0.382189 64:0.0714362 65:0.270086 
2.157396713632403 1:0.186386 4:0.60935 5:0.379459 6:0.712085 7:0.592995 8:0.62861 10:0.368523 11:0.506956 12:0.606077 13:0.177132 14:0.246818 15:0.147706 16:0.0960932 17:0.944308 18:0.15243 19:0.456468 20:0.329462 21:0.495878 22:0.609978 23:0.655689 24:0.52842 25:0.410586 26:0.560526 28:0.677706 29:0.560099 30:0.833227 31:0.0615441 32:0.422887 34:0.0907482 36:0.0884895 37:0.288644 38:0.0956517 39:0.145011 41:0.282592 43:0.550549 44:0.0887014 45:0.097422 46:0.634679 47:0.183599 48:0.154572 49:0.286955 50:0.116924 51:0.863397 52:0.100277 53:0.733419 54:0.532481 55:0.951634 57:0.627907 59:0.402834 60:0.0960195 61:0.40011 62:0.216981 63:0.316697 65:0.279224 67:0.202144 
7.27124109770281 1:0.265304 4:0.466794 5:0.420064 6:0.430287 7:0.592995 8:0.62861 9:0.152135 10:0.109507 11:0.695421 12:0.478791 13:0.157905 14:0.220028 15:0.131673 16:0.171326 17:0.223491 18:0.407655 19:0.296694 20:0.146851 21:0.554746 22:0.609978 23:0.859559 24:0.575528 25:1 26:0.442806 28:0.538655 29:0.249652 30:0.0825316 32:0.21542 33:0.0723863 34:0.242694 36:0.236654 37:0.408375 38:0.170539 39:0.387813 41:0.0839727 43:0.615725 44:0.0790733 45:0.173695 46:0.634679 47:0.163671 48:0.206691 49:0.127904 50:0.104232 51:0.749577 52:0.178786 53:0.741426 54:0.356012 55:0.767276 57:0.647839 59:0.0598514 60:0.0855971 62:0.193429 63:0.17033 64:0.0658366 65:0.373374 
0.3962044159450951 1:0.602485 3:0.0816591 4:0.58636 5:0.556742 6:0.593004 7:0.642958 8:0.702986 9:0.044678 11:0.324544 12:0.749216 14:0.193848 15:0.116007 17:0.574015 18:0.119717 19:0.854595 21:0.374 22:0.702382 23:0.859559 24:0.485194 25:1 26:0.811354 27:0.492737 28:0.593004 29:0.329922 30:0.145424 31:0.0966721 32:0.142342 33:0.127547 34:0.570181 35:0.108045 36:0.347494 37:0.241716 38:0.0751239 39:0.11389 41:0.739816 43:0.613926 45:0.153028 46:0.809149 47:0.0720985 48:0.121399 49:0.056343 50:0.183661 51:0.674982 52:0.157513 53:0.735071 54:0.209102 55:0.624583 56:0.144794 57:0.557704 58:0.0943203 59:0.158191 61:0.209495 62:0.170414 63:0.368326 64:0.17401 65:0.657899 
1.452701774747085 1:0.596414 4:0.555686 5:0.477235 6:0.934879 7:0.719763 8:0.784823 9:0.232325 10:0.125421 11:0.783192 12:0.252325 13:0.361705 14:0.252003 15:0.377021 16:0.294335 17:0.459808 18:0.311265 19:0.854595 20:0.0840956 21:0.317452 22:0.687041 23:0.743195 24:0.66582 25:0.449651 26:1 27:0.128111 28:0.783192 30:0.189051 31:0.0628368 32:0.308407 34:0.277963 36:0.0903482 37:0.405042 39:0.296115 40:0.136424 41:0.288528 42:0.0781287 43:0.401114 44:0.181129 46:0.634679 47:0.656095 48:0.0789092 49:0.219737 51:0.764793 52:0.102384 53:0.732415 54:0.271833 55:0.665112 56:0.188232 57:0.423127 58:0.122616 59:0.342747 60:0.196073 62:0.664616 63:0.381506 65:0.427634 66:0.159215 
3.817715536921754 1:0.265304 3:0.106297 4:0.646982 5:0.433635 6:0.807263 7:0.941519 8:0.385471 9:0.0581579 10:0.251173 11:0.506956 12:0.815631 13:0.543272 14:0.126168 15:0.226511 17:0.223491 18:0.467512 19:0.208438 20:0.0842066 21:0.740325 22:0.556134 23:0.632601 24:0.551507 25:0.449651 26:0.480115 27:0.641402 28:0.712085 29:0.429463 32:0.308813 33:0.16603 34:0.185553 36:0.180935 37:0.318704 38:0.195579 40:0.136604 41:0.385211 42:0.156463 43:0.606449 45:0.298798 46:0.87083 47:0.187703 49:0.293369 50:0.119537 51:0.787084 52:0.410074 53:0.682637 55:0.683175 57:0.15056 59:0.137279 61:0.136351 62:0.332746 63:0.295021 65:0.428197 67:0.206662 
3.371252441301739 1:0.265304 4:0.590574 5:0.560672 6:0.593004 7:0.750642 8:0.323509 9:0.0476678 10:0.102934 11:0.86914 12:0.427954 13:0.148427 14:0.310231 15:0.309424 17:0.223491 19:0.395515 20:0.414107 21:0.80068 22:1 23:0.875096 24:0.591006 25:0.541173 26:0.480115 27:0.315426 28:0.818568 29:0.117333 30:0.0775777 31:0.103141 32:0.65809 34:0.228126 35:0.345824 36:0.148299 37:0.4454 40:0.111964 41:0.552525 43:0.669266 45:0.244903 46:1 47:1 48:0.129523 49:0.18034 51:0.822224 52:0.588188 53:0.768464 54:0.111548 55:0.707145 57:0.888886 59:0.281294 60:0.0804592 61:0.223514 62:1 63:0.487415 67:0.338772 
2.094114911471751 1:0.596414 4:0.504911 5:0.419588 6:0.712085 7:0.927923 8:0.784823 10:0.552855 11:0.742716 12:0.478791 13:0.159439 14:0.333247 15:0.132952 16:0.0864948 17:0.574015 18:0.137205 19:0.854595 20:0.296554 21:0.554746 22:0.803975 23:0.655689 24:0.573168 25:0.565853 26:0.631342 28:0.538655 29:0.630191 30:1 32:0.435025 33:0.146179 34:0.163368 35:0.247654 37:0.132021 38:0.0860975 41:0.169577 43:0.627247 44:0.239524 45:0.263073 46:0.634679 47:0.165261 48:0.139132 49:0.322866 50:0.105245 51:0.814175 52:0.090261 53:0.697879 54:0.119823 55:0.621704 57:0.529692 59:0.483462 60:0.0864285 62:0.0976538 63:0.303799 64:0.132952 65:0.377001 67:0.363906 
1.530898689391867 1:0.668264 3:0.173043 4:0.536727 5:0.386117 6:0.6588 7:0.954395 8:1 10:0.102223 11:0.506956 12:0.815631 13:0.294802 14:0.205391 15:0.061457 17:0.938236 19:0.68655 20:0.342704 21:0.495878 22:0.794947 23:0.676435 24:0.53025 25:0.609296 26:0.788188 27:0.522076 28:0.506956 29:0.116522 30:0.0770414 31:0.0512142 32:0.351907 33:0.135142 34:0.302066 35:0.228956 37:0.19859 38:0.159194 39:0.120672 41:0.23516 43:0.714877 45:0.16214 46:0.809149 47:0.458349 48:0.0643137 49:0.0596977 51:0.762631 52:0.166892 53:0.756226 54:0.221553 55:0.594331 56:0.153415 57:0.854679 59:0.16761 61:0.110984 62:0.812527 63:0.349911 65:0.116179 67:0.33643 
4.808856726577084 1:0.35367 4:0.442403 5:0.575823 6:0.56714 7:0.864355 8:0.523454 10:0.358707 11:0.506956 12:0.478791 13:0.172414 14:0.240244 15:0.215657 16:0.0935337 17:0.424077 19:0.456468 20:0.240515 21:0.317452 22:0.702382 23:0.655689 24:0.550501 25:0.36485 26:0.658519 27:0.366401 28:0.538655 29:0.408885 30:0.18023 32:0.35282 34:0.0883311 35:0.267808 36:0.0861326 37:0.383527 38:0.0931041 39:0.423446 41:0.458442 42:0.0744833 43:0.533488 44:0.0863388 46:0.809149 47:0.178709 48:0.0752274 49:0.279312 50:0.113809 51:0.503664 53:0.681087 54:0.259149 55:0.722023 56:0.179449 57:1 59:0.261403 61:0.259635 62:0.105601 63:0.283731 65:0.271787 67:0.39352 
2.907119695286061 1:0.265304 2:0.196946 4:0.49706 5:0.526121 6:0.324544 7:0.778037 8:0.734662 9:0.0557926 10:0.120479 11:1 12:0.252325 13:0.173726 14:0.363109 15:0.144866 17:0.424077 18:0.298999 19:0.867171 20:0.242346 21:0.495878 22:0.481872 23:0.632601 24:0.588167 25:0.410586 26:0.746729 27:0.492253 28:0.756865 29:0.274665 30:0.454003 32:0.177752 33:0.238917 34:0.26701 37:0.331193 39:0.142223 41:0.0923861 42:0.07505 43:0.604995 44:0.0869958 45:0.286646 46:0.87083 47:0.270104 48:0.1516 49:0.211078 51:0.980315 52:0.196698 53:0.819605 54:0.522243 55:0.722874 56:0.180814 57:0.463385 59:0.395089 62:0.319213 63:0.312084 65:0.547711 66:0.152942 67:0.396515 
1.765477628024305 1:0.596414 4:0.59594 5:0.553021 6:0.677706 7:0.941519 8:0.784823 9:0.103386 10:0.446505 11:0.324544 12:0.359163 13:0.160961 14:0.224285 15:0.0671105 16:0.174641 17:0.459808 18:0.138514 19:0.854595 20:0.074846 21:0.624578 22:0.652244 23:0.499744 24:0.651049 25:0.449651 26:0.788188 28:0.756865 29:0.254482 30:0.252386 31:0.167776 32:0.164691 33:0.442722 34:0.24739 36:0.0804109 37:0.470793 39:0.131772 40:0.121419 41:0.34239 43:0.523461 44:0.0806034 45:0.177056 46:0.634679 48:0.14046 49:0.0651894 50:0.212498 51:0.838263 52:0.273367 53:0.705835 54:0.241934 55:0.7679 57:0.463385 58:0.10913 59:0.183029 60:0.0872534 61:0.363582 63:0.406208 64:0.134221 65:0.253732 66:0.141704 67:0.18369 
4.22736115515747 1:0.265304 3:0.0943062 4:0.666154 5:0.447472 6:0.677706 7:0.802655 8:0.385471 9:0.0515976 10:0.334261 11:0.86914 12:0.552577 14:0.223871 15:0.20096 17:0.37905 19:0.395515 20:0.224124 21:0.317452 22:0.652244 23:0.909452 24:0.633602 25:0.708711 26:0.599366 27:0.569051 28:0.382356 29:0.127006 30:0.335893 32:0.38357 33:0.147302 34:0.411556 35:0.124778 37:0.244592 39:0.394588 40:0.121195 41:0.598077 42:0.0694071 43:0.496244 45:0.441822 46:0.488395 47:0.16653 48:0.280402 49:0.130138 50:0.212106 51:0.84476 52:0.454771 53:0.698824 54:0.120744 55:0.602054 57:0.423127 59:0.060897 60:0.261277 62:0.098404 63:0.357742 65:0.126632 67:0.183351 
3.35288512555479 1:0.265304 3:0.0943931 4:0.65417 5:0.393137 6:0.742716 7:0.684381 8:1 9:0.0516452 10:0.334569 11:0.251691 12:0.798833 14:0.224078 15:0.268194 17:0.31812 19:0.68655 20:0.224331 21:0.554746 22:0.609978 23:0.655689 24:0.68758 25:0.410586 26:0.658519 27:0.455661 28:0.506956 29:0.127124 30:0.336204 32:0.383924 33:0.147438 34:0.411935 35:0.124893 37:0.201334 39:0.394952 40:0.121306 41:0.513111 42:0.0694711 43:0.502603 45:0.44223 46:0.634679 47:0.166684 48:0.280661 49:0.0651291 50:0.212302 51:0.814717 52:0.273115 53:0.69852 54:0.120855 55:0.598423 57:0.375994 59:0.0609531 60:0.261518 62:0.0984947 63:0.385067 65:0.126749 67:0.18352 
0.07677213916382133 1:0.596414 4:0.519638 5:0.52204 6:0.471226 7:0.802655 8:0.784823 9:0.0491185 10:0.6364 11:0.742716 12:0.552577 14:0.319672 15:0.255072 16:0.165943 17:0.574015 19:0.854595 20:0.0711184 21:0.811311 22:0.522473 23:0.676435 24:0.608695 25:0.708711 26:0.788188 27:0.108342 28:0.471226 29:0.241808 30:0.399693 32:0.417304 33:0.140224 34:0.470137 35:0.237566 37:0.431263 38:0.0825904 39:0.12521 41:0.650676 43:0.566033 45:0.168237 46:0.147502 47:0.475585 48:0.266929 49:0.0619428 50:0.100958 51:0.727039 52:0.259753 53:0.683372 54:0.114942 55:0.691292 57:0.498521 59:0.347826 60:0.0829079 61:0.115158 62:0.281028 63:0.392448 64:0.0637682 65:0.241095 
1.541972658688468 1:0.504254 4:0.504513 5:0.352426 6:0.742716 7:0.802655 8:0.583738 10:0.114056 11:0.638532 12:0.359163 13:0.164464 14:0.458335 15:0.274286 16:0.0892211 17:0.459808 18:0.141529 19:0.854595 20:0.0764752 21:0.526883 22:0.670408 23:0.833794 24:0.597016 25:0.410586 26:0.682152 27:0.349508 28:0.783192 30:0.34384 31:0.0571428 32:0.336553 33:0.0753931 34:0.252775 37:0.360147 39:0.134641 40:0.124061 41:0.262383 43:0.528067 45:0.36182 46:0.634679 47:0.426173 49:0.333042 50:0.217124 51:0.744328 52:0.0931059 53:0.722328 54:0.1236 55:0.663739 57:0.423127 59:0.374026 60:0.178306 62:0.705123 63:0.248179 67:0.187688 
0.6139227193657658 1:1 3:0.101535 4:0.550301 5:0.40511 6:0.324544 7:0.750642 8:0.614881 10:0.119961 11:0.616688 12:0.749216 13:0.172979 14:0.241031 15:0.0721213 16:0.0938401 17:0.861869 18:0.148856 19:0.865142 20:0.0804344 21:0.711912 22:0.522473 23:0.833794 24:0.614558 25:0.609296 26:0.332169 27:0.122534 28:0.430287 29:0.273483 30:0.18082 32:0.0589959 33:0.0792962 34:0.265861 35:0.268685 36:0.17283 37:0.444349 38:0.186818 39:0.141611 40:0.130484 41:0.183977 43:0.572804 44:0.0866216 46:0.488395 47:0.358589 50:0.228364 51:0.781359 52:0.391704 53:0.669431 54:0.259998 55:0.574269 56:0.180037 57:0.319144 60:0.187536 61:0.130243 62:0.31784 63:0.168073 65:0.409016 66:0.304567 67:0.394809 
0.5302032069381279 1:1 2:0.182461 3:0.0944738 4:0.669209 5:0.502731 6:0.324544 7:0.778037 8:0.832397 9:0.0516893 10:0.111618 11:0.56714 12:1 14:0.112135 15:0.268423 16:0.0873141 17:0.944308 19:1 21:0.80068 22:0.876928 23:0.875096 24:0.556839 25:0.483745 26:0.616057 27:0.570063 28:0.756865 29:0.127232 30:0.168245 32:0.329359 33:0.0737817 34:0.577202 35:1 36:0.0804052 37:0.391317 38:0.0869131 40:0.12141 41:0.599141 43:0.694887 45:0.0885215 46:0.546375 47:0.500477 48:0.0702251 49:0.13037 50:0.106242 51:0.771932 52:0.45558 53:0.907782 54:0.241917 55:0.695824 57:0.940138 58:0.109122 61:0.242371 62:0.197158 63:0.478854 65:0.126857 67:0.367353 
0.9085403197145264 1:1 2:0.264533 4:0.51537 5:0.517807 6:1 7:0.91352 8:0.795417 10:0.485474 11:0.86914 12:0.941836 14:0.162573 15:0.0486451 16:0.189882 17:1 19:1 20:0.542521 21:0.753502 22:0.63224 23:1 24:0.615429 25:0.679482 26:0.580983 27:0.247943 28:0.829436 29:0.461154 32:0.238753 33:0.0534845 34:0.119547 37:0.404843 38:0.0630034 41:0.186136 43:0.552151 44:0.0584254 45:0.320847 46:0.518933 47:0.120932 48:0.254531 49:0.0472525 50:0.0770147 51:0.718628 52:0.1321 53:0.663139 54:0.175366 55:0.640962 57:0.835846 59:0.221114 60:0.0632456 61:0.175695 62:0.14292 63:0.380284 64:0.0972901 65:0.459795 
7.679126149061617 1:0.265304 3:0.162372 4:0.572973 5:0.357081 6:0.677706 7:0.778037 8:0.385471 10:0.0959192 11:0.251691 12:0.552577 13:0.138312 14:0.0963628 15:0.230669 17:0.31812 18:0.119024 19:0.208438 20:0.257257 21:0.80068 22:0.702382 23:0.867475 24:0.550598 25:0.565853 26:0.599366 27:0.391906 28:0.6588 29:0.109337 30:0.289163 31:0.0480561 32:0.471724 33:0.190213 34:0.566879 36:0.207289 37:0.392547 41:0.588425 43:0.589557 45:0.304284 46:0.546375 47:0.286723 48:0.0603479 49:0.112033 50:0.273896 51:0.701553 52:0.0783005 53:0.689477 55:0.674939 57:0.463385 58:0.0937739 59:0.209699 61:0.208281 62:0.254141 63:0.262751 65:0.327044 
4.735867272235554 1:0.265304 2:0.172126 4:0.420571 5:0.489133 6:0.6588 7:0.592995 8:0.431261 9:0.0487615 11:0.471226 12:0.252325 13:0.151832 14:0.105783 15:0.126609 16:0.0823684 17:0.37905 18:0.261318 19:0.208438 20:0.49421 21:0.624578 22:0.522473 23:0.499744 24:0.435006 25:0.565853 26:0.560526 27:0.107554 28:0.829436 29:0.120025 30:0.396788 31:0.0527539 32:0.310703 33:0.208807 34:0.311147 37:0.332314 38:0.08199 39:0.248599 40:0.343598 41:0.161486 43:0.421488 44:0.0760323 45:0.668058 46:0.594109 47:0.157376 48:0.132494 49:0.0614925 50:0.300671 51:0.81102 52:0.257864 53:0.654087 55:0.58396 57:0.498521 59:0.172649 60:0.246915 62:0.18599 63:0.366401 64:0.126609 65:0.478685 
0.05748886551245103 1:0.553426 2:0.162213 3:0.0839898 4:0.468933 5:0.587874 6:1 7:0.864355 8:0.385471 11:0.8399 12:0.789863 13:0.143088 14:0.398763 15:0.0596589 16:0.0776247 17:0.938236 18:0.123134 19:0.456468 20:0.0665354 21:0.246191 22:0.670408 23:0.712523 24:0.588691 25:0.770302 26:0.746729 27:0.405441 28:0.807263 29:0.113113 30:0.149574 31:0.0497157 32:0.34161 34:0.146614 37:0.199159 38:0.0772681 39:0.234282 40:0.107937 41:0.228279 43:0.531679 44:0.0716536 46:1 47:0.148312 48:0.124864 49:0.115902 51:0.672359 52:0.162009 53:0.744448 54:0.322606 55:0.760665 57:0.375994 58:0.0970124 59:0.162706 60:0.0775652 61:0.107737 62:0.350557 63:0.467179 65:0.11278 66:0.125969 67:0.326586 
0.8317207928611152 1:1 3:0.172186 4:0.566677 5:0.208808 6:0.56714 7:0.91352 8:0.62861 9:0.0471038 10:0.101716 11:0.471226 12:1 14:0.204374 15:0.122305 16:0.0795683 17:0.944308 19:0.759532 20:0.204604 21:0.80068 22:0.361475 23:0.769867 24:0.63657 25:0.565853 26:0.682152 27:0.103898 28:0.324544 29:0.347836 30:0.0766599 31:0.0509605 32:0.300141 34:0.0751424 35:0.227822 37:0.385344 38:0.0792028 39:0.360222 41:0.155997 43:0.612563 44:0.0734476 45:0.403343 46:0.488395 47:0.22804 48:0.12799 49:0.118804 50:0.0968166 51:0.811893 52:0.0830329 53:0.648168 54:0.440912 55:0.66853 57:0.375994 59:0.111187 61:0.110435 62:0.0898337 63:0.178409 64:0.0611526 65:0.115603 67:0.167382 
0.527027673479083 1:0.544836 3:0.155337 4:0.485928 5:0.390475 6:0.382356 7:0.750642 8:0.784823 9:0.0424948 10:0.367054 11:0.506956 12:0.478791 13:0.529277 14:0.276564 15:0.165507 16:0.0717826 17:0.59 18:0.113867 19:0.854595 20:0.307639 21:0.740325 22:0.82088 23:0.875096 24:0.629601 25:0.770302 26:0.788188 27:0.0937319 28:0.712085 29:0.1046 32:0.225643 33:0.121315 34:0.135579 36:0.0661026 37:0.43323 39:0.324975 40:0.0998134 41:0.211099 43:0.492835 44:0.132522 45:0.436651 46:0.312662 47:0.0685753 48:0.1732 49:0.107179 51:0.650276 52:0.299633 53:0.659557 54:0.0994422 55:0.663882 57:0.557704 58:0.0897112 59:0.100307 60:0.0717276 61:0.199257 62:0.0810436 63:0.321328 65:0.104292 67:0.302007 
1.320988602061997 1:0.583451 2:0.179349 3:0.278587 4:0.532925 5:0.567105 6:0.382356 7:0.966623 8:0.227276 10:0.219429 11:0.859727 12:0.789863 14:0.330665 15:0.329805 16:0.0858248 17:0.938236 18:0.544567 19:0.500663 20:0.147128 21:0.149762 22:0.522473 23:0.769867 24:0.639355 25:0.309685 26:0.658519 28:0.430287 29:0.375185 30:0.0826877 31:0.0549676 32:0.269784 33:0.290092 34:0.486305 36:0.158067 37:0.411503 38:0.0854306 39:0.259031 40:0.119339 41:0.252394 42:0.0683444 43:0.641755 44:0.158446 45:0.174023 46:0.615153 48:0.207081 49:0.0640729 50:0.208858 51:0.957436 52:0.179123 53:0.723479 54:0.118895 55:0.668793 57:0.498521 58:0.107261 61:0.119118 63:0.396342 64:0.131922 65:0.249386 67:0.180543 
0.5295048361672958 1:0.464032 2:0.402492 3:0.1042 4:0.544611 5:0.324008 6:0.934879 7:0.927923 8:0.227276 9:0.0570109 11:0.616688 12:0.780463 13:0.177519 14:0.618395 15:0.222043 16:0.192607 17:0.938236 18:0.458291 19:0.353521 20:0.165091 21:0.460928 22:0.794947 23:0.909452 24:0.506179 25:0.609296 26:0.537468 27:0.12575 28:0.795485 29:0.140331 30:0.185566 32:0.363267 33:0.325511 34:0.636626 35:0.137869 36:0.0886831 37:0.393884 38:0.191722 39:0.145328 40:0.133909 41:0.56642 42:0.0766888 43:0.573017 44:0.0888954 45:0.39054 46:0.488395 47:0.276001 48:0.15491 49:0.287583 50:0.234359 51:0.83142 52:0.200993 53:0.626122 55:0.614062 57:0.854679 59:0.134572 61:0.267323 62:0.434911 63:0.250934 64:0.0740145 65:0.279835 67:0.405172 
0.2057548250973726 1:0.668264 3:0.208574 4:0.606124 5:0.542599 6:1 7:0.927923 8:0.859419 10:0.246425 11:0.712085 12:0.780463 13:0.177667 14:0.618912 15:0.148153 16:0.0963837 17:0.938236 18:0.305783 19:0.480067 20:0.165229 21:0.711912 22:0.652244 23:0.793462 24:0.604422 25:0.735066 26:0.775392 27:0.503421 28:0.638532 30:0.0928607 32:0.424166 33:0.162891 34:0.455113 35:0.137984 36:0.532543 37:0.30042 38:0.191882 41:0.377929 43:0.570096 44:0.0889696 45:0.195433 46:0.809149 47:0.460386 48:0.0775195 49:0.0719557 51:0.755875 52:0.402322 53:0.552154 54:0.267046 55:0.59506 56:0.184917 57:0.375994 58:0.240914 59:0.067342 60:0.0963098 61:0.133773 62:0.544093 63:0.302598 
1.309585880785605 1:1 3:0.0803433 4:0.572547 5:0.368549 6:0.712085 7:0.719763 8:0.641349 9:0.0879163 10:0.189847 11:0.324544 12:0.581145 13:0.136876 14:0.190725 17:0.944308 18:0.235577 19:0.865142 20:0.254587 21:0.317452 22:0.82088 23:0.541851 24:0.580601 25:0.513992 26:0.511047 28:0.153108 29:0.108202 30:0.143081 32:0.186731 36:0.068379 37:0.460006 38:0.147827 39:0.336166 41:0.145579 43:0.512726 44:0.205628 45:0.150563 46:0.518933 48:0.238886 49:0.0554351 51:0.683517 52:0.0774878 53:0.682717 54:0.411466 55:0.756754 57:0.557704 59:0.0518807 60:0.222593 61:0.206119 63:0.310871 65:0.107883 66:0.241001 67:0.156204 
0.1258240389065638 1:1 3:0.112163 4:0.58243 5:0.485493 6:0.506956 7:1 8:0.795417 10:0.132518 11:0.471226 12:1 13:0.573255 14:0.133131 15:0.239012 17:0.944308 19:0.867171 20:0.177707 21:0.495878 22:0.609978 23:0.632601 24:0.467184 25:0.309685 26:0.658519 28:0.430287 30:0.199747 31:0.132784 32:0.130343 33:0.0875966 34:0.29369 35:0.445214 37:0.0880535 39:0.156434 40:0.432428 41:0.101618 43:0.64615 44:0.0956888 46:0.488395 47:0.495155 48:0.333496 50:0.252268 51:0.80003 53:0.695544 54:0.430819 55:0.841816 57:0.247503 58:0.129554 59:0.144856 60:0.103583 62:0.35111 63:0.309727 64:0.0796706 66:0.168224 67:0.218068 
0.02364405633419741 1:1 2:0.185846 4:0.832286 5:0.369892 6:0.56714 7:0.719763 8:0.67484 9:0.157944 11:0.251691 12:0.807412 13:0.163935 14:0.114215 15:0.0683506 16:0.0889339 17:0.99855 18:0.141074 19:0.759532 20:0.076229 21:0.711912 22:0.794947 23:0.263367 24:0.736379 25:0.708711 26:0.658519 27:0.580637 28:0.430287 30:0.0856832 33:0.0751504 34:0.167974 35:0.254637 36:0.573277 37:0.304523 38:0.17705 39:0.134207 40:0.247324 41:0.261538 43:0.854106 44:0.0820928 46:0.488395 50:0.108212 51:0.929693 52:0.556837 53:0.663478 54:0.123202 55:0.443354 57:1 58:0.111146 59:0.124274 62:0.301222 63:0.223496 65:0.12921 
1.402543162171385 1:0.596414 4:0.49081 5:0.321953 6:0.756865 7:0.845476 8:0.583738 10:0.230457 11:1 12:0.478791 13:0.166154 15:0.277104 17:0.574015 18:0.142984 19:0.854595 20:0.309045 22:0.812608 23:0.909452 24:0.70495 25:0.735066 26:0.75433 27:0.2354 28:0.538655 29:0.394041 31:0.17319 32:0.283342 34:0.0851242 35:0.129043 36:0.332022 37:0.389986 38:0.0897239 41:0.441798 43:0.450683 44:0.166409 45:0.182769 46:0.594109 47:0.344442 48:0.217489 51:0.764159 52:0.0940628 53:0.64945 54:0.12487 55:0.867393 57:0.757519 58:0.225302 59:0.251913 60:0.180138 61:0.375314 62:0.203534 63:0.279312 64:0.138552 
2.050082064580343 1:0.504254 2:0.268857 4:0.555611 5:0.466729 6:0.430287 7:0.845476 8:0.784823 11:0.712085 12:0.478791 14:0.16523 15:0.0494402 17:0.459808 18:0.102043 19:0.854595 20:0.110278 21:0.603211 22:0.794947 23:1 24:0.565709 25:0.309685 26:1 27:0.251996 28:0.153108 31:0.123601 32:0.485311 33:0.217435 34:0.182252 36:0.118477 37:0.387267 38:0.128066 40:0.0894488 41:0.504477 43:0.518472 44:0.0593804 45:0.0652183 46:0.488395 47:0.184363 49:0.0480249 50:0.0782735 51:0.74762 52:0.13426 53:0.648382 55:0.631204 57:1 59:0.0898913 61:0.178567 62:0.072628 63:0.430522 
0.3583090454503458 1:1 4:0.471278 5:0.242555 6:0.430287 7:0.954395 8:0.859419 9:0.108415 11:1 12:0.941836 15:0.0703752 16:0.0915681 17:1 18:0.145252 19:0.865142 20:0.313948 21:0.554746 22:0.765086 23:0.867475 24:0.672571 25:0.565853 26:0.775392 28:0.538655 29:0.400293 30:0.176442 31:0.703752 32:0.345406 33:0.0773764 35:0.39327 37:0.254465 38:0.182295 39:0.276365 41:0.179523 43:0.5641 44:0.169049 45:0.185669 46:0.594109 48:0.147293 49:0.136721 50:0.111418 51:0.64731 52:0.0955552 53:0.817625 54:0.126851 55:0.681 57:1 59:0.127955 60:0.182996 63:0.365484 64:0.0703752 65:0.133038 66:0.148597 67:0.192625 
3.178118943242916 1:0.186386 2:0.164206 4:0.69728 5:0.838644 6:0.593004 7:0.845476 8:0.227276 9:0.0465179 10:0.100451 11:0.742716 12:0.941836 13:0.144846 14:0.201831 15:0.181176 16:0.0785785 17:0.31812 18:0.124647 19:0.456468 20:0.134706 21:0.580045 22:0.481872 23:0.446683 24:0.660826 25:0.240167 26:0.332169 27:0.307817 28:0.471226 29:0.114503 30:0.151413 31:0.100653 32:0.197605 33:0.0664 34:0.222623 37:0.437198 38:0.0782175 41:0.231084 42:0.062574 43:0.392219 44:0.072534 45:0.15933 46:0.147502 47:0.0750676 48:0.0631992 49:0.117326 50:0.0956123 51:0.587321 52:0.328 53:0.618147 54:0.108857 55:0.689832 57:0.606427 58:0.0982044 59:0.109804 60:0.0785183 62:0.0887162 63:0.577255 64:0.0603919 65:0.456661 66:0.255034 67:0.1653 
3.821420695320419 1:0.316118 4:0.617036 5:0.639518 6:0.593004 7:0.719763 8:0.385471 9:0.0523492 10:0.33913 11:0.153108 12:0.807412 14:0.340699 15:0.135925 16:0.0884288 17:0.459808 19:0.296694 20:0.454777 21:0.317452 22:0.652244 23:0.541851 24:0.62715 25:1 26:0.480115 27:0.346404 28:0.430287 30:0.25559 31:0.0566354 32:0.222376 33:0.149447 34:0.0835101 36:0.0814316 37:0.340048 38:0.0880226 40:0.24592 41:0.520106 42:0.140836 43:0.654461 44:0.24488 45:0.358607 46:0.809149 47:0.168956 48:0.0711216 49:0.132034 50:0.215196 51:0.68317 52:0.553676 53:0.663691 55:0.818531 57:0.463385 59:0.185352 60:0.088361 61:0.122733 62:0.39935 63:0.465832 64:0.0679624 65:0.128477 66:0.143502 
0.2664796030862263 1:1 2:0.16209 3:0.251778 4:0.505543 5:0.43004 6:0.430287 7:0.802655 8:0.545911 9:0.0459183 10:0.0991564 11:0.86914 12:0.888708 14:0.099615 15:0.119227 16:0.155131 17:0.99855 19:0.759532 20:0.199454 21:0.149762 22:0.803975 23:1 24:0.486794 25:0.449651 26:0.39579 27:0.202566 28:0.829436 29:0.113027 30:0.224191 32:0.341351 33:0.131088 35:0.222088 36:0.142856 37:0.254847 38:0.154419 39:0.234104 40:0.107855 41:0.608282 42:0.0617675 43:0.588401 44:0.214797 45:0.235915 46:0.634679 47:0.2223 49:0.173721 50:0.18876 51:0.634513 52:0.485658 53:0.577015 54:0.107454 55:0.750122 57:0.557704 58:0.0969387 59:0.108388 60:0.0775063 61:0.322966 62:0.0875727 63:0.299121 65:0.225387 
5.814895906264464 1:0.596414 3:0.223673 4:0.454326 5:0.113164 6:0.430287 7:0.642958 8:0.227276 9:0.061189 10:0.264264 11:1 12:0.427954 14:0.132743 15:0.158877 16:0.206722 17:0.489432 18:0.327918 19:0.208438 20:0.265785 21:0.460928 22:0.609978 23:0.655689 24:0.624798 25:0.410586 26:0.537468 28:0.471226 29:0.30123 31:0.132398 32:0.129963 33:0.436707 34:0.0976118 36:0.380729 37:0.463673 39:0.155979 40:0.287446 41:0.101322 43:0.570878 45:0.419161 46:0.312662 47:0.0987428 48:0.415656 50:0.251534 51:0.729519 52:0.215723 53:0.719887 54:0.143189 55:0.827552 56:0.198303 57:0.583137 60:0.206563 61:0.717286 62:0.116696 63:0.237555 64:0.238316 65:0.450514 
0.730516320115239 1:1 3:0.0941976 4:0.662706 5:0.504425 6:0.807263 7:0.778037 8:0.859419 11:0.783192 12:0.725226 13:0.160478 14:0.559033 15:0.0669095 16:0.174118 17:0.944308 18:0.414298 19:0.865142 20:0.149244 21:0.317452 22:0.609978 23:0.57676 24:0.607358 25:0.240167 26:0.599366 27:0.341037 28:0.430287 29:0.12686 32:0.109465 33:0.073566 34:0.0822164 35:0.124634 36:0.72153 37:0.323958 38:0.173318 39:0.131378 41:0.426706 43:0.588651 46:0.634679 48:0.140039 50:0.211862 51:0.726345 52:0.363398 53:0.625164 54:0.361814 55:0.731284 56:0.334053 57:0.529692 59:0.0608269 63:0.352551 65:0.126486 
3.974635957170481 1:0.265304 2:0.174527 3:0.180731 4:0.675414 5:0.283991 6:0.56714 7:0.312511 8:1 9:0.0494416 11:0.86914 12:0.552577 15:0.0641877 16:0.0835173 17:0.31812 18:0.264963 19:1 20:0.357931 21:0.624578 22:0.584885 23:0.632601 24:0.530257 25:1 26:0.631342 28:0.829436 29:0.1217 30:0.0804646 32:0.420049 33:0.0705733 34:0.394359 35:0.119564 36:0.230726 37:0.434948 39:0.126033 40:0.11613 41:0.491217 43:0.733036 45:0.169344 46:0.634679 47:0.239357 48:0.134343 49:0.0623503 50:0.101622 51:0.919117 52:0.261461 53:0.725502 54:0.115699 55:0.752769 56:0.160232 57:0.375994 59:0.175057 61:0.231832 62:0.0942922 63:0.275619 65:0.364022 
0.550928738265969 1:1 4:0.386845 5:0.557445 6:0.430287 7:1 8:1 10:0.108873 11:0.506956 12:1 13:0.941943 14:0.437507 15:0.130911 16:0.0851668 17:0.944308 18:0.135098 19:1 20:0.219 21:0.80068 22:0.522473 23:0.875096 24:0.610861 25:1 26:0.788188 27:0.222417 28:0.430287 29:0.372309 30:0.328215 32:0.428345 33:0.0719672 34:0.402147 35:0.243851 37:0.405829 39:0.128523 40:0.118424 41:0.667891 43:0.682494 44:0.0786155 45:0.259033 46:0.368357 47:0.325445 48:0.068498 49:0.127163 50:0.207257 51:0.729747 52:0.622125 53:0.566393 54:0.35395 55:0.702738 57:0.757519 58:0.106438 59:0.297524 61:0.118205 62:0.192309 63:0.44833 64:0.0654554 65:0.371212 66:0.138209 67:0.537477 
0.06196982010873939 1:0.668264 2:0.210131 4:0.602292 5:0.393467 6:0.538655 7:0.966623 8:0.545911 10:0.385635 11:0.506956 12:0.789863 14:0.258279 15:0.463693 16:0.20111 17:0.938236 18:0.319017 19:0.353521 20:0.17238 21:0.80068 22:0.522473 23:0.769867 24:0.682734 25:0.565853 26:0.480115 27:0.262605 28:0.783192 29:0.293053 31:0.0644019 32:0.0632176 33:0.169941 34:0.284886 36:0.370394 37:0.484151 38:0.100093 39:0.151745 40:0.139821 41:0.197143 42:0.160149 43:0.799917 44:0.18564 45:0.101946 46:0.634679 47:0.192125 48:0.242624 49:0.07507 50:0.122353 51:0.793021 52:0.524668 53:0.620228 54:0.278603 55:0.641329 56:0.19292 57:0.247503 59:0.0702566 60:0.100478 61:0.279126 63:0.379076 64:0.231847 
7.70161782177105 1:0.186386 3:0.0916503 4:0.545995 5:0.494202 6:0.712085 7:0.825008 8:0.385471 11:0.638532 12:0.798833 15:0.195301 16:0.0847046 17:0.223491 18:0.134365 19:0.208438 20:0.653435 21:0.495878 22:0.812608 23:0.57676 24:0.5326 25:0.309685 26:0.511047 27:0.44242 28:0.829436 29:0.12343 30:0.326434 31:0.217 32:0.106505 34:0.239979 36:0.0780021 37:0.384993 39:0.25565 41:0.2491 43:0.544161 44:0.156378 45:0.171752 46:0.634679 47:0.16184 48:0.272505 49:0.0632366 51:0.751875 53:0.699289 55:0.778318 56:0.32502 57:0.627907 58:0.105861 59:0.177546 60:0.169279 61:0.235127 62:0.286898 63:0.432343 64:0.0651002 65:0.246132 66:0.137459 67:0.178187 
0.220709464052852 1:0.668264 3:0.187865 4:0.810078 5:0.647985 6:0.382356 7:0.927923 8:0.599994 10:0.443916 11:0.506956 12:0.780463 14:0.111492 15:0.0667214 16:0.260442 17:0.938236 19:0.518935 20:0.223236 21:0.317452 22:0.850885 23:0.875096 24:0.56408 25:0.410586 26:0.537468 28:0.56714 29:0.126503 30:0.250922 31:0.0556012 35:0.248568 36:0.319778 37:0.441433 39:0.131008 40:0.120715 43:0.646402 44:0.240408 45:0.0880146 46:0.488395 47:0.0829352 48:0.209468 51:0.87622 53:0.643793 54:0.360797 55:0.645037 56:0.166557 57:0.68385 58:0.108497 59:0.121312 60:0.0867475 62:0.196028 63:0.538856 64:0.0667214 65:0.126131 66:0.140882 
0.07859783266715016 1:1 2:0.611619 3:0.10556 4:0.489127 5:0.430199 6:0.677706 7:0.802655 8:0.545911 11:0.506956 12:0.798833 13:0.359673 14:0.501175 15:0.0749806 16:0.0975604 17:0.99855 18:0.309516 19:0.759532 20:0.167246 21:0.374 22:0.794947 23:0.632601 24:0.548692 25:0.410586 26:0.332169 27:0.636959 28:0.783192 30:0.281983 32:0.429344 33:0.08244 34:0.276401 35:0.139669 36:0.269522 37:0.305074 38:0.0971123 41:0.573814 43:0.581264 46:0.518933 47:0.279604 48:0.156932 49:0.291337 51:0.655638 52:0.509042 53:0.728298 54:0.540612 55:0.700416 56:0.187174 57:0.757519 59:0.204493 61:0.135407 62:0.881177 63:0.248703 65:0.283488 66:0.316642 67:0.205231 
8.612218295454174 1:0.265304 2:0.168144 4:0.54892 5:0.535977 6:0.430287 7:0.941519 8:0.227276 9:0.0476333 10:0.10286 11:0.324544 12:0.478791 13:0.296639 15:0.06184 16:0.0804626 17:0.536818 19:0.208438 20:0.413808 21:0.495878 22:0.522473 23:0.695273 24:0.549832 25:0.565853 26:0.537468 27:0.105066 28:0.430287 29:0.351745 32:0.151757 34:0.151974 35:0.115191 36:0.0740958 37:0.334751 38:0.080093 39:0.242847 40:0.111883 41:0.15775 43:0.682435 44:0.148546 45:0.0815753 46:0.518933 47:0.30747 48:0.453002 49:0.12014 50:0.19581 51:0.781836 52:0.335865 53:0.644851 55:0.642464 56:0.154371 57:0.463385 58:0.100559 61:0.223352 62:0.27253 63:0.396643 64:0.3092 65:0.116903 66:0.130575 67:0.169263 
0.4695269741157553 1:0.553426 2:0.220595 4:0.602995 5:0.176938 6:0.471226 7:0.966623 8:0.323509 10:0.404839 11:0.56714 12:0.815631 13:0.583761 14:0.13557 15:0.243392 16:0.316688 17:0.938236 18:0.167452 19:0.456468 20:0.0904822 21:0.603211 22:0.702382 23:0.769867 24:0.747828 25:0.513992 26:0.480115 27:0.137841 28:0.829436 29:0.153823 30:0.305112 31:0.0676089 32:0.0663657 34:0.299073 35:0.151125 37:0.626363 38:0.315233 40:0.146784 41:0.10348 43:0.35869 44:0.0974424 46:0.634679 47:0.302538 48:0.254706 49:0.157616 51:0.653769 52:0.110159 53:0.717561 54:0.292477 55:0.524969 57:0.757519 59:0.295021 60:0.105482 62:0.476726 63:0.201659 64:0.0811307 
0.940829113512978 1:0.596414 4:0.647529 5:0.551368 6:0.593004 7:0.864355 8:0.784823 9:0.163994 10:0.118043 11:0.471226 12:0.427954 14:0.474356 15:0.283873 17:0.459808 19:0.854595 20:0.237445 21:0.624578 22:0.702382 23:0.632601 24:0.602436 25:0.565853 26:1 27:0.361725 28:0.56714 30:0.266894 31:0.0591403 32:0.40637 33:0.0780286 34:0.174407 35:0.132195 36:0.2551 37:0.283454 38:0.0919158 41:0.543109 43:0.50892 44:0.0852369 45:0.187234 46:1 47:0.264642 48:0.445603 49:0.344684 51:0.928011 52:0.481803 53:0.699378 54:0.255842 55:0.604859 57:0.854679 59:0.0645167 60:0.0922692 62:0.104253 63:0.342631 64:0.212905 65:0.134159 67:0.194249 
1.523861371927203 1:0.668264 3:0.180302 4:0.661689 5:0.297767 6:0.382356 7:0.954395 8:0.62861 9:0.0493241 10:0.532555 11:0.742716 12:0.815631 14:0.428015 15:0.384211 16:0.166638 17:0.938236 18:0.132167 19:0.353521 20:0.142832 21:0.374 22:0.794947 23:0.743195 24:0.62331 25:1 26:0.682152 27:0.108796 28:0.756865 29:0.12141 30:0.160547 31:0.160088 32:0.419051 34:0.314738 35:0.11928 36:0.076726 37:0.520084 38:0.331745 39:0.377202 41:0.245025 43:0.507373 44:0.230729 45:0.253413 46:0.546375 47:0.318385 48:0.335059 49:0.0622021 50:0.10138 51:0.73015 52:0.173894 53:0.683296 54:0.346271 55:0.613433 57:0.647839 59:0.0582138 60:0.16651 63:0.314327 64:0.256141 65:0.121052 
6.493555978309539 1:0.35367 4:0.46182 5:0.659904 6:0.712085 7:0.941519 8:1 9:0.0549772 10:0.356155 11:0.638532 12:0.427954 13:0.171187 14:0.238535 16:0.185736 17:0.223491 18:0.294629 19:0.68655 20:0.238804 21:0.624578 22:0.652244 23:0.632601 24:0.617196 25:0.565853 26:0.631342 27:0.24253 28:0.677706 30:0.178947 31:0.118957 32:0.408694 33:0.15695 34:0.35081 36:0.0855196 37:0.314715 39:0.140144 41:0.273108 43:0.559687 44:0.171449 45:0.188305 46:0.634679 47:0.177438 48:0.298768 49:0.277325 50:0.112999 51:0.702589 52:0.581471 53:0.573757 54:0.257305 55:0.763686 57:0.319144 59:0.0648857 60:0.0927969 62:0.524247 63:0.375454 64:0.142749 65:0.404779 67:0.19536 
1.513570468732409 1:0.504254 4:0.430969 5:0.443077 6:1 7:0.941519 8:0.784823 10:0.101954 11:0.859727 12:0.252325 13:0.147013 14:0.512126 17:0.37905 18:0.126512 19:0.854595 20:0.205081 21:0.603211 22:0.812608 23:0.655689 24:0.713701 25:0.679482 26:1 27:0.208281 28:0.471226 30:0.461032 31:0.0510794 32:0.551541 33:0.134786 34:0.150635 36:0.440659 37:0.402593 39:0.120354 40:0.110897 41:0.390902 42:0.06351 43:0.624159 45:0.24257 46:0.414532 47:0.228571 48:0.192434 49:0.119081 51:0.699972 52:0.499359 53:0.680001 54:0.22097 55:0.753025 57:0.757519 59:0.445784 60:0.0796927 61:0.332077 62:0.0900431 63:0.377424 64:0.12259 67:0.503318 
1.210237442741094 1:1 4:0.460094 5:0.592534 6:0.712085 7:0.954395 8:0.545911 9:0.0595256 11:0.742716 12:0.941836 13:0.370699 14:0.516538 16:0.301654 17:1 18:0.159502 19:0.759532 20:0.172374 21:0.317452 22:1 23:0.909452 24:0.676584 25:0.410586 26:0.442806 27:0.131297 28:0.593004 30:0.193752 31:0.0643994 32:0.568936 33:0.254902 34:0.284875 35:0.143951 36:0.092595 37:0.40687 38:0.300268 39:0.151739 41:0.492837 42:0.160143 43:0.613901 44:0.0928166 45:0.305825 46:0.571292 47:0.384234 48:0.0808715 49:0.150134 50:0.122348 51:0.758106 52:0.524647 53:0.800848 54:0.417888 55:0.682195 56:0.192913 57:0.888886 59:0.0702539 61:0.139558 62:0.567619 63:0.498308 65:0.146089 
3.984277341609394 1:0.186386 2:0.392207 4:0.472954 5:0.524439 6:1 7:0.719763 8:0.795417 9:0.0555539 10:0.239927 11:0.616688 12:0.478791 13:0.172983 15:0.072123 17:0.223491 18:0.29772 19:0.518935 20:0.241309 21:0.374 22:0.556134 23:1 24:0.695192 25:0.513992 26:0.658519 27:0.490148 28:0.324544 31:0.0601025 32:0.412981 34:0.531735 35:0.134346 36:0.0864167 37:0.552264 39:0.141614 40:0.130487 41:0.827918 42:0.149458 43:0.637022 46:0.453973 47:0.268948 48:0.377378 50:0.114185 51:0.563801 52:0.0979283 53:0.603982 54:0.130002 55:0.773557 56:0.180041 57:0.606427 58:0.11728 59:0.0655663 60:0.187541 61:0.390738 62:0.423797 63:0.356337 64:0.216369 65:0.272684 67:0.394819 
4.228342514156947 1:0.186386 2:0.356471 3:0.0922858 4:0.419915 5:0.455548 6:0.6588 7:0.845476 8:0.385471 10:0.109033 11:0.638532 12:0.427954 13:0.314443 14:0.328613 15:0.131103 16:0.0852919 17:0.31812 18:0.40589 19:0.208438 20:0.219322 21:1 22:0.522473 23:0.875096 24:0.529466 25:1 26:0.480115 27:0.111372 28:0.770336 30:0.0821743 32:0.428975 33:0.144146 34:0.563834 36:0.235629 37:0.444165 38:0.1698 40:0.118598 41:0.418046 43:0.510717 45:0.172943 46:0.594109 47:0.325924 48:0.0685986 51:0.635355 52:0.178012 53:0.738353 54:0.118157 55:0.766184 56:0.163637 57:0.375994 59:0.238369 62:0.288887 63:0.348825 67:0.358845 
0.8222565663742882 1:1 4:0.560488 5:0.534288 6:0.712085 7:0.778037 8:0.599994 9:0.0532175 10:0.114918 11:0.382356 12:1 13:0.165708 14:0.11545 15:0.276359 17:0.944308 19:0.867171 20:0.46232 21:1 22:0.652244 23:0.875096 24:0.424292 25:0.449651 26:0.537468 27:0.234766 28:0.818568 29:0.654968 30:0.173219 31:0.0575748 32:0.508644 33:0.227889 34:0.424476 35:0.128696 36:0.165565 37:0.367842 38:0.178965 39:0.271317 40:0.124999 41:0.352488 43:0.534736 44:0.0829806 45:0.364554 46:0.809149 47:0.687031 48:0.289205 49:0.134224 50:0.218765 51:0.542141 52:0.187619 53:0.743831 54:0.124535 55:0.511653 56:0.344938 57:0.463385 59:0.0628089 60:0.0898267 61:0.124768 62:0.507466 63:0.377262 64:0.207269 65:0.52243 
0.9339692454630656 1:1 3:0.0908932 4:0.627598 5:0.739838 7:0.941519 8:0.734662 9:0.0497303 11:0.593004 12:0.941836 14:0.215769 15:0.0645624 16:0.0840049 17:1 19:0.867171 21:0.740325 22:0.82088 23:0.632601 24:0.558336 25:0.735066 26:0.442806 27:0.329074 28:0.638532 30:0.0809344 32:0.0528127 34:0.0793323 36:0.232073 37:0.324845 38:0.083619 42:0.0668952 43:0.589343 45:0.0851665 46:0.368357 48:0.20269 49:0.188143 50:0.306645 51:0.775027 52:0.175325 53:0.665826 54:0.116374 55:0.598961 57:0.940138 58:0.104986 60:0.419702 61:0.116592 63:0.44042 64:0.387374 65:0.122049 66:0.136323 
4.349980207541092 1:0.583451 3:0.105858 4:0.528599 5:0.570376 6:0.638532 7:0.642958 8:0.385471 9:0.0579177 10:0.125068 11:0.430287 12:0.252325 13:0.180343 14:0.125646 15:0.150383 16:0.0978351 17:0.223491 18:0.155194 19:0.208438 20:0.167717 21:0.317452 22:0.253949 23:0.769867 24:0.798127 25:0.449651 26:0.560526 28:0.56714 30:0.471295 33:0.248016 34:0.184786 35:0.420186 37:0.332481 39:0.44292 40:0.136039 41:0.095905 42:0.0779086 43:0.474888 44:0.180619 45:0.198376 46:0.368357 47:0.0934638 48:0.0786869 49:0.219118 50:0.238086 51:0.722337 53:0.709427 54:0.135533 55:0.791594 57:0.15056 58:0.122271 59:0.34178 60:0.0977602 61:0.135788 62:0.110457 63:0.60926 65:0.142143 67:0.205809 
2.751637584755563 1:0.265304 3:0.134861 4:0.601979 5:0.528364 6:0.593004 7:0.530032 8:0.62861 9:0.0368931 10:0.159334 11:0.382356 12:0.648073 15:0.0478965 16:0.0623202 17:0.536818 18:0.197714 19:0.42884 20:0.160252 21:0.554746 22:0.794947 23:0.743195 24:0.632282 25:0.735066 26:0.682152 27:0.488256 28:0.324544 30:0.0600423 32:0.195899 33:0.105323 34:0.294269 36:0.401723 37:0.340538 38:0.0620339 39:0.0940455 41:0.610907 43:0.514264 44:0.115053 45:0.189546 47:0.119071 49:0.0465254 50:0.0758296 51:0.745783 52:0.455236 53:0.637594 55:0.655926 57:0.854679 58:0.233656 59:0.0870846 61:0.0864957 62:0.211081 63:0.408188 65:0.271632 66:0.101133 
1.099257859518785 1:1 4:0.634108 5:0.384666 6:0.153108 7:0.778037 8:0.599994 10:0.109952 11:0.382356 12:0.725226 13:0.317092 14:0.331381 17:0.944308 18:0.272873 19:0.865142 20:0.147447 21:0.603211 22:0.670408 23:0.541851 24:0.650914 25:0.309685 26:0.560526 27:0.336931 28:0.471226 30:0.0828667 32:0.432589 33:0.21804 34:0.487358 35:0.123134 36:0.316819 37:0.433503 38:0.0856155 40:0.119597 41:0.843136 43:0.545115 45:0.1744 46:0.488395 47:0.246502 48:0.20753 50:0.104655 51:0.880171 52:0.538534 53:0.664685 55:0.896705 57:0.757519 59:0.120189 62:0.291321 63:0.267239 64:0.0661039 65:0.124963 66:0.139578 67:0.180934 
7.394639656839612 1:0.265304 2:0.390306 3:0.101045 4:0.551581 5:0.405785 6:0.471226 7:0.778037 8:0.67484 9:0.221139 10:0.119382 11:0.506956 12:0.780463 13:0.172144 14:0.119934 15:0.143547 16:0.186775 17:0.31812 18:0.296277 19:0.759532 20:0.320186 21:0.495878 22:0.522473 23:0.676435 24:0.589436 25:0.309685 26:0.658519 27:0.243886 28:0.56714 29:0.272164 32:0.293557 33:0.0789138 34:0.264579 37:0.516653 38:0.0929585 41:0.274635 43:0.661954 44:0.172408 45:0.189358 46:0.242476 47:0.17843 48:0.15022 50:0.113631 51:0.621953 52:0.487269 53:0.553162 54:0.129372 55:0.615822 57:0.463385 58:0.116712 59:0.195746 60:0.0933159 62:0.210872 63:0.379329 
2.437277470718037 1:0.316118 4:0.66982 5:0.578558 6:0.742716 7:0.927923 8:0.497723 9:0.0510646 10:0.110269 11:0.56714 12:0.737587 13:0.318007 14:0.332338 17:0.514735 18:0.136831 19:0.42884 20:0.221808 21:0.554746 22:0.584885 23:0.909452 24:0.526844 25:0.483745 26:0.537468 27:0.337904 28:0.506956 29:0.251389 31:0.0552456 32:0.216919 33:0.07289 34:0.0814609 36:0.0794335 37:0.207444 39:0.130171 40:0.599713 41:0.338228 43:0.720809 45:0.349807 46:0.414532 48:0.0693764 50:0.104958 51:0.623455 52:0.270044 53:0.727588 55:0.670382 56:0.165492 57:0.647839 60:0.172385 61:0.119721 63:0.473119 64:0.0662948 65:0.250648 67:0.362913 
2.610353926126549 1:0.35367 2:0.17362 4:0.597559 5:0.519117 6:0.56714 7:0.684381 8:0.859419 11:0.86914 12:0.552577 13:0.15315 14:0.320103 15:0.127708 16:0.166167 17:0.37905 19:0.480067 20:0.427285 21:0.711912 22:0.765086 23:0.676435 24:0.541002 25:0.770302 26:0.39579 27:0.650928 28:1 29:0.242134 30:0.160093 31:0.106424 32:0.3134 33:0.351033 34:0.0784618 37:0.49442 38:0.0827015 39:0.250757 41:0.40722 42:0.132323 43:0.550263 44:0.153385 45:0.589625 46:0.368357 47:0.158742 48:0.200467 50:0.101093 51:0.672786 52:0.433504 53:0.71344 54:0.345292 55:0.639151 57:1 58:0.103834 59:0.116098 60:0.166039 62:0.375208 63:0.237603 67:0.174776 
6.748622412069332 1:0.265304 4:0.447942 5:0.498625 6:0.56714 7:0.966623 8:0.832397 9:0.05001 10:0.215984 11:0.8399 12:0.798833 15:0.129851 16:0.0844774 17:0.223491 18:0.134005 19:0.68655 20:0.289636 21:0.495878 22:0.687041 23:0.875096 24:0.559021 25:0.565853 26:0.682152 27:0.110308 28:0.56714 29:0.369295 30:0.162779 31:0.0541046 32:0.212439 33:0.142769 34:0.239335 35:0.241877 36:0.0777929 37:0.339817 38:0.252268 39:0.127482 41:0.0828107 43:0.609671 44:0.155958 45:0.0856455 46:0.453973 47:0.322811 48:0.271774 49:0.126134 50:0.411159 51:0.762011 52:0.176311 53:0.641066 54:0.117029 55:0.777793 57:0.247503 59:0.0590232 61:0.234496 62:0.286128 63:0.36456 64:0.129851 65:0.368207 
2.662757472718876 1:0.316118 3:0.100951 4:0.448465 5:0.352486 6:0.506956 7:0.802655 8:0.523454 11:0.695421 12:0.427954 13:0.343968 14:0.119823 15:0.143413 16:0.186601 17:0.37905 18:0.148 19:0.395515 20:0.0799719 21:0.317452 22:0.876928 23:0.541851 24:0.643396 25:0.735066 26:0.537468 27:0.121829 28:0.712085 29:0.407866 30:0.17978 31:0.119511 32:0.117313 34:0.264332 35:0.26714 36:0.343671 37:0.540676 40:0.259468 41:0.274379 42:0.0742975 43:0.778415 44:0.0861235 46:0.87083 47:0.267395 48:0.15008 49:0.0696539 50:0.113526 51:0.679261 52:0.486815 53:0.646342 54:0.129251 55:0.64756 56:0.179001 57:0.606427 58:0.116603 59:0.0651878 60:0.093229 62:0.316013 63:0.415971 64:0.21512 65:0.135555 67:0.19627 
5.171600159577858 1:0.265304 2:0.209639 3:0.217092 4:0.637946 5:0.47803 6:0.382356 7:0.719763 8:0.431261 10:0.512977 11:0.8399 12:0.780463 15:0.154203 16:0.30096 17:0.31812 18:0.159135 19:0.208438 20:0.257965 21:0.526883 22:0.876928 23:0.655689 24:0.643873 25:0.240167 26:1 28:0.251691 29:0.146184 30:0.193306 32:0.315348 33:0.0847717 34:0.0947397 35:0.143619 37:0.471118 38:0.499295 40:0.139494 41:0.393363 43:0.783996 44:0.277809 45:0.203414 46:1 47:0.0958374 49:0.0748942 50:0.122066 51:0.715194 52:0.209376 53:0.640837 54:0.277951 55:0.698306 56:0.192468 57:0.940138 60:0.200486 61:0.139236 62:0.339787 63:0.232284 65:0.291506 
7.664673802387851 1:0.316118 4:0.472384 5:0.437742 6:0.382356 7:0.927923 8:0.227276 9:0.0503684 10:0.108766 11:0.8399 12:0.252325 13:0.156836 14:0.327807 16:0.0850829 17:0.37905 18:0.26993 19:0.395515 20:0.145856 21:0.753502 22:0.63224 23:0.655689 24:0.588995 25:0.36485 26:0.442806 27:0.333297 28:0.712085 29:0.123981 30:0.163946 32:0.320942 33:0.143793 34:0.241051 37:0.425776 38:0.0846921 39:0.256792 40:0.118307 41:0.417021 43:0.570549 44:0.0785381 45:0.431297 46:0.87083 47:0.162563 49:0.190557 51:0.712438 52:0.35515 53:0.68939 54:0.117867 55:0.62328 57:0.423127 59:0.178339 60:0.170035 61:0.118089 62:0.192119 63:0.438469 64:0.0653909 65:0.123615 67:0.357965 
1.371996409104218 1:0.464032 2:0.180907 3:0.093669 4:0.631234 5:0.407645 6:0.56714 7:0.954395 8:0.323509 10:0.110667 11:0.324544 12:0.815631 14:0.333538 15:0.0665341 17:0.938236 18:0.137325 19:0.353521 21:0.740325 22:0.584885 23:0.712523 24:0.531342 25:0.36485 26:0.746729 27:0.452165 28:0.471226 29:0.126148 30:0.166812 31:0.0554451 32:0.108851 33:0.146306 34:0.16351 35:0.24787 36:0.15944 37:0.417427 38:0.0861726 39:0.130641 41:0.424312 42:0.137876 43:0.57984 46:0.414532 47:0.0827023 48:0.139254 49:0.129259 50:0.210673 51:0.716094 52:0.18068 53:0.591918 54:0.119928 55:0.606121 57:0.529692 58:0.324577 59:0.120971 60:0.0865039 62:0.195478 63:0.301996 64:0.0665341 
7.471910012858192 1:0.186386 2:0.175034 3:0.0906284 4:0.497651 5:0.490297 6:0.382356 7:0.750642 8:0.599994 9:0.0991709 11:0.638532 12:0.478791 13:0.154398 14:0.322711 16:0.167521 17:0.59 18:0.132867 19:0.208438 20:0.215383 21:0.811311 22:0.794947 23:0.57676 24:0.583825 25:0.449651 26:0.233361 27:0.218744 28:0.506956 29:0.244107 30:0.161397 31:0.0536453 32:0.210636 33:0.353893 34:0.0791011 36:0.154265 37:0.412852 38:0.416877 41:0.164216 43:0.510406 44:0.0773171 45:0.424593 46:0.70117 47:0.160036 48:0.0673667 49:0.0625315 50:0.203835 51:0.654095 52:0.34963 53:0.720758 54:0.116035 55:0.658708 57:0.463385 60:0.167392 61:0.232506 62:0.378266 63:0.524795 64:0.0643743 65:0.121694 67:0.1762 
0.09650489859777478 1:1 3:0.110481 4:0.593563 5:0.522023 6:0.742716 7:0.864355 8:0.795417 9:0.120894 10:0.26106 11:0.430287 12:0.941836 13:0.564657 16:0.102108 17:0.99855 19:1 20:0.0875212 21:0.246191 22:0.702382 23:1 24:0.476166 25:0.66358 26:0.537468 28:0.783192 29:0.148789 31:0.326982 32:0.385163 33:0.172566 34:0.385714 35:0.146179 37:0.376067 38:0.101639 39:0.308176 41:0.200187 43:0.624248 44:0.0942536 45:0.10352 46:0.634679 47:0.292637 48:0.24637 50:0.372727 51:0.649544 52:0.213108 53:0.572198 54:0.282905 55:0.641772 56:0.195899 57:0.854679 59:0.142683 60:0.10203 62:0.461125 63:0.304133 64:0.156951 65:0.148351 66:0.331402 67:0.429595 
6.731198044593929 1:0.265304 3:0.094888 4:0.390878 5:0.482077 6:0.430287 7:0.91352 8:0.62861 9:0.0519159 10:0.224215 11:0.251691 12:0.478791 13:0.323309 14:0.225252 17:0.31812 18:0.139112 19:0.456468 20:0.300675 21:0.374 22:0.522473 23:0.606578 24:0.596507 25:0.735066 26:0.560526 27:0.229025 28:0.783192 29:0.25558 30:0.168983 31:0.112333 32:0.220535 33:0.14821 34:0.165638 35:0.251096 36:0.0807577 37:0.320292 38:0.0872941 40:0.243884 41:0.2579 43:0.502703 44:0.161902 45:0.0889097 46:0.809149 47:0.0837786 48:0.211599 49:0.261882 50:0.106707 51:0.638094 52:0.274546 53:0.543476 55:0.711778 57:0.583137 59:0.367636 61:0.243434 62:0.297033 63:0.397731 64:0.0674 65:0.254827 67:0.184482 
0.05357034345935888 1:1 2:0.191604 3:0.0992078 4:0.528162 5:0.220471 6:0.6588 7:0.966623 8:1 9:0.0542794 10:0.117211 11:0.8399 12:0.937559 13:0.169014 14:0.353261 17:1 19:1 20:0.471546 21:0.495878 22:0.670408 23:0.909452 24:0.536636 25:0.628637 26:0.788188 27:0.359177 28:0.593004 30:0.176676 31:0.117447 37:0.504773 41:0.0898804 43:0.451067 46:0.87083 48:0.36872 51:0.820586 53:0.676379 54:0.254039 55:0.609652 57:0.375994 58:0.11459 59:0.192187 60:0.274858 61:0.127258 62:0.103519 63:0.29266 66:0.148794 
0.7089778660521346 1:0.553426 2:0.206721 3:0.107035 4:0.558429 5:0.300137 6:0.324544 7:0.864355 8:0.385471 9:0.175686 10:0.505837 11:0.742716 12:0.807412 13:0.364698 15:0.152057 16:0.0989234 17:0.938236 19:0.456468 20:0.0847915 21:1 22:0.803975 23:0.909452 24:0.672319 25:0.646677 26:0.442806 27:0.387515 28:0.430287 29:0.432447 30:0.381231 31:0.0633568 32:0.124384 34:0.280263 35:0.14162 36:0.182192 37:0.46282 38:0.098469 39:0.298565 40:0.137553 41:0.387887 42:0.157551 43:0.742665 44:0.273942 45:0.300874 46:1 47:0.189007 48:0.0795622 49:0.147704 51:0.762126 52:0.309693 53:0.678199 54:0.137041 55:0.580841 57:0.529692 59:0.138233 62:0.111686 63:0.249458 65:0.143724 66:0.160533 67:0.208098 
0.5988820393812868 1:1 2:0.371732 4:0.562516 5:0.516067 6:0.742716 7:0.845476 8:0.641349 9:0.0526539 12:0.798833 13:0.819761 14:0.685362 15:0.068358 16:0.0889435 17:0.99855 18:0.282178 19:0.865142 20:0.304949 21:0.644403 22:0.430708 23:0.695273 24:0.772604 25:1 26:0.511047 27:0.34842 28:0.251691 32:0.335505 33:0.150317 34:0.167992 35:0.381997 36:0.409528 37:0.515932 38:0.17707 39:0.134222 40:0.123675 41:0.523131 43:0.627306 44:0.0821017 45:0.0901734 46:0.242476 47:0.424847 48:0.143071 50:0.216448 51:0.614954 52:0.556897 53:0.691309 54:0.246431 55:0.706818 56:0.170642 57:0.463385 59:0.0621436 60:0.0888753 62:0.602509 63:0.371227 64:0.136716 
0.6736611511283433 1:1 3:0.0941789 4:0.368866 5:0.649858 6:0.638532 7:0.642958 8:1 9:0.103056 10:0.22254 11:0.742716 12:0.749216 14:0.335353 15:0.267585 16:0.0870416 17:0.861869 18:0.276144 19:1 20:0.373035 21:0.644403 22:0.609978 23:0.57676 24:0.569958 25:0.565853 26:0.631342 27:0.113657 28:0.324544 29:0.380505 30:0.25158 32:0.32833 33:0.0735514 34:0.0822001 37:0.448294 38:0.0866418 39:0.394055 40:0.121031 41:0.0853243 43:0.476034 44:0.160692 45:0.264735 46:0.87083 47:0.415762 48:0.280023 49:0.194944 50:0.317729 51:0.885357 52:0.272494 53:0.720519 54:0.120581 55:0.677235 57:0.583137 59:0.547333 60:0.0869749 62:0.393084 63:0.518591 64:0.0668963 65:0.505844 66:0.282502 67:0.366206 
0.08353382368680923 1:0.583451 2:0.400036 3:0.207129 4:0.628436 5:0.448361 6:0.712085 7:0.719763 8:0.385471 9:0.0566631 11:0.783192 12:0.780463 13:0.176436 14:0.122925 15:0.0735629 17:0.938236 18:0.151832 19:0.42884 20:0.0820422 21:0.149762 22:0.812608 23:0.712523 24:0.449324 25:0.410586 26:0.721806 27:0.249966 28:0.430287 31:0.0613024 32:0.12035 34:0.180783 35:0.137028 36:0.264426 37:0.311458 38:0.0952762 40:0.133092 41:0.187655 42:0.152442 43:0.560973 46:0.594109 50:0.116465 51:0.699355 52:0.199767 53:0.660132 54:0.132597 55:0.554036 56:0.183635 57:0.627907 59:0.0668754 60:0.478212 61:0.265692 63:0.395122 
1.983357964846357 1:0.544836 4:0.601585 5:0.345576 6:0.6588 7:0.778037 8:0.784823 10:0.201545 11:0.506956 12:0.780463 13:0.290619 14:0.404954 15:0.12117 16:0.0788297 17:0.223491 18:0.125046 19:0.854595 20:0.0675683 21:0.603211 22:0.850885 23:1 24:0.522698 25:0.66358 26:0.788188 27:0.617604 28:0.506956 30:0.227845 31:0.0504875 32:0.198237 34:0.223335 36:0.217777 37:0.39232 41:0.618197 43:0.536164 44:0.0727659 45:0.0799198 46:0.634679 47:0.150615 48:0.126803 49:0.117702 51:0.728914 52:0.411311 53:0.676663 54:0.43682 55:0.817773 57:0.835846 58:0.0985184 59:0.220309 62:0.267 63:0.356494 64:0.060585 67:0.331657 
0.3458702775065419 1:0.583451 4:0.688005 5:0.451164 6:0.712085 7:0.927923 8:0.431261 9:0.107767 10:0.116357 11:0.8399 12:0.780463 15:0.489682 16:0.0910208 17:0.938236 18:0.433153 19:0.518935 20:0.0780178 21:0.753502 22:0.876928 23:0.859559 24:0.519823 25:0.66358 26:0.616057 27:0.118853 28:1 29:0.3979 30:0.175388 32:0.343341 33:0.153828 34:0.171916 35:0.260613 36:0.251456 37:0.484824 38:0.0906027 40:0.126564 41:0.17845 43:0.432627 44:0.0840192 45:0.0922795 46:0.777707 47:0.956493 48:0.0732063 49:0.135904 50:0.110752 51:0.810638 52:0.189968 53:0.668903 54:0.630467 55:0.658282 56:0.349256 57:0.606427 58:0.113754 59:0.25438 61:0.25266 62:0.616582 63:0.448677 64:0.139909 65:0.396728 
0.9900475422869521 1:0.544836 2:0.17322 3:0.269067 4:0.584216 5:0.382513 6:0.6588 7:0.642958 8:0.702986 11:0.324544 12:0.359163 13:0.152797 14:0.425822 17:0.59 18:0.394469 19:0.854595 20:0.0710502 21:0.624578 22:0.794947 23:0.743195 24:0.592123 25:1 26:0.580983 27:0.541191 28:0.324544 29:0.120788 31:0.0530892 32:0.156339 33:0.28018 34:0.62625 35:0.118669 37:0.378887 38:0.0825111 39:0.25018 41:0.406283 42:0.132018 43:0.647804 45:0.168077 46:0.70117 48:0.133337 49:0.0618834 50:0.100861 51:0.791739 52:0.173003 53:0.738306 54:0.459329 55:0.689366 57:0.529692 59:0.0579155 63:0.26472 65:0.240865 67:0.174374 
0.1117295132143648 1:1 2:0.202964 3:0.10509 4:0.639398 5:0.148902 6:0.616688 7:0.802655 8:0.859419 10:0.248321 11:0.471226 12:0.780463 13:0.358069 14:0.24947 15:0.373232 17:0.861869 18:0.308136 19:0.865142 20:0.166501 21:0.603211 22:1 23:0.676435 24:0.541868 25:0.565853 26:0.775392 27:0.253648 28:0.807263 29:0.141529 30:0.0935753 32:0.549553 33:0.0820723 34:0.550338 35:0.278092 37:0.299147 38:0.0966792 41:0.571256 42:0.0773434 43:0.63099 44:0.0896542 46:0.777707 47:0.835072 49:0.290038 50:0.11818 51:0.818016 52:0.506773 53:0.637325 54:0.403651 55:0.742759 57:0.423127 58:0.121384 59:0.0678602 61:0.134803 62:0.657936 63:0.137083 65:0.141112 67:0.204316 
0.03677089223993378 1:0.596414 2:0.191146 4:0.345502 5:0.425929 6:0.593004 7:0.825008 8:0.784823 10:0.116931 11:0.616688 12:0.252325 13:0.16861 14:0.352416 15:0.210899 16:0.09147 17:0.574015 19:0.854595 20:0.235209 21:0.374 22:0.702382 23:0.655689 24:0.537755 25:0.735066 26:1 27:0.119439 28:0.324544 29:0.133288 30:0.0881267 31:0.0585832 32:0.345036 33:0.231881 34:0.259147 36:0.0842322 37:0.415408 38:0.1821 39:0.138035 41:0.268996 43:0.48189 44:0.168868 45:0.278205 46:0.488395 47:0.436915 48:0.0735676 49:0.0682874 50:0.111298 51:0.726416 52:0.0954529 53:0.599493 54:0.126716 55:0.729878 57:0.463385 59:0.191727 61:0.380861 62:0.309813 63:0.354774 66:0.148438 67:0.384838 
0.4566897353144976 1:0.602485 2:0.196605 4:0.445879 5:0.342978 6:0.56714 7:0.719763 8:0.583738 10:0.120271 11:1 12:0.780463 13:0.520276 15:0.0723076 16:0.0940824 17:0.574015 18:0.149241 19:0.854595 20:0.322569 21:0.603211 22:0.876928 23:0.541851 24:0.609214 25:0.513992 26:0.75433 27:0.12285 28:0.616688 30:0.181287 32:0.35489 33:0.079501 34:0.533096 36:0.0866379 37:0.421702 38:0.0936503 40:0.130821 41:0.461132 43:0.665176 44:0.0868453 45:0.190767 46:0.70117 47:0.629152 48:0.0756687 49:0.210713 51:0.66747 52:0.196358 53:0.639138 54:0.260669 55:0.672132 57:0.606427 60:0.0940103 61:0.261159 62:0.424882 63:0.322923 66:0.152677 67:0.197914 
1.186561077873151 1:0.504254 3:0.100906 4:0.561067 5:0.421681 6:0.506956 7:0.802655 8:0.583738 9:0.110417 10:0.119218 11:0.742716 12:0.359163 13:0.171907 14:0.359307 15:0.215023 17:0.459808 19:0.854595 20:0.159872 21:0.603211 22:0.687041 23:0.632601 24:0.684453 25:0.565853 26:0.616057 27:0.243549 28:0.593004 29:0.135895 30:0.08985 32:0.117261 34:0.264214 36:0.257638 37:0.277239 38:0.0928304 39:0.140734 41:0.274256 43:0.611384 45:0.0945484 46:0.594109 47:0.267276 48:0.150012 49:0.139245 50:0.340424 51:0.864554 52:0.486597 53:0.650313 55:0.674532 56:0.357842 57:0.375994 60:0.0931873 61:0.258872 62:0.10529 63:0.227563 65:0.270988 
0.7572822717760186 1:0.504254 2:0.181073 4:0.678175 5:0.410151 6:1 7:0.927923 8:0.583738 10:0.221538 11:0.430287 12:0.252325 13:0.159724 14:0.222562 15:0.26638 17:0.37905 18:0.274901 19:0.854595 21:0.811311 22:1 23:0.655689 24:0.589258 25:0.735066 26:0.75433 27:0.565724 28:0.783192 29:0.126264 30:0.33393 32:0.381328 34:0.40915 35:0.248097 36:0.398966 37:0.364365 39:0.13076 41:0.679521 43:0.530869 45:0.0878479 46:1 47:0.496668 49:0.258755 51:0.906101 52:0.542535 53:0.711298 54:0.360114 55:0.835886 57:1 58:0.108291 59:0.181623 60:0.0865832 62:0.293486 63:0.308054 65:0.125892 66:0.140615 67:0.182279 
