svm_type c_svc
kernel_type rbf
gamma 0.5
nr_class 2
total_sv 198
rho 1.15994
label 1 2
probA -3.12295
probB 0.00657758
nr_sv 85 113
SV
2 1:0.493312 2:0.470965 3:0.310487 7:0.943937 8:0.295662 12:0.314186 14:0.304528 15:0.598024 16:0.519132 17:1 18:0.336864 19:0.732337 20:0.516097 23:0.667362 24:0.63586 30:0.715622 33:0.400697 34:0.206848 35:0.671341 36:0.297195 38:0.502557 39:0.474127 41:0.681979 42:0.230599 44:0.636342 45:0.388037 46:0.222896 47:0.415782 48:0.309852 51:0.351144 52:0.445792 54:0.532146 55:0.516554 
0.06109301094493198 1:0.912873 2:0.671228 7:0.548968 8:0.295662 12:1 14:1 15:0.483895 16:0.987707 17:0.696232 19:0.438087 20:0.887417 23:0.937333 24:0.856056 30:0.569301 33:1 34:0.181862 35:0.436684 36:0.130648 38:0.597273 41:1 44:0.832996 53:0.132988 54:0.448134 55:0.717508 
0.2251689452618847 1:0.938582 2:0.410509 4:0.352802 7:0.852317 8:0.646113 9:0.407259 12:0.794647 14:0.665489 15:0.530543 16:0.847682 17:0.8425 18:0.284194 19:0.390502 20:0.570498 21:0.675664 22:0.125363 23:0.603725 24:0.952796 30:0.929602 32:0.316323 33:0.838481 34:0.174506 35:0.510376 38:0.429994 41:0.888055 42:0.194544 44:0.609413 54:0.209463 55:0.516554 
1.228224831819074 1:0.422084 2:0.911614 3:0.357085 5:0.451184 7:1 8:0.772234 9:0.555187 10:0.331848 12:0.631724 14:0.827864 15:0.143285 16:0.573852 17:0.630906 19:0.0528197 20:0.816057 22:0.170899 23:0.937333 24:0.63586 30:0.715622 33:0.55658 34:0.237892 35:1 38:0.747908 39:0.545284 41:0.519339 42:0.265208 44:0.0225065 52:0.341798 53:0.347919 54:0.241387 55:0.824811 
2 1:0.493312 2:0.286202 3:0.167999 7:0.774706 8:0.562058 10:0.156126 12:0.429994 14:0.612305 15:0.579414 16:0.652559 17:0.602911 19:0.569597 20:0.897207 22:0.160807 23:0.667362 24:0.492171 30:0.955604 33:0.55658 35:0.606566 36:0.0804035 38:0.915458 39:0.256542 41:0.681979 43:0.205735 44:0.801971 46:0.120605 47:0.224973 51:0.189998 54:0.474816 55:0.603725 
0.2625946126910079 1:0.422084 2:0.620874 7:0.774706 8:0.522776 10:0.442663 11:0.238846 12:0.314186 14:0.741237 15:0.367066 16:0.682858 17:0.696232 19:0.568023 20:0.768059 23:1 24:0.359618 30:0.847237 33:0.660891 34:0.158666 35:0.641553 36:0.113984 38:0.891456 41:0.590568 42:0.176885 44:0.55427 52:0.227968 53:0.23205 54:0.197344 55:0.937333 
0.8374471855144795 1:0.673965 2:0.387167 4:0.336982 7:0.932997 8:0.719656 12:0.794647 14:0.578913 15:0.394839 16:0.573852 17:0.410382 18:0.27145 19:0.386642 20:0.570498 22:0.359226 23:0.970726 24:0.952796 30:0.676596 33:0.400697 35:0.606566 38:0.55553 41:0.293718 44:0.635389 49:0.22937 52:0.119742 54:0.383418 55:1 
1.947113956522546 1:0.805522 2:0.490207 3:0.358349 7:0.65243 8:0.522776 12:0.794647 14:0.304528 15:0.538349 16:0.519132 17:0.8425 19:0.50017 20:0.441579 22:0.343007 23:0.667362 24:0.965551 30:0.355913 33:0.400697 35:0.929702 36:0.343007 38:0.429994 40:0.331612 41:0.681979 43:0.877682 44:0.466071 52:0.686015 54:0.437385 55:0.85198 
1.414117200934222 1:1 2:0.342237 3:0.214312 7:0.852317 8:0.594477 12:0.502557 13:0.42635 14:0.538453 15:0.460811 16:0.652559 17:0.602911 18:0.697556 19:0.418144 20:0.768059 22:0.102569 23:0.717508 24:0.977626 26:0.31324 28:0.452988 30:0.86631 33:0.639816 35:0.510376 38:0.747908 41:0.848637 43:0.262451 44:0.849354 46:0.153853 48:0.213874 51:0.242375 54:0.32928 55:0.794131 
2 1:0.938582 2:0.631355 3:0.184706 7:0.835369 8:0.522776 12:0.314186 14:0.416776 15:0.417459 16:0.682858 17:0.602911 19:0.433928 20:0.801283 23:0.985814 24:0.952796 30:0.929602 33:0.29278 35:0.319075 36:0.0883991 38:0.661056 41:0.888055 44:0.897754 54:0.427969 55:0.954615 
1.791894146491447 1:0.912873 2:0.583518 4:0.23623 5:0.443219 7:1 8:0.404641 11:0.175894 12:0.502557 14:0.578913 15:0.378849 16:0.573852 17:1 18:0.190291 19:0.365649 20:0.816057 21:0.226206 23:0.603725 24:0.756644 28:0.18536 30:1 33:0.400697 35:0.671341 38:0.429994 39:0.267829 41:1 42:0.130263 44:0.808314 48:0.175032 51:0.198357 53:0.170889 54:0.272863 55:0.794131 
0.7173299178068659 1:0.422084 2:0.60746 7:0.65243 8:0.793834 9:0.359785 12:0.631724 13:0.460358 14:0.827864 15:0.382735 16:0.616971 17:0.530193 19:0.395356 20:0.82983 22:0.2215 23:0.516554 24:0.492171 30:0.8034 33:0.660891 35:0.913785 36:0.11075 38:0.891456 39:0.353368 41:0.40198 44:0.725798 46:0.166125 52:0.11075 53:0.676401 54:0.25182 55:0.516554 
2 1:0.422084 2:0.444926 7:0.816977 8:0.562058 12:0.502557 14:0.578913 15:0.465864 16:0.682858 17:0.299857 19:0.430129 20:0.648744 21:0.319515 22:0.118566 23:0.667362 24:0.575227 30:0.676596 33:0.55658 35:0.319075 38:0.631724 41:0.293718 44:0.734576 53:0.24138 54:0.271479 55:0.876359 
2 1:0.308407 2:0.551174 7:0.774706 8:0.522776 12:0.597273 14:0.578913 15:0.365228 16:0.573852 17:0.299857 18:0.208473 19:0.50904 20:0.816057 22:0.183923 23:0.918694 24:0.575227 30:0.929602 33:0.55658 35:0.641553 38:0.747908 41:0.40198 44:0.87363 54:0.265725 55:0.876359 
2 1:0.620103 2:0.557639 7:0.796874 8:0.62208 12:0.661056 14:0.612305 15:0.366179 16:0.652559 17:0.8425 18:0.210708 19:0.50783 20:0.516097 22:0.185895 23:0.794131 24:0.575227 30:0.569301 33:0.55658 35:0.720245 38:0.808058 41:0.92053 44:0.876373 54:0.276313 55:0.603725 
1.582507485372552 1:0.938582 2:0.496261 7:0.606833 8:0.522776 10:0.820266 11:0.295059 12:0.597273 14:0.538453 15:0.609853 16:0.444175 17:0.410382 18:0.638422 19:0.439074 20:0.897207 23:0.603725 24:0.965551 30:0.847237 33:0.29278 35:0.319075 38:0.502557 41:0.469816 42:0.218515 44:0.621906 46:0.211215 49:0.539455 52:0.14081 54:0.201988 55:0.794131 
2 1:0.493312 2:0.535719 6:0.225427 7:0.690063 8:0.646113 11:0.249327 12:0.597273 14:0.538453 15:0.492882 16:0.789967 17:0.530193 19:0.48989 20:0.648744 23:0.717508 24:1 30:0.569301 33:0.55658 35:0.740855 38:0.429994 41:0.40198 44:0.812029 45:0.31071 49:0.227921 53:0.242232 54:0.531452 55:0.667362 
0.6971854392009965 1:0.817114 2:0.786104 3:0.320459 4:0.431619 6:0.290571 7:0.65243 8:0.719656 10:0.297811 12:0.314186 14:0.416776 15:0.319675 16:0.682858 17:1 19:0.477647 20:0.801283 23:0.985814 24:0.834991 30:0.748849 32:0.38699 33:0.400697 35:0.856696 36:0.15337 38:0.747908 41:1 42:0.238006 44:0.562994 46:0.230055 49:0.293786 52:0.15337 53:0.312233 54:0.226282 55:0.758894 
0.4249574594295602 1:1 2:0.429452 3:0.350405 7:0.932997 8:0.295662 12:0.502557 14:0.741237 15:0.356864 16:0.920857 17:0.602911 19:0.463437 20:0.705093 22:0.503105 23:0.603725 24:0.977626 30:0.929602 33:0.838481 35:0.319075 36:0.335404 38:0.661056 41:1 44:0.57013 46:0.754658 48:0.349688 52:0.335404 53:0.34141 54:0.259977 55:0.794131 
1.268962561157045 1:1 2:0.528007 7:0.548968 8:0.703812 11:0.217126 12:0.780261 14:0.741237 15:0.55343 16:0.920857 17:0.65528 19:0.553814 20:1 23:0.603725 24:1 30:0.355913 32:0.261455 33:0.838481 35:0.641553 38:1 40:0.200352 41:1 43:0.265137 44:0.792351 52:0.207237 54:0.375898 55:0.667362 
1.616140679522586 1:0.817114 3:0.696484 7:0.796874 8:1 12:0.502557 14:0.795392 15:0.606953 16:0.789967 17:1 19:0.928333 20:0.897207 22:1 23:0.717508 24:0.575227 30:1 33:0.679802 35:1 36:1 38:0.915458 41:1 46:1 52:1 53:0.678606 54:0.464639 55:0.603725 
2 1:0.493312 2:0.306598 3:0.272771 7:0.548968 8:0.404641 12:0.502557 14:0.416776 15:0.564896 16:1 17:0.696232 19:0.585175 20:0.441579 22:0.261093 23:0.377434 24:0.359618 30:0.569301 33:0.696952 35:0.436684 38:0.502557 41:0.681979 44:0.711881 52:0.130546 54:0.373992 55:0.516554 
1.667334464894696 1:0.493312 2:0.221806 7:0.469703 8:1 10:0.254505 12:0.502557 14:0.578913 15:0.556894 16:0.573852 17:0.696232 19:0.408485 20:0.887417 22:0.131068 23:0.667362 24:0.359618 30:0.355913 32:0.330717 33:0.468317 35:0.671341 38:1 41:0.40198 44:0.531266 46:0.196602 52:0.393204 53:0.533661 54:0.152515 55:0.603725 
2 1:0.422084 2:0.498794 7:0.469703 8:0.793834 12:0.597273 13:0.604193 14:0.612305 15:0.555184 16:0.573852 17:0.299857 18:0.329509 19:0.487188 20:0.516097 23:0.717508 24:0.63586 28:0.320971 30:0.955604 32:0.366761 33:0.400697 35:0.671341 38:0.502557 41:0.519339 44:0.74571 46:0.436058 54:0.390578 55:0.898468 
2 1:0.308407 2:0.477069 7:0.774706 8:0.404641 12:1 14:0.416776 15:0.400198 16:1 17:0.696232 19:0.421086 20:0.322652 21:0.527115 22:0.0978017 23:0.758894 24:0.359618 30:0.569301 33:0.83072 35:0.641553 38:0.55553 41:0.590568 44:0.816119 46:0.146703 49:0.187343 53:0.199106 54:0.416175 55:0.516554 
1.79033160996802 1:1 2:0.369312 3:0.538025 5:0.679805 6:0.487846 7:0.943937 8:0.404641 10:1 12:0.631724 14:0.487108 15:0.39491 16:0.519132 17:0.602911 19:0.433058 20:0.570498 21:0.693904 23:0.758894 24:0.977626 27:0.508885 29:0.573859 30:0.4871 31:0.78728 33:0.468317 34:0.716869 35:0.641553 36:0.257496 38:0.747908 41:0.888055 44:0.150895 46:0.386244 51:0.608476 52:0.514992 54:0.491228 55:0.667362 
1.891813055014573 1:1 2:0.372247 7:0.65243 8:0.594477 12:0.314186 14:0.416776 15:0.510751 16:0.682858 17:0.602911 19:0.365591 20:0.768059 22:0.118664 23:0.667362 24:1 27:0.234513 30:0.355913 32:0.299418 33:0.55658 34:0.33036 35:0.510376 36:0.118664 37:0.213625 38:0.661056 41:0.848637 44:0.590172 45:0.30987 49:0.227305 52:0.237327 54:0.715625 55:0.937333 
2 1:0.422084 2:0.598492 3:0.208313 6:0.188884 7:0.469703 8:0.295662 10:0.19359 12:0.597273 14:0.665489 15:0.502855 16:0.847682 17:0.299857 19:0.455829 20:0.648744 23:0.667362 24:0.359618 27:0.19703 30:0.629309 33:0.838481 35:0.319075 36:0.199395 38:0.502557 41:0.293718 44:0.781534 52:0.0996973 54:0.28863 55:0.794131 
2 1:0.805522 2:0.926925 6:0.281218 7:0.548968 8:0.719656 11:0.311033 12:0.597273 14:0.416776 15:0.543483 16:0.519132 17:0.805096 19:0.561802 20:0.516097 23:0.516554 24:0.785876 28:0.327773 30:0.748849 32:0.374534 33:0.400697 35:0.606566 38:0.686595 41:0.293718 44:0.656949 52:0.148433 53:0.604365 54:0.301605 55:0.603725 
1.218191694523187 1:0.545311 2:0.42234 7:0.469703 8:0.522776 10:0.423097 11:0.456579 12:0.429994 14:0.487108 15:1 16:0.324549 17:0.676864 19:0.50535 20:0.516097 22:0.871566 23:0.794131 24:0.811763 27:0.430615 30:0.629309 33:0.468317 35:1 38:0.55553 41:0.519339 42:0.676266 44:0.517579 46:0.326837 52:0.435783 54:1 55:0.794131 
1.041368549855531 1:0.545311 2:0.407848 7:0.816977 8:0.734257 12:0.502557 14:0.416776 15:0.464474 16:0.444175 17:0.771204 19:0.564388 20:0.801283 22:0.115615 23:0.758894 24:0.811763 30:0.676596 33:0.468317 34:0.321872 35:0.913785 36:0.23123 38:0.820617 41:0.293718 44:0.71057 46:0.346844 47:0.323495 49:0.221465 54:0.267093 55:0.717508 
2 1:0.493312 2:0.605125 7:0.65243 8:0.793834 10:0.128592 12:0.502557 14:0.304528 15:0.430243 16:0.573852 17:0.8425 19:0.442894 20:0.768059 23:0.516554 24:0.63586 27:0.130877 30:0.748849 33:0.55658 35:0.913785 36:0.0662237 38:0.891456 41:0.92053 42:0.205537 44:0.86003 49:0.126854 52:0.0662237 54:0.321109 55:0.516554 
0.3468604409830908 1:0.696165 2:0.522381 3:0.38768 7:0.722104 8:0.62208 10:0.36028 12:0.597273 14:0.578913 15:0.117604 16:0.444175 17:0.8425 18:0.420615 19:0.428099 20:0.82983 21:1 23:0.918694 24:0.856056 26:0.566635 30:0.883886 33:0.29278 35:0.720245 36:0.185541 38:0.747908 41:0.714924 42:0.287931 44:0.423045 48:0.386886 52:0.371083 53:0.377728 54:0.0293785 55:0.876359 
0.5067621855682042 1:0.545311 2:0.324397 3:0.717485 5:0.453278 7:0.774706 8:1 11:0.359771 12:0.794647 13:0.713678 14:0.756276 15:0.463761 16:0.324549 17:1 19:0.740203 20:0.768059 22:0.171692 23:0.667362 24:0.811763 30:0.955604 33:0.468317 35:1 36:0.171692 38:0.820617 41:0.519339 44:0.677756 47:0.480402 52:0.343384 53:0.349534 54:0.750615 55:0.85198 
0.7625837663456175 1:0.938582 2:0.382355 3:0.287208 7:0.932997 8:1 9:0.446543 10:0.266909 12:0.502557 14:1 15:0.486158 16:0.847682 17:0.696232 19:0.305111 20:0.768059 23:0.985814 24:0.952796 30:1 33:1 35:0.671341 38:1 39:0.877157 41:0.641865 42:0.21331 44:0.694126 49:0.526605 51:0.324816 53:0.559671 54:0.26042 55:0.954615 
0.3144262414833052 1:0.422084 2:0.408576 5:0.263431 7:1 8:0.522776 10:0.387509 12:0.502557 14:0.538453 15:0.280396 16:0.519132 17:0.530193 19:0.358918 20:0.441579 22:0.299346 23:0.717508 24:0.977626 30:0.883886 33:0.468317 34:0.277794 35:0.913785 38:0.597273 41:0.40198 44:0.603971 46:0.149673 52:0.199564 53:0.203138 54:0.196599 55:0.898468 
0.3953780432734975 1:0.805522 2:0.500452 7:0.816977 8:0.594477 12:0.429994 14:0.806838 15:0.575181 16:0.652559 17:0.410382 19:0.501462 20:0.768059 21:0.34399 22:0.127649 23:0.970726 24:0.952796 30:0.676596 33:0.468317 34:0.177687 35:0.319075 38:0.661056 40:0.246816 41:0.293718 44:0.840766 45:1 54:0.213221 55:1 
0.2347693150507031 1:0.620103 2:0.780767 7:0.690063 8:0.522776 10:0.20372 12:0.85412 14:0.741237 15:0.455076 16:0.652559 17:0.696232 19:0.356204 20:0.648744 23:0.516554 24:0.575227 30:0.883886 33:0.588683 35:0.641553 38:0.429994 40:0.202857 41:0.92053 44:0.847767 46:0.157371 53:0.213586 54:0.231184 55:0.667362 
0.9486150592130863 1:1 2:0.623519 6:0.196816 7:0.722104 8:1 12:0.661056 14:0.756276 15:0.506181 16:0.519132 17:0.8425 19:0.452582 20:0.648744 22:0.207768 23:0.377434 24:1 25:0.349384 30:0.826389 33:0.696952 35:0.856696 38:0.915458 41:0.888055 43:0.79745 44:0.842277 46:0.155826 52:0.103884 53:0.211489 54:0.299255 55:0.667362 
0.09496446900800323 1:0.696165 2:0.517048 3:0.331091 7:0.343201 8:0.646113 10:0.615382 12:0.597273 14:0.578913 15:0.261756 16:0.573852 17:0.8425 19:0.575481 20:0.768059 23:0.937333 24:0.909553 30:0.8034 31:0.484478 33:0.400697 35:0.740855 36:0.158458 38:0.631724 41:0.714924 44:0.60108 48:0.330413 52:0.475375 54:0.332823 55:1 
0.7471409503699076 1:0.422084 2:0.452949 4:0.335039 7:0.774706 8:0.772234 9:0.386754 12:0.631724 14:0.640735 15:0.62398 16:0.573852 17:0.676864 18:0.269885 19:0.439926 20:0.785349 22:0.357154 23:0.794131 24:0.683638 30:0.715622 33:0.468317 35:1 38:0.891456 41:0.519339 44:0.864911 46:0.357154 53:0.242367 54:0.38253 55:0.516554 
2 1:0.620103 2:0.504807 7:0.65243 8:0.295662 10:0.140598 12:1 14:0.827864 15:0.428763 16:0.324549 17:0.8425 19:0.381405 20:0.570498 22:0.144814 23:0.937333 24:0.575227 30:0.629309 33:0.588683 35:0.740855 36:0.0724069 38:0.314186 41:0.92053 42:0.112364 44:0.660592 46:0.10861 52:0.144814 53:0.147407 54:0.285097 55:0.824811 
2 1:0.545311 2:0.471509 5:0.227392 7:0.852317 8:0.62208 12:0.314186 14:0.416776 15:0.43645 16:0.324549 17:0.771204 19:0.44477 20:0.648744 21:0.464216 23:0.603725 24:0.63586 27:0.17022 30:0.826389 33:0.29278 35:0.720245 36:0.0861314 38:0.631724 41:0.469816 44:0.873154 47:0.240999 53:0.175348 54:0.353987 55:0.667362 
0.3755349376717698 1:0.938582 2:0.783943 4:0.441111 7:1 8:0.472926 10:0.608719 12:0.55553 14:0.538453 15:0.653352 16:0.444175 17:0.602911 19:0.182606 20:0.768059 22:0.313485 23:0.794131 24:0.723071 30:0.86631 31:0.479233 33:0.55658 34:0.436372 35:0.510376 38:0.747908 41:1 42:0.24324 44:0.521249 46:0.235114 52:0.156743 53:0.3191 54:0.553724 55:0.794131 
0.4177341327471127 1:0.805522 2:0.65123 7:0.548968 8:0.562058 12:1 14:0.806838 15:0.739114 16:1 17:0.410382 19:0.514707 20:0.516097 23:0.985814 24:0.924904 26:0.425377 30:0.629309 33:0.83072 35:0.671341 38:0.808058 41:0.681979 44:0.765629 50:0.348921 52:0.139287 54:0.517561 55:1 
2 1:0.422084 2:0.503595 3:0.189062 5:0.238883 7:0.65243 8:0.562058 12:0.597273 14:0.827864 15:0.464941 16:0.892635 17:0.410382 19:0.408408 20:0.82983 22:0.180968 23:0.603725 24:0.575227 30:0.569301 33:0.838481 35:0.510376 38:0.747908 41:0.519339 44:0.901617 48:0.188675 49:0.346651 53:0.184209 54:0.348896 55:0.603725 
2 1:0.308407 2:0.683168 7:0.343201 8:0.772234 10:0.193091 12:0.597273 14:0.538453 15:0.548346 16:0.519132 17:0.630906 19:0.563093 20:0.613365 21:0.267973 22:0.0994401 23:0.717508 24:0.359618 30:0.847237 32:0.250912 33:0.83072 35:1 36:0.0994401 38:0.429994 41:0.469816 42:0.462946 43:0.254446 44:0.782826 45:0.259671 49:0.190481 54:0.380524 55:0.516554 
0.9571389186555755 1:0.545311 2:0.638411 4:0.297381 7:0.921474 8:0.522776 12:0.794647 14:0.756276 15:0.51589 16:0.519132 17:0.676864 19:0.583548 20:0.516097 22:0.10567 23:0.377434 24:0.492171 30:0.676596 33:0.468317 34:0.147093 35:1 36:0.10567 38:0.55553 41:0.519339 44:0.681387 48:0.220341 52:0.211341 54:0.220145 55:1 
1.215788197406924 1:0.805522 2:0.86411 3:0.327787 6:0.297215 7:0.469703 8:0.522776 12:0.502557 14:0.612305 15:0.278665 16:0.652559 17:1 19:0.516805 20:0.441579 21:0.422755 22:0.313754 23:0.794131 24:0.965551 28:0.346419 30:0.569301 33:0.55658 35:1 36:0.156877 38:0.502557 41:0.681979 42:0.243448 44:0.590184 46:0.235315 52:0.470631 54:0.210633 55:0.85198 
2 1:0.308407 2:0.518649 3:0.248777 7:0.343201 8:0.522776 12:1 14:0.756276 15:0.63567 16:0.324549 17:0.630906 19:0.511057 20:0.322652 22:0.35719 23:0.794131 24:0.811763 30:0.569301 33:0.517681 34:0.331473 35:0.856696 38:0.314186 41:0.519339 44:0.72904 48:0.248268 52:0.238127 54:0.371183 55:0.85198 
0.5843495952695834 1:0.817114 2:0.677379 3:0.186293 6:0.168918 7:0.343201 8:1 10:0.173126 12:0.85412 14:0.304528 15:0.438021 16:0.519132 17:0.805096 19:0.47759 20:1 21:0.240266 22:0.178317 23:0.898468 24:0.683638 30:0.4871 33:0.696952 35:0.792401 38:1 41:0.848637 42:0.13836 44:0.812065 49:0.170787 50:0.223346 52:0.0891586 53:0.544532 54:0.420893 55:0.516554 
1.899418604290828 1:0.308407 2:0.508883 7:0.722104 8:0.772234 12:0.429994 14:0.827864 15:0.505194 16:0.444175 17:1 19:0.398092 20:0.816057 22:0.100174 23:0.758894 24:0.359618 30:0.929602 32:0.252763 33:0.55658 35:1 38:0.747908 41:0.519339 42:0.310907 44:0.77298 52:0.200347 54:0.369093 55:0.516554 
0.7685104861733596 1:0.805522 2:0.752256 5:0.431059 7:0.816977 8:0.594477 12:0.314186 14:0.756276 15:0.348441 16:1 17:0.696232 19:0.545292 20:1 22:0.326552 23:0.898468 24:0.965551 27:0.32268 30:0.955604 33:0.696952 34:0.227281 35:0.319075 36:0.163276 38:0.661056 39:0.520962 41:0.681979 42:0.253379 44:0.718717 46:0.244914 51:0.38583 52:0.163276 54:0.351674 55:0.954615 
1.524871001528007 1:0.422084 2:0.660958 3:0.312519 7:0.548968 8:0.793834 12:0.794647 14:0.827864 15:0.543574 16:0.682858 17:0.8425 19:0.517996 20:0.785349 23:0.985814 24:0.492171 29:1 30:0.629309 33:0.660891 34:0.416403 35:0.913785 36:0.448709 38:0.891456 41:0.40198 44:0.538151 46:0.224355 52:0.448709 54:0.201122 55:1 
0.8591905941285529 1:0.938582 2:0.364429 6:0.224547 7:0.932997 8:1 9:0.770059 12:0.631724 14:0.795392 15:0.372009 16:0.847682 17:0.8425 19:0.470992 20:0.768059 22:0.237041 23:1 24:0.952796 30:0.86631 33:1 34:0.164981 35:0.856696 36:0.118521 38:0.820617 39:0.756324 40:0.229167 41:0.888055 44:0.802691 46:0.177781 47:0.331626 48:0.247137 54:0.239368 55:0.954615 
1.713097960761873 1:0.308407 2:0.732848 3:0.256586 7:0.469703 8:0.295662 10:0.238452 12:0.794647 14:0.612305 15:0.509491 16:0.444175 17:0.696232 18:0.556769 19:0.499616 20:0.441579 22:0.122801 23:0.667362 24:0.575227 27:0.242689 30:0.569301 33:0.517681 35:0.641553 38:0.597273 40:0.237442 41:0.40198 44:0.683398 47:0.343602 48:0.256061 53:1 54:0.534303 55:0.794131 
2 1:0.620103 2:0.398152 7:0.722104 8:0.295662 12:0.55553 14:0.487108 15:0.476384 16:0.573852 17:0.410382 19:0.402958 20:0.648744 23:0.717508 24:0.575227 25:0.40314 30:0.847237 33:0.468317 35:0.319075 38:0.314186 41:0.469816 42:0.186016 44:0.80038 46:0.179802 52:0.359603 54:0.200722 55:0.667362 
1.334181820553398 1:0.620103 2:0.580918 7:0.469703 8:0.793834 10:0.215546 12:0.780261 14:0.795392 15:0.51766 16:0.616971 17:0.410382 19:0.476622 20:0.785349 23:0.603725 24:0.492171 27:0.438752 30:0.569301 33:0.400697 34:0.154518 35:0.671341 36:0.111004 38:0.891456 41:0.558362 44:0.773659 46:0.166507 52:0.111004 54:0.360191 55:0.377434 
2 1:0.493312 2:0.483907 7:0.469703 8:1 10:0.181268 12:0.55553 14:0.416776 15:0.451973 16:0.444175 17:0.696232 19:0.470928 20:0.648744 22:0.0933516 23:0.603725 24:0.492171 30:0.569301 33:0.468317 34:0.129946 35:0.671341 36:0.186703 38:0.915458 41:0.293718 42:0.144867 44:0.848432 46:0.140027 52:0.0933516 54:0.375881 55:0.516554 
1.221631554755086 1:0.308407 2:0.404853 7:0.548968 8:0.404641 10:0.207749 11:0.224189 12:0.502557 14:1 15:0.527028 16:0.789967 17:1 19:0.500794 20:0.816057 22:0.320966 23:0.516554 24:0.575227 30:0.4871 33:0.679802 35:0.720245 36:0.213978 38:0.314186 41:0.519339 44:0.839456 45:0.558767 46:0.48145 49:0.204941 52:0.106989 53:0.21781 54:0.42497 55:0.516554 
0.08820775298959727 1:0.817114 2:0.483856 3:0.288789 6:0.261855 7:0.690063 8:1 10:0.268379 12:0.502557 14:0.416776 15:0.796383 16:0.444175 17:1 19:0.645231 20:0.887417 22:0.138213 23:0.985814 24:0.834991 30:0.86631 33:0.29278 35:1 36:0.138213 37:0.248819 38:1 41:1 43:0.353657 44:0.63374 45:0.36092 46:0.207319 48:0.288198 49:0.264752 50:0.34623 51:0.326604 52:0.138213 54:0.577483 55:0.758894 
2 1:0.938582 2:0.55767 5:0.24942 7:0.469703 8:0.793834 12:0.794647 14:0.612305 15:0.500834 16:0.519132 17:0.299857 19:0.387485 20:0.441579 21:0.509186 22:0.094475 23:0.717508 24:0.924904 30:0.355913 33:0.468317 34:0.131509 35:0.510376 36:0.094475 38:0.891456 41:0.469816 44:0.887903 49:0.180971 54:0.321906 55:0.758894 
2 1:0.422084 2:0.527771 7:0.65243 8:0.793834 10:0.142463 12:0.502557 14:0.578913 15:0.462656 16:0.324549 17:0.299857 19:0.387981 20:0.768059 22:0.0733672 23:0.603725 24:0.63586 30:0.8034 32:0.185124 33:0.517681 35:0.510376 37:0.13208 38:0.747908 41:0.293718 43:0.187731 44:0.814614 48:0.152984 53:0.298725 54:0.417299 55:0.824811 
2 1:0.696165 2:0.317086 6:0.248559 7:0.774706 8:0.522776 12:0.729504 14:0.640735 15:0.395139 16:0.652559 17:0.8425 19:0.404577 20:0.441579 23:0.603725 24:0.683638 30:0.715622 31:0.401121 33:0.468317 34:0.182623 35:0.913785 36:0.131195 38:0.597273 40:0.253673 41:0.714924 44:0.775107 54:0.315622 55:0.717508 
0.5657137815246841 1:0.805522 2:0.57737 7:0.816977 8:0.404641 12:0.85412 14:0.538453 15:0.459908 16:0.573852 17:0.410382 19:0.438745 20:0.678866 22:0.080764 23:0.758894 24:0.952796 30:0.929602 33:0.83072 35:0.671341 38:0.686595 41:0.681979 44:0.85281 49:0.154707 52:0.161528 54:0.263473 55:0.876359 
1.045587917597453 1:0.817114 2:0.513216 3:0.221547 5:0.279929 7:0.343201 8:1 10:0.205889 12:0.314186 14:0.416776 15:0.369232 16:0.920857 17:1 19:0.494048 20:0.801283 23:1 24:0.834991 30:0.569301 32:0.267543 33:0.55658 34:0.147595 35:1 36:0.212062 38:0.820617 41:1 44:0.728676 46:0.318093 52:0.106031 54:0.262794 55:0.758894 
0.2232070410498264 1:0.493312 2:0.549393 7:0.796874 8:0.772234 12:0.661056 14:0.416776 15:0.518123 16:0.444175 17:0.630906 19:0.470961 20:0.816057 22:0.183804 23:0.758894 24:0.977626 25:0.309086 29:0.204814 30:0.826389 33:0.29278 35:1 38:0.747908 41:0.293718 42:0.142617 44:0.684245 46:0.137853 52:0.0919019 53:0.187096 54:0.318066 55:0.898468 
2 1:0.493312 2:0.366009 7:0.469703 8:0.734257 12:0.597273 14:0.578913 15:0.665594 16:0.652559 17:0.410382 19:0.50117 20:0.768059 21:0.287889 22:0.106831 23:0.717508 24:0.63586 30:0.355913 33:0.468317 34:0.148709 35:0.510376 38:0.820617 41:0.40198 44:0.70542 46:0.160246 54:0.517941 55:0.898468 
0.3055416254858826 1:0.308407 2:0.498353 7:0.343201 8:0.838896 10:0.193996 12:1 14:0.665489 15:0.47859 16:0.789967 17:0.410382 19:0.471526 20:0.441579 22:0.299718 23:0.918694 24:0.575227 30:0.8034 33:0.55658 35:0.606566 38:0.686595 41:0.293718 44:0.831179 53:0.203391 54:0.336867 55:0.876359 
0.2462846394027726 1:0.938582 2:0.558251 7:0.548968 8:0.747795 10:0.25342 12:0.794647 14:0.827864 15:0.494007 16:0.892635 17:1 19:0.369972 20:1 21:0.351698 23:0.377434 24:0.492171 27:0.257923 30:0.8034 33:0.838481 34:0.181669 35:0.720245 36:0.130509 38:0.808058 39:0.832825 40:0.252347 41:1 42:0.202529 44:0.697767 46:0.195764 54:0.378748 55:0.516554 
1.56981462081485 1:1 2:0.533628 7:0.722104 8:0.562058 12:0.631724 14:0.578913 15:0.46253 16:1 17:0.299857 19:0.467889 20:0.768059 23:0.985814 24:1 29:0.223073 30:0.355913 33:0.639816 34:0.278665 35:0.319075 38:0.820617 40:0.193539 41:0.848637 42:0.155331 44:0.764012 45:0.261381 49:0.191736 54:0.301284 55:0.937333 
2 1:0.545311 2:0.426608 7:0.343201 8:0.295662 10:0.281121 12:0.429994 14:0.538453 15:0.408742 16:0.324549 17:0.771204 19:0.336259 20:0.516097 22:0.144775 23:0.667362 24:0.63586 30:0.847237 33:0.29278 35:0.436684 38:0.314186 40:0.279931 41:0.469816 44:0.73642 46:0.217163 47:0.405087 48:0.301882 53:0.294736 54:0.333575 55:0.794131 
2 1:0.938582 2:0.534949 7:0.469703 8:0.838896 10:0.270984 12:0.597273 14:0.538453 15:0.462049 16:0.324549 17:0.410382 18:0.158182 19:0.493842 20:0.768059 22:0.0697773 23:0.603725 24:0.965551 30:0.4871 33:0.517681 35:0.606566 38:0.808058 41:0.40198 44:0.871204 46:0.104666 47:0.19524 52:0.139555 53:0.142054 54:0.425819 55:0.794131 
1.694909504571589 1:0.912873 2:0.478217 7:0.943937 8:1 9:1 12:1 14:0.612305 15:0.531037 16:0.324549 17:1 19:0.537769 20:0.897207 21:0.414763 22:0.307823 23:0.603725 24:0.856056 27:0.304172 30:0.847237 33:0.400697 34:0.214245 35:1 36:0.153911 38:0.915458 39:0.982164 40:0.297596 41:1 44:0.602095 46:0.230867 52:0.153911 54:0.337973 55:1 
1.026407613488617 1:0.938582 2:0.589644 6:0.264933 7:0.722104 8:0.793834 10:0.271534 12:1 14:0.612305 15:0.425452 16:0.444175 17:0.8425 19:0.284666 20:0.768059 22:0.139838 23:0.603725 24:0.924904 30:0.715622 31:0.427547 33:0.55658 34:0.389309 35:0.913785 38:0.747908 39:0.446178 41:0.92053 43:0.71563 44:0.581719 45:0.365163 47:0.391272 51:0.330444 52:0.139838 53:0.284684 54:0.292946 55:0.516554 
2 1:0.493312 2:0.596381 3:0.246941 7:0.469703 8:0.772234 12:1 14:0.416776 15:0.441216 16:0.324549 17:0.530193 19:0.39045 20:0.816057 22:0.236369 23:0.937333 24:0.359618 30:0.4871 33:0.29278 35:1 36:0.118185 38:0.747908 41:0.469816 44:0.756295 48:0.246436 52:0.118185 53:0.240603 54:0.4106 55:1 
2 1:0.493312 2:0.489203 3:0.210459 7:0.65243 8:0.404641 10:0.195585 12:0.429994 14:0.416776 15:0.369559 16:0.519132 17:0.805096 19:0.41367 20:0.613365 21:0.271434 22:0.201449 23:0.377434 24:0.359618 28:0.222422 30:0.929602 32:0.254153 33:0.29278 35:0.564174 38:0.314186 40:0.194757 41:0.293718 43:0.515465 44:0.796415 46:0.151087 54:0.278662 55:0.516554 
2 1:0.308407 2:0.46237 7:0.343201 8:0.838896 10:0.239986 12:0.502557 14:0.538453 15:0.49519 16:0.616971 17:0.630906 19:0.389262 20:0.613365 23:0.667362 24:0.575227 30:0.355913 33:0.29278 34:0.172039 35:0.856696 38:0.686595 41:0.293718 42:0.191793 44:0.612495 46:0.185386 49:0.236743 50:0.309601 53:0.251609 54:0.521635 55:0.377434 
1.45774415250567 1:0.545311 2:0.407386 4:0.58201 7:0.722104 8:0.747795 10:0.602368 11:0.216679 12:0.597273 14:0.612305 15:0.583383 16:0.682858 17:1 18:0.234414 19:0.440172 20:0.678866 22:0.103405 23:1 24:0.359618 30:0.847237 33:0.517681 35:0.720245 37:0.37231 38:0.502557 41:0.519339 44:0.751388 49:0.594228 54:0.419132 55:0.937333 
1.364062650028739 1:0.938582 2:0.439181 6:0.282823 7:0.690063 8:0.646113 11:0.312808 12:0.631724 14:0.304528 15:0.578193 16:0.519132 17:0.8425 19:0.332759 20:1 23:0.603725 24:0.952796 30:0.826389 31:0.456417 33:0.400697 34:0.207798 35:0.510376 38:0.597273 40:0.288642 41:0.888055 44:0.619562 45:0.38982 54:0.444232 55:0.516554 
1.577449689675995 1:0.422084 2:0.624593 4:0.422424 7:0.690063 8:0.793834 9:0.487627 10:0.291466 12:0.780261 13:0.623936 14:0.416776 15:0.500471 16:0.987707 17:0.530193 19:0.446907 20:0.785349 22:0.300205 23:0.758894 24:0.575227 30:0.847237 33:1 34:0.208943 35:0.913785 36:0.300205 38:0.891456 41:0.40198 44:0.731036 49:0.287527 52:0.450308 54:0.402357 55:0.516554 
2 1:0.545311 2:0.56817 3:0.372189 4:0.501293 7:0.469703 8:0.594477 12:0.502557 14:0.416776 15:0.149512 16:0.652559 17:0.299857 19:0.688862 20:0.887417 21:0.480021 22:0.178128 23:0.667362 24:0.492171 30:0.355913 33:0.400697 35:0.436684 36:0.356255 38:0.808058 41:0.293718 42:0.276426 44:0.446184 52:0.534383 54:0.226078 55:0.516554 
2 1:0.422084 2:0.413198 7:0.852317 8:0.404641 10:0.196259 12:0.597273 14:0.304528 15:0.427243 16:0.682858 17:0.299857 19:0.580614 20:0.570498 23:0.898468 24:0.965551 30:0.915375 33:0.29278 34:0.281384 35:0.641553 36:0.202143 38:0.747908 41:0.40198 42:0.156847 44:0.570177 45:0.263932 46:0.151608 52:0.101072 53:0.205764 54:0.374793 55:0.954615 
1.975577517437865 1:0.308407 2:0.405415 7:1 8:0.404641 10:0.394849 12:0.729504 14:0.538453 15:0.496765 16:0.573852 17:0.299857 18:0.921945 19:0.720616 20:0.678866 22:0.203344 23:0.717508 24:0.575227 30:0.955604 33:0.639816 35:0.606566 36:0.203344 38:0.55553 41:0.469816 44:0.406578 46:0.305016 50:0.509386 52:0.406688 54:0.177437 55:0.667362 
0.4648148976275932 1:0.938582 2:0.584679 3:0.25005 5:0.315944 7:0.774706 8:0.594477 12:0.314186 14:0.416776 15:0.373313 16:1 17:0.8425 19:0.30763 20:0.768059 22:0.119673 23:0.603725 24:0.965551 30:0.748849 33:0.83072 35:0.720245 38:0.747908 41:0.92053 44:0.64883 52:0.119673 54:0.274112 55:0.954615 
-0.5444489365727578 1:0.673965 2:0.594004 6:0.305576 7:0.796874 10:0.626379 12:0.55553 14:0.538453 15:0.485337 16:0.324549 19:0.821149 20:0.516097 22:0.32258 23:0.667362 24:0.952796 27:0.318754 28:0.356163 30:0.715622 33:0.468317 34:0.224516 35:0.641553 36:0.16129 38:0.429994 41:0.558362 42:0.250296 43:0.412706 44:0.574464 49:0.308957 52:0.48387 53:0.328357 54:0.393877 55:0.876359 
-0.4755217025902765 1:0.817114 2:0.652516 3:0.182169 7:0.796874 8:0.62208 12:0.502557 14:0.538453 15:0.328634 17:0.410382 19:0.6284 20:0.322652 21:0.704844 22:0.0871852 23:0.377434 24:0.359618 30:0.77778 33:0.517681 34:0.121362 35:0.319075 38:0.808058 41:0.641865 44:0.815314 46:0.130778 54:0.209125 55:0.377434 
-0.8851675218246031 1:0.545311 2:0.540676 6:0.231946 7:0.943937 8:0.522776 12:0.314186 14:0.795392 15:0.395695 16:0.444175 17:0.299857 19:0.385553 20:0.768059 23:0.667362 24:0.856056 27:0.241949 30:0.847237 33:0.679802 35:0.436684 36:0.122427 37:0.220399 38:0.661056 39:0.390624 41:0.519339 43:0.313263 44:0.772118 53:0.249238 54:0.408812 55:0.824811 
-2 1:1 2:0.608848 3:0.207059 5:0.261623 7:0.690063 8:0.522776 10:0.192425 12:0.597273 14:0.304528 15:0.369547 16:0.682858 17:0.410382 18:0.449298 19:0.487108 20:0.816057 22:0.198194 23:0.377434 24:0.492171 30:0.847237 33:0.55658 34:0.137943 35:0.641553 38:0.747908 41:0.888055 44:0.770306 46:0.148646 49:0.189825 52:0.198194 54:0.348645 55:0.516554 
-0.6221563784634017 1:1 2:0.405981 4:0.357591 6:0.48147 7:0.722104 8:0.562058 10:0.246733 12:0.314186 13:0.528177 14:0.578913 15:0.336579 16:0.682858 17:0.602911 19:0.467666 20:1 22:0.254131 23:0.758894 24:0.856056 26:0.388052 30:0.355913 33:0.55658 34:0.176875 35:0.606566 38:1 40:0.245688 41:1 43:0.325133 44:0.719769 49:0.243399 51:0.600524 52:0.254131 54:0.325987 55:0.603725 
-0.2971338385064199 1:0.493312 2:0.549239 7:0.690063 8:0.522776 9:0.447227 12:0.314186 14:0.640735 15:0.417269 16:0.573852 17:0.676864 19:0.440952 20:0.322652 22:0.137667 23:0.918694 24:0.492171 27:0.272068 30:0.748849 33:0.468317 34:0.191632 35:1 36:0.137667 39:0.43925 41:0.558362 42:0.427273 43:0.704519 44:0.722674 45:0.359493 48:0.287059 52:0.137667 54:0.326829 55:0.516554 
-1.092082381237165 1:0.938582 2:0.512909 7:0.343201 8:0.562058 12:0.502557 14:0.578913 15:0.477044 16:0.789967 19:0.437809 20:0.322652 22:0.21041 23:0.667362 24:0.965551 30:0.847237 36:0.105205 38:0.808058 41:0.40198 44:0.799595 48:0.219371 52:0.105205 53:0.428357 54:0.309154 55:0.717508 
-2 2:0.538445 7:0.921474 8:0.62208 12:0.502557 14:0.416776 15:0.657544 16:0.652559 17:0.530193 19:0.378066 20:0.648744 22:0.176621 23:0.794131 24:0.63586 27:0.174526 29:0.19681 30:0.715622 33:0.29278 35:0.720245 38:0.686595 41:0.558362 44:0.754539 53:0.539351 54:0.4178 55:0.667362 
-2 1:0.938582 2:0.277536 6:0.232034 7:0.548968 8:0.472926 12:0.794647 14:0.741237 15:0.408561 16:0.789967 17:0.696232 19:0.314673 20:0.705093 22:0.244946 23:0.516554 24:0.924904 30:0.355913 33:0.55658 34:0.170482 35:0.671341 38:0.747908 41:0.92053 43:0.313382 44:0.717637 54:0.329164 55:0.758894 
-0.7436807479372354 1:0.938582 2:0.618979 6:0.195492 7:0.65243 8:0.522776 12:1 14:0.640735 15:0.535886 16:0.573852 17:0.299857 18:0.233916 19:0.374572 20:0.516097 23:0.918694 24:0.952796 33:0.468317 35:0.510376 36:0.103185 41:0.469816 44:0.709431 48:0.215159 52:0.103185 53:0.210066 54:0.384258 55:0.876359 
-0.5633894491449527 1:0.422084 2:0.488112 7:0.796874 8:0.793834 12:0.597273 15:0.29375 16:0.573852 17:0.410382 19:0.412807 20:0.768059 22:0.328852 23:0.794131 24:0.359618 30:0.676596 32:0.414888 33:0.29278 35:0.671341 38:0.747908 41:0.293718 43:0.420731 44:0.664586 46:0.246639 49:0.314964 52:0.328852 53:0.334741 54:0.254692 55:0.954615 
-1.165773432080448 1:0.308407 2:0.658808 7:0.469703 8:1 10:0.376307 12:0.314186 14:0.741237 15:0.821022 16:0.789967 18:0.439325 19:0.441275 20:0.678866 21:0.522241 22:0.581384 23:0.667362 24:0.575227 33:0.55658 35:0.792401 36:0.193795 38:0.915458 42:0.300739 44:0.350611 46:0.290692 52:0.581384 54:0.31435 55:0.824811 
-0.2043285669253337 1:0.545311 2:0.576028 5:0.21818 7:0.469703 8:0.295662 10:0.160472 12:0.729504 14:0.578913 15:0.533157 16:0.652559 17:0.65528 18:0.187346 19:0.374611 20:0.322652 22:0.165284 23:0.667362 24:0.63586 33:0.468317 35:0.641553 38:0.502557 41:0.519339 44:0.875829 46:0.123963 48:0.172323 53:0.336488 54:0.29599 55:0.898468 
-0.8175083577667408 1:0.493312 2:0.335324 8:0.522776 12:0.780261 14:0.416776 15:0.624412 16:0.847682 17:0.696232 19:0.653289 20:0.441579 23:0.377434 24:0.359618 30:0.715622 31:0.382623 33:0.517681 35:0.671341 41:0.519339 43:0.320218 44:0.740863 46:0.187717 47:0.35016 53:0.254772 54:0.473179 55:0.717508 
-1.700692534005922 1:0.493312 2:0.49485 7:0.343201 8:0.404641 12:0.502557 14:0.756276 15:0.453877 16:0.324549 17:0.65528 19:0.507489 20:1 22:0.278672 23:0.794131 24:0.575227 28:0.307684 30:0.847237 33:0.517681 35:0.319075 38:0.661056 41:0.681979 44:0.768713 46:0.418008 54:0.304177 55:0.824811 
-2 2:0.472682 6:0.210382 7:0.774706 8:0.594477 12:0.794647 14:0.612305 15:0.524776 16:0.987707 17:0.530193 19:0.546088 20:0.801283 22:0.111044 23:0.717508 24:0.856056 30:0.883886 31:0.339513 33:0.55658 35:0.720245 36:0.111044 38:0.747908 41:0.40198 44:0.760849 49:0.21271 52:0.111044 54:0.31694 55:0.876359 
-1.352110889151642 1:0.938582 2:0.487171 3:0.320234 5:0.202311 7:0.343201 8:0.295662 12:0.55553 14:0.741237 15:0.518945 16:0.920857 17:0.696232 19:0.386354 20:0.441579 22:0.0766312 23:0.516554 24:0.952796 30:0.569301 33:0.838481 34:0.106671 35:0.319075 38:0.429994 40:0.148171 41:1 44:0.835155 47:0.214418 52:0.0766312 53:0.156007 54:0.292521 55:0.377434 
-0.946275778344155 1:0.805522 2:0.539647 8:0.772234 12:0.597273 13:0.43237 14:0.741237 15:0.456343 16:0.444175 17:0.8425 19:0.42596 20:0.785349 22:0.31205 23:0.758894 24:0.965551 26:0.317662 28:0.229692 30:0.355913 33:0.588683 35:0.856696 36:0.104017 38:0.891456 39:0.331884 41:0.681979 44:0.891087 45:0.271622 46:0.156025 52:0.104017 54:0.224797 55:0.717508 
-0.5254463418377087 1:0.493312 2:0.60836 3:0.263289 7:0.548968 9:0.409354 10:0.489362 12:0.502557 14:0.612305 15:0.407118 16:0.519132 17:0.602911 19:0.462479 20:0.441579 22:0.378026 23:0.667362 24:0.359618 25:0.423793 30:0.629309 33:0.29278 35:0.510376 38:0.597273 40:0.730934 41:0.469816 44:0.675326 47:0.352577 49:0.241374 52:0.126009 53:0.25653 54:0.369393 55:0.85198 
-0.4686045453169797 1:0.696165 2:0.365791 6:0.269577 7:0.343201 8:0.719656 12:0.85412 14:0.538453 15:0.484849 16:0.324549 17:0.676864 19:0.386884 20:0.768059 23:0.603725 24:0.683638 25:0.478548 30:0.355913 31:0.435041 33:0.29278 35:0.856696 36:0.284578 38:0.747908 41:0.519339 44:0.777769 50:0.35644 54:0.3847 55:0.717508 
-0.3457665281299563 1:0.493312 2:0.479485 3:0.217935 4:0.293532 6:0.197609 7:0.343201 8:0.719656 12:0.314186 14:0.578913 15:0.554972 16:0.324549 17:0.8425 19:0.610742 20:0.768059 22:0.208605 24:0.575227 30:0.355913 33:0.55658 35:0.929702 36:0.312908 38:0.747908 41:0.681979 44:0.650717 52:0.104303 54:0.609274 55:0.603725 
-1.420324137218082 1:0.422084 2:0.700864 7:0.816977 10:0.201527 12:0.314186 14:0.612305 15:0.375489 16:0.573852 17:0.696232 18:0.47055 19:0.665642 20:0.441579 22:0.103784 23:0.758894 24:0.359618 30:0.915375 33:0.468317 34:0.144468 35:0.671341 36:0.311353 38:0.429994 41:0.590568 44:0.769356 46:0.155677 48:0.216409 49:0.198803 52:0.207569 54:0.37457 55:0.603725 
-0.7712724836136542 1:0.545311 2:0.661729 7:0.835369 8:1 12:0.314186 13:0.449052 14:0.578913 15:0.479173 16:0.573852 17:0.8425 19:0.454143 20:0.648744 22:0.10803 23:0.377434 28:0.238554 30:0.4871 33:0.468317 34:0.150378 35:0.856696 38:0.915458 41:0.293718 44:0.834604 46:0.162045 47:0.604546 49:0.206936 52:0.10803 54:0.293125 55:0.603725 
-2 1:0.696165 2:0.597184 3:0.15243 7:0.469703 8:0.594477 9:0.236995 10:0.141657 12:0.429994 14:0.416776 15:0.354752 16:0.682858 17:0.8425 19:0.487345 20:0.768059 22:0.0729524 23:0.603725 24:0.756644 30:0.629309 32:0.184077 33:0.55658 35:0.720245 38:0.747908 41:0.714924 42:0.11321 44:0.791645 49:0.139743 54:0.204079 55:0.794131 
-2 2:0.635085 7:0.690063 8:0.719656 12:0.429994 14:0.538453 15:0.355638 16:0.573852 17:0.8425 19:0.261247 20:0.441579 22:0.125551 23:0.794131 24:0.359618 30:0.847237 33:0.55658 34:0.174767 35:0.929702 38:0.55553 41:0.681979 42:0.194835 44:0.531136 46:0.376653 53:0.255599 54:0.26514 55:0.377434 
-0.647521474559397 1:0.493312 2:0.49124 6:0.19985 7:0.774706 8:0.719656 12:0.314186 14:0.416776 15:0.558458 16:0.682858 17:1 19:0.394409 20:0.768059 21:0.284264 22:0.105485 23:0.377434 30:0.355913 33:0.55658 34:0.146836 35:0.856696 38:0.747908 39:0.336571 41:0.681979 42:0.163697 44:0.620732 51:0.249268 52:0.105485 53:0.214749 54:0.545334 
-0.05784227326482054 1:0.696165 2:0.461334 5:0.310605 7:0.606833 8:0.522776 12:0.597273 14:0.578913 15:0.409855 16:0.682858 17:0.299857 19:0.412363 20:0.441579 23:0.918694 24:0.856056 30:0.355913 32:0.593724 33:0.517681 35:0.510376 38:0.597273 44:0.805213 46:0.352952 48:0.245322 49:0.225364 52:0.117651 54:0.250496 55:0.876359 
-0.05910383265289569 1:0.545311 2:0.345174 4:0.727678 5:0.682642 7:0.548968 8:0.404641 12:0.597273 14:0.416776 15:0.507824 16:0.682858 17:0.676864 19:0.318351 20:0.322652 22:0.25857 23:0.377434 24:0.492171 28:0.57098 30:0.569301 33:0.29278 34:0.719861 35:0.720245 36:0.25857 41:0.519339 44:0.218689 46:0.387856 52:0.25857 53:0.526402 54:0.594183 
-2 1:0.696165 2:0.550947 7:0.796874 8:0.295662 12:0.631724 14:0.487108 15:0.472033 16:0.682858 17:0.299857 19:0.443942 20:0.516097 23:0.667362 24:0.756644 25:0.190497 26:0.17298 30:0.883886 33:0.55658 35:0.641553 36:0.0566413 38:0.747908 41:0.519339 44:0.975396 46:0.0849619 48:0.118107 54:0.367578 55:0.85198 
-0.3020317843923766 1:0.545311 2:0.316883 3:0.521154 5:0.329244 7:0.469703 8:0.522776 10:0.242161 12:0.429994 14:0.741237 15:0.479495 16:0.573852 17:0.696232 19:0.423996 20:0.322652 22:0.124711 23:0.794131 24:0.811763 30:0.569301 33:0.55658 35:0.671341 39:0.397912 41:0.40198 44:0.75987 51:0.294698 54:0.405552 55:0.85198 
-0.4804673353407194 2:0.280062 3:0.397924 6:0.360811 7:0.343201 8:1 11:0.399065 12:0.502557 14:0.741237 15:0.493014 16:0.652559 19:0.59331 20:0.768059 21:0.513212 22:0.190444 23:0.377434 30:0.4871 33:0.588683 35:0.856696 38:0.820617 44:0.63884 53:0.775419 54:0.40668 55:0.516554 
-2 1:0.422084 2:0.483882 4:0.340448 5:0.319378 7:0.774706 8:0.734257 10:0.234904 12:0.597273 14:0.538453 15:0.296523 16:0.573852 17:0.299857 19:0.548508 20:1 22:0.241947 23:0.758894 24:0.683638 30:0.715622 32:0.305247 33:0.639816 34:0.168396 35:0.510376 36:0.120974 38:1 41:0.293718 44:0.646838 49:0.23173 52:0.241947 54:0.362198 55:0.667362 
-1.450446989944096 1:0.422084 2:0.515915 7:0.469703 8:0.772234 12:0.502557 14:0.416776 15:0.430996 16:0.847682 19:0.477605 20:0.768059 21:0.167345 22:0.0620986 23:0.667362 24:0.359618 30:0.629309 33:0.55658 35:0.671341 36:0.124197 38:0.891456 42:0.0963672 44:0.931315 52:0.124197 54:0.281774 55:0.603725 
-0.7979084887283012 1:0.696165 2:0.1916 7:0.690063 8:0.594477 12:0.429994 13:0.537204 14:0.578913 15:0.596932 16:0.324549 17:0.299857 19:0.431189 20:0.516097 23:0.937333 24:0.856056 25:0.434652 30:0.847237 34:0.179898 35:0.319075 38:0.429994 44:0.673742 50:0.323745 54:0.446319 55:0.717508 
-0.9918936831190311 1:0.422084 2:0.497519 5:0.228521 7:0.65243 8:0.646113 12:1 14:0.578913 15:0.357234 16:0.652559 19:0.46317 20:0.322652 22:0.086559 23:0.918694 24:0.63586 30:0.929602 33:0.639816 34:0.12049 36:0.086559 37:0.155829 38:0.429994 44:0.844716 46:0.129838 49:0.165807 52:0.173118 53:0.176218 54:0.339979 55:0.898468 
-0.5244396776106016 1:0.805522 2:0.403893 6:0.244498 7:0.469703 8:0.295662 12:0.502557 14:0.578913 15:0.267746 16:0.324549 17:0.771204 18:0.292555 19:0.274521 20:0.570498 21:0.34777 22:0.129052 23:0.794131 24:0.965551 27:0.255042 30:0.4871 33:0.29278 35:0.913785 37:0.232326 38:0.502557 39:0.411762 41:0.681979 42:0.200267 43:0.330215 44:0.688184 52:0.129052 53:0.262725 54:0.221437 55:0.85198 
-0.02766964918471985 2:0.369557 7:1 8:0.404641 12:1 15:0.366787 16:0.519132 19:0.534784 21:0.387693 23:0.794131 24:0.359618 30:0.77778 33:0.468317 35:0.510376 36:0.143866 38:0.429994 41:0.469816 44:0.593004 45:0.375682 47:0.805087 52:0.287732 53:0.58577 54:0.0547107 55:0.603725 
-0.1077426399089544 1:0.422084 2:0.397103 3:0.293807 7:0.722104 10:0.546084 12:0.55553 14:0.578913 15:0.468982 16:0.519132 17:0.299857 18:0.318767 19:0.313839 21:0.37893 22:0.140614 24:0.965551 25:0.472915 30:0.715622 33:0.468317 35:0.319075 38:0.314186 41:0.293718 42:0.436422 44:0.612218 51:0.332279 52:0.140614 53:0.286265 54:0.290633 55:0.717508 
-0.7973487906421277 1:0.545311 2:0.518327 7:0.722104 8:0.522776 12:0.631724 14:0.578913 15:0.343608 16:0.847682 17:0.410382 19:0.424229 20:0.441579 21:0.632673 23:0.667362 28:0.518433 30:0.4871 33:0.517681 35:0.671341 36:0.469548 38:0.597273 41:0.519339 43:0.600737 44:0.26391 52:0.234774 54:0.107414 55:0.603725 
-2 1:0.938582 2:0.643109 7:0.65243 8:0.62208 10:0.495912 12:0.429994 14:0.538453 15:0.305686 16:0.519132 17:0.410382 18:0.28948 19:0.383697 20:0.785349 23:0.717508 24:0.952796 33:0.468317 35:0.319075 38:0.747908 41:0.558362 44:0.510937 53:0.259964 54:0.357029 55:0.876359 
-0.5948618299637558 1:0.620103 2:0.61352 4:0.535443 7:0.852317 10:0.369447 11:0.398684 12:0.794647 13:0.79087 14:0.741237 15:0.564372 16:0.847682 17:0.8425 18:0.431317 19:0.73491 20:0.516097 22:0.190262 23:0.377434 24:0.359618 27:0.376012 30:0.676596 33:0.838481 35:0.436684 38:0.314186 41:0.92053 44:0.529061 52:0.190262 53:0.387339 54:0.583743 55:0.516554 
-0.4411428737592005 1:0.620103 2:0.522782 5:0.369337 7:0.690063 8:0.522776 9:0.454474 11:0.293146 12:0.314186 14:0.416776 15:0.619659 16:0.987707 17:0.8425 19:0.58281 21:0.376997 22:0.139897 23:0.918694 24:0.683638 27:0.276476 30:0.847237 32:0.352995 33:1 35:0.856696 41:0.92053 42:0.434196 44:0.790742 45:0.365318 47:0.391439 48:0.29171 52:0.139897 54:0.349871 55:0.667362 
-1.172670637205829 1:0.493312 2:0.526322 3:0.43877 7:0.816977 8:0.838896 9:0.682189 12:0.314186 14:0.578913 16:0.847682 17:0.8425 19:0.319315 21:0.565893 22:0.419986 23:0.717508 24:0.575227 30:0.826389 33:0.838481 35:0.929702 36:0.209993 38:0.686595 39:0.670021 41:0.681979 44:0.414541 52:0.629979 54:0.409892 55:0.667362 
-1.428106564932343 1:0.422084 2:0.47163 3:0.176031 4:0.237092 7:0.852317 8:0.594477 12:0.429994 15:0.428254 16:0.847682 17:0.410382 19:0.394257 20:0.768059 22:0.252742 23:0.918694 24:0.575227 30:0.847237 33:0.55658 35:0.319075 36:0.0842474 38:0.661056 41:0.519339 44:0.822149 52:0.168495 53:0.171512 54:0.33607 55:0.516554 
-0.4837849226025574 1:0.545311 2:0.545551 3:0.507396 5:0.320553 6:0.230037 7:0.774706 8:0.62208 9:0.394443 12:0.597273 14:0.827864 15:0.319609 16:0.444175 17:0.8425 19:0.664491 20:0.516097 23:0.667362 24:0.856056 26:0.370807 30:0.4871 32:0.306369 33:0.55658 35:0.720245 36:0.121419 38:0.808058 39:0.387408 40:0.23477 41:0.714924 43:0.310684 44:0.807135 54:0.301156 55:0.824811 
-1.050676956265955 1:0.493312 2:0.535927 3:0.222672 7:0.774706 8:0.772234 9:0.346204 12:0.780261 14:0.612305 15:0.398753 17:0.410382 18:0.483177 19:0.451835 20:0.516097 24:0.63586 30:0.929602 33:0.55658 34:0.148345 35:0.792401 38:0.502557 41:0.40198 42:0.165379 44:0.748192 46:0.159854 47:0.298186 48:0.222216 54:0.267396 55:0.516554 
-1.344937362731917 1:0.912873 2:0.565887 7:0.796874 8:0.404641 10:0.263287 12:0.794647 14:0.578913 15:0.262643 17:0.8425 19:0.393296 20:0.768059 22:0.406772 23:0.717508 24:0.909553 27:0.267965 28:0.299414 30:0.676596 33:0.400697 35:0.436684 36:0.271181 38:0.314186 39:0.432626 41:0.888055 44:0.75543 46:0.203386 48:0.28273 49:0.259729 52:0.271181 53:0.276038 54:0.15444 55:0.758894 
-0.2565135085881755 1:0.308407 2:0.556101 7:0.343201 8:0.562058 10:0.421177 12:0.85412 14:0.538453 15:0.516192 16:0.652559 17:0.410382 18:0.245855 19:0.406558 20:0.887417 23:1 27:0.214331 30:0.355913 33:0.29278 35:0.606566 38:1 41:0.293718 42:0.168299 44:0.786668 47:0.303452 52:0.108451 54:0.25341 55:0.954615 
-1.589598676255802 2:0.487659 7:0.932997 8:0.838896 10:0.341567 12:0.85412 14:0.578913 15:0.459186 16:0.324549 17:0.570032 19:0.398366 20:0.648744 23:0.758894 24:0.575227 27:0.173818 30:0.955604 31:0.268909 33:0.400697 35:0.929702 36:0.0879521 38:0.631724 39:0.280627 42:0.136488 44:0.815721 48:0.183396 51:0.415671 52:0.0879521 54:0.372565 55:0.516554 
-0.2864073319827342 2:0.327871 3:0.424737 7:0.722104 10:0.394719 12:0.429994 14:0.741237 15:0.173806 16:0.847682 17:0.8425 19:0.445881 20:0.768059 22:0.203277 23:0.898468 24:0.359618 30:0.847237 33:0.838481 35:0.436684 40:0.393047 41:0.40198 44:0.278079 49:0.778769 53:0.413835 54:0.304359 55:0.516554 
-1.828032176897148 1:0.308407 2:0.733276 7:0.816977 8:0.404641 10:0.343485 11:0.370667 12:0.794647 13:0.367646 14:0.416776 15:0.573158 16:1 17:0.630906 19:0.429264 20:0.648744 22:0.088446 23:0.603725 30:0.569301 33:0.83072 35:0.720245 38:0.314186 41:0.519339 44:0.864262 46:0.265338 49:0.169422 52:0.088446 53:0.18006 54:0.484533 55:0.516554 
-0.3742922805870771 1:1 2:0.479366 5:0.189713 7:0.921474 8:0.295662 12:0.502557 14:0.538453 15:0.43781 16:0.444175 17:0.65528 19:0.361014 22:0.143718 23:0.918694 24:0.977626 30:0.4871 33:0.55658 35:0.319075 38:0.55553 41:1 44:0.847453 52:0.0718592 54:0.318744 55:0.898468 
-2 1:0.545311 2:0.543923 3:0.149742 6:0.135776 7:0.343201 8:0.734257 12:0.85412 14:0.416776 15:0.522561 16:0.847682 17:0.8425 19:0.469144 20:0.887417 23:0.918694 24:0.977626 29:0.159715 30:0.355913 33:0.55658 35:0.913785 36:0.0716656 38:1 41:0.714924 44:0.782999 52:0.143331 54:0.370866 55:0.898468 
-1.840728464936808 1:0.817114 2:0.494956 6:0.185454 7:0.469703 8:1 12:0.55553 13:0.406889 14:0.741237 15:0.526883 16:0.682858 17:0.8425 18:0.221905 19:0.487111 20:0.648744 22:0.195774 23:0.377434 24:0.359618 30:0.4871 32:0.493985 33:0.660891 35:0.856696 38:0.915458 41:0.888055 44:0.926092 45:0.255615 46:0.14683 47:0.273892 48:0.408222 54:0.371303 
-0.1600917503109101 1:1 2:0.356816 7:0.690063 8:0.838896 10:0.463334 11:1 12:0.597273 13:0.991852 14:0.416776 15:0.0203855 16:0.324549 17:0.8425 18:0.540926 19:0.404663 20:0.648744 22:0.238613 23:0.937333 24:1 27:0.471567 30:0.4871 35:0.929702 38:0.631724 40:0.461372 41:0.888055 42:0.37029 44:0.368195 45:0.623098 47:0.66765 48:0.995101 51:0.563856 52:0.238613 54:0.172762 55:0.937333 
-2 1:1 2:0.531349 4:0.355119 5:0.333141 7:0.852317 8:0.719656 9:0.409933 12:0.502557 14:0.416776 15:0.397207 16:0.573852 17:0.696232 19:0.359287 20:0.678866 22:0.126187 23:0.717508 24:1 27:0.249381 30:0.929602 33:0.468317 35:0.436684 38:0.686595 39:0.402621 41:0.641865 42:0.195822 44:0.820989 47:0.353076 54:0.316457 55:0.667362 
-2 1:0.493312 2:0.292481 7:0.606833 8:0.719656 11:0.309433 12:0.661056 14:0.612305 15:0.517841 16:0.519132 17:0.8425 19:0.646954 20:0.516097 22:0.295339 23:0.937333 29:0.329099 30:0.929602 33:0.468317 35:0.929702 36:0.590679 38:0.686595 41:0.590568 42:0.22916 44:0.578882 46:0.443009 52:0.14767 53:0.300629 54:0.348676 55:0.954615 
-2 1:0.308407 2:0.639511 3:0.182588 7:0.65243 8:0.747795 12:0.429994 14:0.416776 15:0.52813 16:0.324549 17:0.630906 19:0.400721 20:0.768059 21:0.235488 23:0.603725 24:0.575227 30:0.355913 33:0.517681 35:0.720245 38:0.808058 41:0.469816 44:0.840581 52:0.174771 54:0.338543 55:0.603725 
-2 1:0.805522 2:0.464823 5:0.272087 8:0.522776 12:0.429994 14:0.578913 15:0.510687 16:0.573852 17:0.805096 18:0.233635 19:0.589909 20:0.516097 21:0.27773 23:0.667362 24:0.952796 30:0.4871 33:0.55658 34:0.143461 35:0.606566 36:0.103061 38:0.429994 41:0.293718 42:0.159934 44:0.746969 52:0.103061 54:0.412864 55:0.717508 
-0.5358383280850083 1:0.938582 2:0.469655 4:0.515254 7:0.774706 8:0.772234 9:0.297393 10:0.355517 12:0.314186 14:0.578913 15:0.436465 16:0.324549 19:0.412713 20:0.768059 23:0.516554 24:0.965551 29:0.408033 30:0.676596 33:0.588683 35:0.671341 38:0.747908 41:0.469816 44:0.865725 45:0.239052 47:0.256145 52:0.0915442 54:0.329241 55:0.794131 
-0.7092056523021841 1:0.493312 2:0.609693 5:0.302133 7:0.774706 12:0.85412 14:0.665489 15:0.404118 16:0.847682 17:1 19:0.408058 20:0.322652 21:0.308399 23:0.377434 24:0.359618 30:0.4871 33:0.838481 35:0.671341 36:0.114442 41:0.519339 42:0.177595 44:0.820285 46:0.171663 50:0.286682 54:0.289304 55:0.667362 
-0.03959742528270201 1:0.422084 2:0.631203 3:0.32743 7:0.343201 8:0.646113 12:0.314186 14:0.538453 15:0.430103 16:0.652559 17:0.530193 19:0.450894 20:0.768059 22:0.783532 24:0.856056 27:0.619392 29:0.349238 30:0.715622 33:0.639816 35:0.740855 36:0.156706 38:0.429994 39:1 41:0.40198 44:0.65739 52:0.626825 54:0.459663 55:0.603725 
-0.463915095192443 1:0.912873 2:0.609281 3:0.356365 7:0.932997 9:0.554067 10:0.331179 12:0.631724 14:0.538453 15:0.510899 16:0.324549 17:0.65528 19:0.244149 20:0.441579 23:0.918694 24:0.856056 25:0.57361 30:1 33:0.517681 35:0.319075 38:0.429994 41:1 42:0.264673 44:0.323093 47:0.477218 52:0.170554 53:0.347217 54:0.102317 55:0.876359 
-2 1:0.545311 2:0.415538 7:0.65243 8:0.734257 10:0.150683 11:0.162607 12:1 14:0.416776 15:0.623491 16:0.847682 17:0.410382 19:0.448831 20:1 23:0.918694 24:0.63586 33:0.55658 34:0.10802 35:0.510376 36:0.0776005 38:1 41:0.293718 42:0.120424 44:0.76562 45:0.202641 52:0.0776005 53:0.315961 54:0.474034 55:0.898468 
-1.71382200538398 1:0.493312 2:0.479691 7:0.690063 8:0.295662 10:0.237972 12:0.85412 14:0.487108 15:0.343243 17:0.771204 19:0.504191 20:0.705093 22:0.122554 23:0.937333 24:0.575227 28:0.270625 30:0.748849 33:0.400697 35:0.740855 38:0.429994 41:0.469816 43:0.313588 44:0.632596 46:0.18383 52:0.245107 54:0.180805 55:0.717508 
-0.09447110277776705 1:0.493312 2:0.697111 3:0.21459 7:0.774706 8:0.472926 12:0.314186 14:0.827864 15:0.47224 16:0.573852 17:0.602911 19:0.509072 22:0.308104 23:0.667362 24:0.492171 28:0.226787 30:0.929602 33:0.55658 35:0.510376 36:0.102701 38:0.429994 41:0.681979 43:0.262791 44:0.791457 46:0.154052 52:0.205403 54:0.260055 55:0.516554 
-0.8154429860128545 1:0.493312 2:0.441251 3:0.336609 4:0.45337 7:0.774706 8:0.295662 10:0.625638 12:0.729504 15:0.699366 16:0.789967 17:0.696232 18:0.365205 19:0.697036 20:0.441579 21:0.434132 23:0.794131 24:0.359618 26:0.491989 30:0.929602 32:0.406493 33:0.55658 35:0.319075 36:0.161099 38:0.429994 41:0.519339 42:1 44:0.582763 51:0.380686 52:0.161099 54:0.559428 55:0.954615 
-1.693538767685018 1:0.805522 2:0.674507 7:0.469703 8:0.522776 12:0.729504 14:0.538453 15:0.489213 16:0.324549 17:0.602911 19:0.472661 20:0.768059 22:0.0969998 23:0.758894 24:0.952796 30:0.355913 33:0.29278 35:0.606566 36:0.194 38:0.747908 39:0.309495 41:0.681979 42:0.150528 44:0.86012 46:0.1455 49:0.185807 50:0.242989 54:0.427308 55:0.876359 
-0.87591737939559 1:0.696165 2:0.601782 7:0.722104 8:0.295662 12:0.631724 14:0.538453 15:0.473534 16:0.519132 17:0.479636 19:0.514397 20:0.648744 21:0.347995 23:0.794131 24:0.756644 27:0.255207 30:0.847237 32:0.651678 33:0.639816 34:0.179756 35:0.510376 37:0.232476 38:0.502557 41:0.714924 43:0.660856 44:0.760018 47:0.361325 54:0.214791 55:0.85198 
-0.8768650426161212 1:0.545311 2:1 8:0.793834 12:0.429994 15:0.28226 16:0.682858 17:0.8425 19:0.399485 20:0.516097 21:0.46992 22:0.174379 23:0.985814 24:0.359618 30:0.4871 33:0.400697 34:0.242736 35:0.913785 36:0.174379 38:0.747908 41:0.590568 42:0.270609 44:0.452539 52:0.523137 54:0.380663 55:1 
-1.464886197855377 1:0.493312 2:0.316894 3:0.255777 7:0.343201 8:0.772234 10:0.2377 12:0.55553 14:0.416776 15:0.506963 16:0.324549 19:0.77823 20:0.768059 21:0.989645 22:0.122413 23:0.516554 24:0.977626 30:0.676596 33:0.55658 34:0.340799 35:0.856696 36:0.36724 38:0.747908 39:0.390582 41:0.40198 42:0.189966 44:0.550958 51:0.289269 52:0.489653 54:0.492689 55:0.794131 
-2 1:0.545311 2:0.454311 3:0.337549 6:0.153033 7:0.65243 8:0.594477 12:0.597273 14:0.741237 15:0.43621 16:0.444175 17:0.299857 19:0.480394 20:0.516097 23:0.794131 24:0.856056 28:0.178368 30:0.355913 33:0.55658 35:0.510376 36:0.0807745 38:0.429994 41:0.293718 44:0.86835 52:0.0807745 54:0.399025 55:0.824811 
-0.07292544822769216 1:0.938582 2:0.33734 6:0.520891 7:0.469703 8:0.562058 12:0.502557 13:0.571421 14:0.827864 15:0.23347 16:0.519132 17:0.410382 18:0.311636 19:0.411011 20:0.801283 22:0.274938 23:0.667362 24:0.965551 30:0.569301 33:0.660891 35:0.606566 38:0.820617 39:0.438619 41:0.558362 43:0.703507 44:0.741723 46:0.61861 54:0.177832 55:0.717508 
-1.994125679410216 1:0.422084 2:0.425618 7:0.774706 8:0.295662 12:0.502557 14:0.304528 15:0.435313 16:0.573852 17:0.8425 19:0.366589 20:0.516097 23:0.717508 24:0.952796 30:0.569301 33:0.468317 35:0.720245 38:0.429994 41:0.714924 42:0.177453 44:0.661939 52:0.11435 54:0.263712 55:0.377434 
-0.2243489817385613 1:0.493312 2:0.536286 6:0.673526 7:0.343201 8:0.719656 9:0.384964 10:0.230102 12:0.794647 14:0.578913 15:0.477548 16:0.324549 17:1 18:0.268636 19:0.436661 20:0.516097 23:0.667362 24:0.359618 30:0.847237 33:0.29278 35:0.856696 36:0.118501 37:0.213332 38:0.429994 39:0.378098 41:0.519339 43:0.909654 44:0.62419 46:0.177751 52:0.118501 54:0.496031 55:0.824811 
-2 1:0.493312 2:0.394423 7:0.343201 8:0.562058 12:0.502557 14:0.304528 15:0.538399 16:0.519132 17:0.602911 19:0.308928 20:0.768059 22:0.161451 23:0.516554 24:0.575227 29:0.179906 30:0.955604 33:0.696952 34:0.337111 35:0.510376 36:0.0807257 38:0.808058 41:0.681979 44:0.785891 46:0.242177 52:0.0807257 53:0.164343 54:0.466161 55:0.794131 
-0.4961251268148418 1:0.493312 2:0.487207 3:0.3716 7:0.469703 8:0.404641 10:0.345337 12:0.597273 13:0.739258 14:0.665489 15:0.393921 16:0.519132 17:0.299857 19:0.197399 20:0.801283 23:0.377434 24:0.492171 27:0.351474 30:0.569301 33:0.660891 35:0.319075 38:0.747908 44:0.491103 48:0.37084 52:0.177846 54:0.229761 55:0.516554 
-0.3157929403465919 1:0.805522 2:0.535845 4:0.287802 7:0.774706 8:0.295662 12:0.429994 15:0.495298 16:0.682858 17:0.410382 18:0.231834 19:0.435131 20:0.648744 23:0.758894 24:0.952796 27:0.202108 30:0.826389 33:0.400697 38:0.502557 41:0.681979 42:0.158702 44:0.873556 45:0.267052 54:0.363831 55:0.876359 
-1.071561241176322 1:0.912873 2:0.517748 3:0.242924 5:0.306939 8:0.522776 10:0.225755 12:0.794647 14:0.416776 15:0.39636 16:0.519132 17:1 19:0.286107 20:0.441579 23:0.667362 24:0.856056 30:0.569301 33:0.29278 34:0.161837 35:0.856696 36:0.116262 38:0.429994 41:1 44:0.546056 52:0.116262 54:0.269316 55:0.876359 
-0.01790714454735041 1:0.493312 2:0.458566 6:0.258726 7:0.469703 10:0.265172 11:0.286157 12:0.429994 14:0.806838 15:0.503875 16:0.652559 17:0.8425 18:0.309579 19:0.455009 20:0.516097 23:0.603725 24:0.359618 27:0.539768 30:0.569301 33:0.468317 35:0.856696 37:0.245846 40:0.264049 41:0.681979 44:0.716825 45:0.713215 50:0.342093 54:0.231458 55:0.516554 
-0.749660484309827 1:0.422084 2:0.388488 3:0.224007 6:0.203115 7:0.469703 8:0.838896 11:0.224649 12:0.314186 14:0.578913 15:0.270227 16:0.324549 17:0.530193 19:0.352488 20:0.82983 22:0.107209 23:0.603725 24:1 30:0.629309 32:0.541028 33:0.29278 35:0.856696 38:0.747908 40:0.207294 43:0.274324 44:0.667549 50:0.268562 52:0.214417 54:0.323195 55:0.717508 
-0.2892713655440404 1:0.308407 2:0.597734 4:0.339965 7:0.774706 8:0.594477 11:0.253133 12:0.429994 14:0.827864 15:0.425421 16:0.444175 17:0.8425 19:0.531179 20:0.322652 23:0.937333 30:0.929602 33:0.55658 34:0.336313 35:0.720245 38:0.429994 41:0.590568 44:0.75771 49:0.231401 52:0.120802 54:0.164668 55:0.758894 
-0.2833024327840253 1:0.938582 2:0.551713 3:0.343595 7:0.932997 11:0.34458 12:0.631724 14:0.578913 15:0.49929 16:0.444175 17:0.696232 19:0.424409 20:0.678866 22:0.164443 23:0.603725 24:0.952796 30:0.826389 32:0.41493 34:0.228905 37:0.29604 41:0.92053 44:0.548302 45:0.429415 49:0.314997 54:0.360854 55:0.717508 
-0.4957969501160584 1:0.422084 2:0.529052 7:0.690063 8:0.295662 11:0.25955 12:0.55553 14:0.487108 15:0.465865 16:0.324549 17:0.530193 18:0.280795 19:0.440121 20:0.897207 22:0.123864 23:0.937333 24:0.359618 28:0.273519 30:0.748849 33:0.400697 35:0.740855 38:0.429994 40:0.239498 44:0.88529 45:0.32345 46:0.185796 54:0.312512 55:0.937333 
-0.7355424598785187 1:0.493312 2:0.471133 6:0.196807 7:0.343201 8:0.703812 10:0.201711 11:0.435346 12:0.55553 14:1 15:0.462398 16:0.444175 17:0.602911 19:0.435818 20:0.897207 23:0.667362 24:0.359618 26:0.317243 27:0.410589 28:0.229388 30:0.748849 33:0.679802 35:0.510376 38:0.915458 40:0.200857 41:0.681979 43:0.531609 44:0.740095 51:0.245472 53:0.211479 54:0.24988 55:0.516554 
-2 1:0.545311 2:0.709668 3:0.283337 7:0.796874 8:0.594477 10:0.263312 11:0.284149 14:0.578913 15:0.536445 16:0.324549 17:0.8425 19:0.499553 20:0.801283 23:0.516554 24:0.977626 30:0.929602 31:0.414601 33:0.29278 35:0.720245 36:0.135603 37:0.488242 38:0.747908 41:0.714924 44:0.705412 52:0.135603 53:0.276064 54:0.356846 55:0.794131 
-0.1765004053360238 1:0.422084 2:0.730769 6:0.208774 7:0.606833 8:0.594477 11:0.461817 12:0.429994 14:1 15:0.350052 16:0.444175 17:0.299857 19:0.571213 20:0.887417 23:0.918694 24:0.575227 30:0.929602 31:0.336918 33:0.679802 35:0.510376 38:0.661056 41:0.293718 44:0.804273 49:0.211084 51:0.260398 54:0.234514 55:0.516554 
-2 1:0.912873 2:0.453475 6:0.476254 7:0.722104 8:0.793834 12:0.429994 14:0.416776 15:0.615888 16:0.444175 17:0.696232 19:0.4094 20:0.768059 23:0.667362 24:0.856056 30:0.715622 33:0.55658 35:0.671341 38:0.747908 41:1 44:0.668582 49:0.240762 51:0.297009 53:0.511759 54:0.562898 55:0.717508 
-1.11828911738475 1:0.493312 2:0.626224 7:0.469703 8:0.594477 12:1 14:0.304528 15:0.47428 16:0.324549 17:0.771204 19:0.356843 20:0.678866 22:0.208449 23:0.758894 24:0.63586 29:0.232276 30:0.355913 32:0.262984 33:0.29278 35:0.720245 38:0.502557 41:0.681979 44:0.800845 46:0.312673 53:0.212182 54:0.283627 55:0.516554 
-0.06269254660299844 1:0.696165 2:0.693757 4:0.351771 7:0.774706 8:0.404641 10:0.242717 11:0.261924 12:0.631724 14:0.538453 15:0.42972 16:0.444175 17:0.410382 19:0.503735 20:0.768059 22:0.124997 23:0.603725 24:0.683638 29:0.27857 30:0.77778 33:0.468317 37:0.225027 38:0.429994 41:0.293718 44:0.772272 46:0.187496 50:0.313123 53:0.254471 54:0.363315 55:0.717508 
-0.3182350061305078 1:0.308407 2:0.414113 7:0.548968 8:0.522776 12:0.631724 14:0.538453 15:0.509641 16:0.847682 17:0.530193 18:0.266573 19:0.393697 20:0.322652 21:0.316885 22:0.11759 23:0.377434 24:0.575227 28:0.259665 33:0.55658 35:0.913785 38:0.597273 41:0.40198 42:0.182482 43:0.300889 44:0.778184 49:0.225249 54:0.226876 55:0.667362 
-1.08155835959956 1:0.422084 2:0.353885 6:0.211056 7:0.343201 8:0.703812 10:0.432629 12:0.631724 14:0.416776 15:0.321081 16:0.573852 18:0.25254 19:0.603004 20:0.897207 23:0.937333 24:0.924904 29:0.248268 30:0.847237 33:0.400697 34:0.310138 35:0.436684 36:0.1114 38:0.915458 44:0.682886 45:0.290903 52:0.1114 54:0.409289 55:1 
-0.3660402248477904 1:0.308407 2:0.546004 3:0.220748 6:0.20016 7:0.921474 8:0.295662 12:0.661056 14:0.578913 15:0.465173 16:0.573852 17:0.299857 19:0.488613 20:0.801283 22:0.316947 23:0.516554 24:0.359618 30:0.847237 33:0.400697 35:0.436684 38:0.429994 41:0.519339 44:0.819359 54:0.259244 55:0.758894 
-2 1:0.422084 2:0.335279 4:0.317596 7:0.852317 8:0.562058 12:0.502557 14:0.665489 15:0.499839 16:0.847682 17:0.696232 19:0.461665 20:0.897207 22:0.112854 23:0.516554 24:0.834991 27:0.223031 30:0.569301 33:0.838481 35:0.641553 36:0.112854 37:0.203166 38:0.915458 41:0.714924 43:0.288768 44:0.784447 46:0.16928 50:0.282703 53:0.459498 54:0.3141 55:0.377434 
-0.9902334014633513 1:0.938582 2:0.496282 4:0.465493 7:0.469703 8:0.404641 12:0.794647 14:0.741237 15:0.378001 16:0.847682 17:0.410382 19:0.567239 20:0.570498 23:0.970726 24:0.952796 30:0.355913 32:0.417362 33:0.838481 34:0.230246 35:0.606566 36:0.165407 38:0.502557 41:0.558362 43:0.42324 44:0.661623 48:0.344902 54:0.131072 55:1 
-0.6284510064325873 1:0.308407 2:0.658624 7:0.606833 8:0.295662 11:0.326993 12:0.794647 14:0.416776 15:0.262736 16:0.682858 17:0.771204 19:0.486641 20:0.322652 22:0.46815 23:0.794131 24:0.575227 27:0.308399 30:0.847237 33:0.468317 35:0.913785 40:0.603463 41:0.469816 42:0.242165 44:0.80083 46:0.702224 48:0.325391 52:0.15605 54:0.168367 55:0.794131 
-1.094348207082154 1:0.912873 2:0.606711 3:0.563493 6:0.255469 7:0.606833 8:0.295662 12:0.794647 14:0.538453 15:0.392355 16:0.324549 17:0.696232 19:0.500056 20:0.441579 22:0.134842 23:0.667362 24:0.756644 29:0.300511 30:0.847237 33:0.468317 35:0.436684 38:0.314186 40:0.260725 41:1 44:0.759862 45:0.352118 46:0.202263 51:0.318639 54:0.3002 55:0.85198 
-2 1:0.545311 2:0.437891 3:0.134153 4:0.180688 5:0.169505 7:0.774706 8:0.772234 9:0.208578 12:0.631724 14:0.827864 15:0.471481 16:0.616971 17:0.676864 19:0.49487 20:0.516097 23:1 24:1 25:0.215935 30:0.847237 33:0.660891 35:1 38:0.747908 41:0.519339 44:0.951623 47:0.179649 54:0.361892 55:0.937333 
-0.04934535110446981 1:0.308407 2:0.735265 7:0.469703 8:0.646113 10:0.223411 11:0.482181 12:0.780261 13:0.478252 14:0.416776 15:0.444304 16:0.324549 17:0.771204 18:0.260824 19:0.294946 20:0.768059 22:0.115055 23:0.667362 24:0.359618 26:0.351372 27:0.227381 30:0.355913 33:0.468317 35:0.740855 37:0.207128 38:0.429994 40:0.222465 41:0.293718 44:0.812391 46:0.172582 47:0.321928 53:0.23423 54:0.327534 55:0.603725 
-0.2314733576309348 1:0.422084 2:0.668984 6:0.244989 7:0.469703 8:0.734257 10:0.251093 11:0.270963 12:0.631724 14:0.304528 15:0.515191 16:0.324549 17:0.8425 18:0.293142 19:0.340394 20:0.516097 22:0.258621 23:0.516554 24:0.359618 30:0.355913 33:0.29278 34:0.180001 35:0.913785 38:0.429994 40:0.500059 41:0.590568 44:0.669313 46:0.387932 48:0.269635 49:0.2477 51:0.305568 52:0.129311 54:0.181845 55:0.603725 
-0.348014204214458 1:0.545311 2:0.428453 4:0.287039 5:0.269274 7:0.343201 8:0.772234 12:0.429994 14:0.304528 15:0.525448 16:0.573852 17:0.696232 19:0.423465 20:0.441579 22:0.101995 23:0.985814 24:0.359618 30:0.569301 33:0.55658 35:0.671341 38:0.891456 41:0.40198 44:0.931151 45:0.266344 46:0.305986 48:0.425357 54:0.35472 55:1 
-1.208411825647175 1:0.545311 2:0.381903 6:0.198973 7:0.548968 8:0.747795 12:0.631724 14:0.578913 15:0.366982 16:0.573852 17:0.8425 19:0.443603 20:1 23:0.377434 30:0.569301 35:0.436684 38:0.808058 41:0.469816 43:0.26873 44:0.836165 45:0.274249 52:0.210045 54:0.351581 55:0.516554 
-0.3447930381125711 1:0.493312 2:0.483044 4:0.321905 7:0.469703 8:1 9:0.371592 12:1 14:0.416776 15:0.523182 16:0.519132 17:0.630906 19:0.370173 20:0.897207 22:0.114384 23:1 24:1 26:0.349325 33:0.400697 35:1 36:0.114384 38:0.915458 41:0.293718 42:0.177506 44:0.864325 45:0.298696 46:0.171577 49:0.219108 54:0.45629 55:0.937333 
-1.223794644621852 1:0.308407 2:0.481392 7:0.469703 8:0.772234 12:0.429994 14:0.538453 15:0.496837 16:0.652559 17:0.630906 19:0.491159 20:0.82983 22:0.124167 23:1 30:0.569301 32:0.313303 33:0.468317 35:1 38:0.891456 40:0.240083 41:0.519339 44:0.691865 46:0.18625 47:0.347424 54:0.386483 55:0.954615 
-2 1:0.308407 2:0.721394 7:0.796874 8:0.646113 10:0.215091 12:0.631724 14:0.741237 15:0.381579 16:0.444175 17:0.696232 19:0.56034 20:0.785349 23:0.516554 24:0.359618 28:0.244604 30:0.929602 33:0.55658 35:0.436684 36:0.11077 38:0.631724 41:0.519339 43:0.283437 44:0.728579 48:0.230975 49:0.212184 50:0.277484 54:0.223829 55:0.516554 
-2 1:0.938582 2:0.595913 7:0.774706 8:1 9:0.338638 12:0.597273 14:0.416776 15:0.510118 16:0.682858 17:0.8425 19:0.384043 20:0.768059 21:0.280909 22:0.312721 23:0.758894 24:0.811763 30:0.929602 33:0.55658 35:0.856696 36:0.10424 38:1 39:0.665195 41:0.888055 42:0.161764 44:0.780958 51:0.246325 52:0.10424 54:0.340508 55:0.667362 
-2 1:0.493312 2:0.67254 7:0.921474 8:0.522776 10:0.273147 12:0.780261 14:0.578913 15:0.603991 16:0.573852 17:1 18:0.318889 19:0.456462 20:0.322652 22:0.422005 23:0.516554 24:0.575227 30:0.86631 32:0.354941 33:0.55658 35:1 41:0.681979 44:0.743417 47:0.393596 49:0.538911 51:0.332406 52:0.281336 54:0.279114 55:0.667362 
-1.624390796651098 1:0.422084 2:0.577818 3:0.242004 4:0.325949 7:0.65243 8:0.734257 12:0.597273 14:0.304528 15:0.531476 16:0.519132 17:0.8425 19:0.354336 20:0.648744 22:0.115822 23:0.985814 24:0.492171 30:0.355913 33:0.696952 34:0.161224 35:0.913785 38:0.915458 41:0.40198 43:0.296363 44:0.773243 46:0.173732 49:0.221861 54:0.300887 55:1 
-2 1:0.493312 2:0.254757 7:0.774706 8:0.404641 14:0.827864 15:0.586691 16:0.519132 17:0.696232 18:0.319015 19:0.600373 20:0.516097 23:0.603725 24:0.359618 30:1 33:0.660891 35:0.436684 36:0.140724 38:0.502557 40:0.272097 41:0.519339 44:0.705192 46:0.211085 52:0.140724 54:0.37623 55:0.603725 
-1.056626778494098 1:0.308407 2:0.552532 3:0.159742 7:0.774706 8:0.404641 11:0.1602 12:0.597273 14:0.304528 15:0.559615 16:1 18:0.173313 19:0.460264 20:0.768059 22:0.0764515 23:0.937333 24:0.575227 27:0.15109 30:0.86631 32:0.192906 33:0.400697 35:0.510376 37:0.137632 38:0.429994 40:0.147823 41:0.40198 44:0.910657 45:0.19964 54:0.368225 55:0.937333 
-2 1:0.545311 2:0.501602 5:0.263275 7:0.548968 8:0.793834 12:0.597273 14:0.578913 15:0.491936 16:0.444175 17:0.410382 19:0.551677 20:0.516097 23:0.667362 24:0.492171 30:0.847237 31:0.304898 32:0.251626 33:0.55658 34:0.138815 35:0.671341 38:0.747908 41:0.519339 44:0.737607 49:0.191023 54:0.404515 55:0.876359 
-0.2844113672405467 1:0.308407 2:0.420048 7:0.469703 8:0.562058 10:0.300784 12:0.314186 14:0.538453 15:0.409494 16:0.444175 17:0.299857 19:0.566281 20:0.613365 23:0.985814 24:0.359618 28:0.342056 30:0.8034 35:0.671341 37:0.278863 38:0.686595 41:0.40198 43:0.39636 44:0.639857 49:0.29672 53:0.630702 54:0.475194 55:0.758894 
-0.2366321032481187 1:0.545311 2:0.526401 4:0.218003 6:0.146762 7:0.796874 8:0.472926 12:0.502557 14:0.416776 15:0.486616 16:1 18:0.175608 19:0.526879 20:0.801283 23:0.985814 24:1 26:0.236573 30:0.929602 33:0.400697 38:0.747908 40:0.149782 41:0.293718 44:0.892806 48:0.161527 51:0.183052 52:0.0774643 54:0.342976 55:0.937333 
