svm_type c_svc
kernel_type rbf
gamma 0.5
nr_class 2
total_sv 719
rho 0.412131
label 1 2
probA -3.08237
probB -0.212746
nr_sv 337 382
SV
0.2782814567837141 1:0.768882 2:0.467523 3:0.342371 4:0.967048 5:0.156811 6:0.785681 7:0.332507 8:0.531047 9:0.304432 10:0.819733 12:0.674284 13:0.875938 16:0.684897 18:0.214343 19:0.697105 21:0.277431 23:0.76328 25:0.617827 27:0.239065 28:0.787378 29:0.232635 31:0.216334 32:0.605102 33:0.479371 35:0.343908 38:0.733644 39:0.487944 41:0.262345 42:0.814341 57:0.43042 58:0.287163 59:0.146131 61:0.267784 62:0.243 63:0.415129 69:0.28308 71:0.231935 75:0.253168 78:0.249933 81:0.234655 
0.5 1:0.595695 2:0.400994 3:0.430264 4:0.521394 6:0.768063 7:0.528946 8:0.617715 9:0.506259 10:0.684055 12:0.468001 13:0.657246 15:0.22678 16:0.612248 19:0.579701 21:0.221412 23:0.522126 24:0.165377 25:0.576692 28:0.465116 31:0.172652 32:0.579613 34:0.238448 35:0.539365 37:0.17852 38:0.659743 39:0.292648 42:0.580945 46:0.186334 47:0.187662 48:0.198464 51:0.247003 59:0.116625 62:0.412581 63:0.165653 67:0.407836 75:0.202048 76:0.160371 78:0.199467 82:0.25704 
0.5 1:0.38844 2:0.411278 3:0.441686 4:0.746546 5:0.319507 6:0.845035 7:0.884943 8:0.531047 9:0.364043 10:0.792816 12:0.50871 13:0.678637 15:0.289488 16:0.722469 19:0.494251 20:0.323698 21:0.282636 23:0.433814 25:0.666669 28:0.567891 29:0.237001 31:0.220394 32:0.494538 33:0.488366 35:0.849772 38:0.563198 39:0.458972 42:0.629396 48:0.253343 49:0.292584 58:0.292551 59:0.148873 60:0.232958 61:0.272809 62:0.268948 63:0.211459 66:0.319507 69:0.288392 78:0.254623 80:0.479107 82:0.328117 
0.03997920232204962 1:0.474073 2:0.530193 3:0.50469 4:0.892165 5:0.155875 6:0.869764 7:0.583999 8:0.652366 9:0.264891 10:0.911667 12:0.657519 13:0.93204 16:0.768771 17:0.211042 19:0.709299 22:0.270074 23:0.433814 25:0.797448 28:0.567891 29:0.462492 31:0.215043 32:0.362973 33:0.476508 35:0.631825 37:0.444702 38:0.827971 39:0.876529 40:0.311199 42:0.814341 47:0.233737 51:0.307648 58:0.285448 59:0.435776 60:0.227302 61:0.266185 62:0.344335 63:0.206325 67:0.126992 69:0.28139 70:0.316435 73:0.286046 79:0.239311 80:0.701211 81:0.233253 
0.5 1:0.656164 2:0.613046 3:0.259478 4:0.684056 6:0.90245 7:0.381874 8:0.440483 9:0.406689 10:0.935409 12:0.50871 13:0.633454 14:0.695273 16:0.867169 18:0.232887 19:0.4547 21:0.301433 23:0.433814 25:0.65172 26:0.265229 28:0.414251 32:0.570514 34:0.324625 35:0.457104 36:0.30932 37:0.243039 38:0.563198 39:0.597876 42:0.838821 44:0.25058 47:0.255484 48:0.540382 50:0.321964 52:0.278014 53:0.271118 57:0.233829 59:0.158774 60:0.248451 62:0.462251 64:0.274284 66:0.170378 67:0.138808 68:0.345225 73:0.15633 74:0.271349 76:0.218331 81:0.254956 
0.4851876220810079 1:0.951406 2:0.387274 3:0.499468 4:0.80091 6:0.72812 7:0.332507 8:0.401879 9:0.422374 10:0.911667 12:0.542511 13:0.875938 15:0.270035 16:0.612248 17:0.201759 19:0.958932 21:0.263643 23:0.46604 24:0.19692 25:0.65172 26:0.463956 28:0.768828 29:0.221074 32:0.580485 35:0.266154 36:0.811625 37:0.21257 38:0.686338 39:0.559324 42:0.838821 49:0.272922 54:0.308213 60:0.217303 61:0.254476 62:0.282559 67:0.121406 71:0.220409 76:0.381919 78:0.237512 82:0.612134 
0.5 1:0.436136 2:0.565883 3:0.545106 4:0.521394 6:0.964281 7:0.851809 8:0.531047 9:0.524242 10:0.819733 12:0.704105 13:0.606652 16:0.722469 17:0.222667 18:0.224799 19:0.404974 22:0.28495 23:0.433814 25:0.738015 28:0.539167 31:0.226887 32:0.275709 34:0.313351 35:1 38:0.359104 39:0.487944 42:0.776304 45:0.627962 46:0.489734 47:0.246611 52:0.268358 56:0.226889 58:0.602341 59:0.153259 60:0.239822 62:0.144119 66:0.16446 67:0.133987 73:0.150901 75:0.265517 
0.5 1:0.505573 2:0.78672 3:0.35234 4:0.967048 5:0.168689 6:0.785681 7:0.710081 8:0.531047 9:0.505103 10:0.684055 12:0.969422 13:0.442525 15:0.30568 16:0.663309 19:0.4547 20:0.341803 23:0.797645 24:0.222914 25:0.848523 26:0.262599 27:0.257173 28:0.713074 29:0.250256 30:0.2377 32:0.342058 33:0.25784 35:0.849772 38:1 39:0.458972 41:0.282216 42:0.786502 46:0.251163 50:0.318772 59:0.1572 60:0.245988 62:0.358379 63:0.446572 64:0.271564 66:0.337378 67:0.137432 69:0.304522 70:0.342448 71:0.249503 74:0.268659 75:0.272344 76:0.216166 77:0.265021 79:0.258984 81:0.252428 
0.5 1:0.720925 2:0.44752 3:0.338458 4:0.77461 6:0.831583 7:0.117822 8:0.531047 9:0.524734 10:0.982526 12:0.889185 13:0.94402 16:0.839113 19:0.769745 21:0.280954 22:0.275148 23:0.357592 24:0.4197 25:0.738015 26:0.24721 28:0.670127 31:0.219082 32:0.418683 35:0.759952 38:0.88732 39:0.579319 42:0.423774 44:0.700668 52:0.259127 53:0.252699 55:0.226384 56:0.219084 61:0.271185 62:0.447358 70:0.322379 71:0.234881 73:0.291419 77:0.249489 78:0.253107 80:0.476255 
0.120296836163213 1:0.656164 2:0.455659 3:0.387825 4:0.568355 5:0.525898 6:0.948261 7:0.332507 8:0.798738 9:0.253164 10:1 12:0.773597 13:0.925787 16:0.867169 17:0.712025 19:0.769745 23:0.546864 25:0.789998 27:0.267251 28:0.539167 31:0.483681 32:0.395375 35:0.573411 36:0.318255 38:0.710873 39:1 42:0.805478 48:0.277995 49:0.321055 57:0.240583 59:0.32672 62:0.392456 63:0.464072 66:0.701197 67:0.428452 69:0.316456 73:0.321692 79:0.269133 
0.4136383292215802 1:0.656164 2:0.663562 3:0.407775 4:0.568355 5:0.369297 6:0.948261 7:0.332507 8:0.798738 9:0.231202 10:1 12:0.773597 13:0.925787 14:0.376755 16:0.639297 17:1 19:0.769745 23:0.546864 25:0.789998 27:0.281504 28:0.539167 32:0.464917 35:0.573411 38:0.710873 39:1 42:0.805478 48:0.585644 50:0.348932 57:0.253414 59:0.344145 62:0.354596 63:0.244412 66:0.184649 67:0.601738 69:1 73:0.169424 79:0.283487 
0.1021936621894742 1:0.828643 2:0.399423 3:0.509829 4:0.931278 6:0.679642 7:0.827786 8:0.440483 9:0.401857 10:0.631397 12:0.969422 13:0.633454 16:0.612248 17:0.226714 19:0.527092 22:0.58026 23:0.19219 25:0.848523 28:0.956011 29:0.248418 32:0.528289 35:0.874641 36:0.304004 38:0.477302 39:0.426336 41:0.280143 42:0.765568 44:0.246274 46:0.249318 47:0.251094 49:0.30668 50:0.316431 59:0.156045 62:0.301183 65:0.202282 66:0.16745 71:0.24767 73:0.153644 77:0.263074 79:0.514164 80:0.251094 
0.1332532551067078 1:0.828643 2:0.288569 3:0.501489 4:0.568355 5:0.31997 6:0.956412 7:0.840009 8:0.401879 9:0.508544 10:0.659292 12:0.825058 13:0.925787 14:0.326431 16:0.501446 19:0.911006 22:0.277195 23:0.311364 24:0.211412 25:0.747709 26:0.4981 27:0.243903 28:0.768828 30:0.225435 31:0.220713 32:0.342383 35:0.886351 37:0.228214 38:0.710873 39:0.388972 42:0.765568 47:0.2399 50:0.302324 55:0.456139 59:0.149089 62:0.325714 65:0.193264 66:0.31997 67:0.130341 68:0.972499 69:0.288809 76:0.205013 77:0.251346 78:0.254991 79:0.245621 
0.2011601548719025 1:0.711578 2:0.452411 3:0.479758 4:0.716466 5:0.475877 6:0.869764 7:0.608517 8:0.401879 9:0.523071 10:0.885061 12:0.894597 13:0.496862 14:0.323657 16:0.867169 19:0.527092 20:0.321412 21:0.561281 23:0.797645 25:0.782249 27:0.241831 28:0.92313 31:0.656512 32:0.321687 33:0.242459 35:0.759952 38:0.423681 39:0.674747 40:0.316691 42:0.874024 57:0.870799 62:0.252017 63:0.419932 66:0.158626 68:0.321412 73:0.145547 78:0.252825 81:0.474739 
0.2960875884533925 1:1 2:0.374604 3:0.588409 4:0.568355 5:0.1616 6:0.72812 7:0.78825 8:1 9:0.439203 10:0.726541 12:0.596659 13:0.575967 16:0.739041 18:0.220889 19:0.85295 23:0.797645 24:0.213546 25:0.717032 28:1 31:0.222941 32:0.641266 33:0.494011 34:0.307901 35:0.983774 36:0.293384 37:0.230518 38:0.563198 39:0.829951 41:0.270356 42:0.606612 44:0.23767 48:0.256271 55:0.230372 56:0.222943 60:0.235651 62:0.299735 63:0.213903 64:0.260153 66:0.3232 69:0.291725 71:0.239018 78:0.257566 79:0.248101 82:0.995727 
0.5 1:0.576918 2:0.397868 3:0.57688 4:0.80091 6:0.533091 7:0.332507 8:0.779267 9:0.581082 10:0.659292 12:0.704105 13:0.875938 16:0.704506 17:0.216088 19:0.4547 21:0.282367 23:0.786596 24:0.210905 25:0.598352 26:0.248453 28:0.567891 29:0.236775 31:0.220184 32:0.525298 34:0.304093 35:0.822681 38:0.843882 39:0.597876 40:0.318639 42:0.517195 43:0.143172 47:0.239325 51:0.315003 52:0.26043 59:0.148731 62:0.349554 67:0.130028 75:0.257673 80:0.239325 81:0.23883 
0.5 1:0.782467 2:0.630712 3:0.485409 4:0.80091 5:0.144181 6:0.679642 7:0.608517 8:0.635603 9:0.523194 10:0.819733 12:0.468001 13:0.93204 16:0.501446 19:0.938269 22:0.249813 23:0.591244 25:0.402872 28:0.685498 29:0.427795 32:0.512968 33:0.22038 35:0.604021 36:0.261759 37:0.20567 38:0.843882 39:0.790649 40:0.287852 42:0.353642 45:0.275264 50:0.272459 58:0.264033 59:0.134361 62:0.357759 63:0.190846 65:0.174172 67:0.46986 72:0.290192 76:0.18476 79:0.442715 
0.5 1:0.711578 2:0.704542 3:0.224416 4:0.521394 5:0.151309 6:0.869764 8:0.302359 9:0.335852 10:0.792816 12:1 13:0.606652 16:0.768771 19:0.601474 21:0.535392 23:0.522126 25:1 26:0.471089 27:0.230677 28:1 31:0.208744 32:0.669425 35:0.501013 37:0.215838 38:0.733644 39:0.345275 40:0.604167 42:0.830984 44:0.222535 48:0.239951 49:0.277118 57:0.207659 62:0.437394 63:0.200281 66:0.151309 67:0.123272 69:0.273148 78:0.241163 81:0.452843 
0.5 1:0.628374 2:0.490336 3:0.511454 4:0.468494 6:0.679642 7:0.424994 8:0.849849 9:0.439831 10:0.659292 12:0.853222 13:0.732286 14:0.330185 15:0.293242 16:0.684897 19:0.4547 22:0.560767 23:0.680972 24:0.427687 25:0.797448 26:0.251914 28:0.685498 30:0.228028 32:0.41503 35:0.405752 36:0.293792 38:0.523151 39:0.70006 42:0.776304 43:0.145166 47:0.242659 50:0.305802 53:0.257508 55:0.461385 62:0.207518 63:0.214201 64:0.260515 65:0.195487 71:0.239351 76:0.622112 79:0.496892 
0.5 1:0.595695 2:0.563399 3:0.390523 4:0.468494 5:0.129074 6:0.869764 7:0.424994 8:0.440483 9:0.497622 10:0.745066 12:1 13:0.831443 16:0.704506 17:0.174756 19:0.697105 22:0.223638 23:0.257301 25:0.774176 27:0.196779 28:0.787378 29:0.382973 31:0.356138 32:0.640546 35:0.604021 38:0.63071 39:0.661095 40:0.257692 42:0.874024 46:0.19218 49:0.236395 51:0.254752 52:0.210617 59:0.120283 62:0.405386 66:0.387222 67:0.315472 79:0.198165 80:0.193549 
0.5 1:0.324156 2:0.329495 3:0.477604 4:0.684056 6:0.72812 7:0.863215 8:0.798738 9:0.420573 10:0.832053 12:0.468001 13:0.606652 16:0.612248 18:0.452917 19:0.62105 23:0.611318 25:0.576692 27:0.252578 28:0.539167 29:0.49157 31:0.457125 32:0.444457 35:0.849772 38:0.686338 39:0.615189 40:0.330764 42:0.701256 43:0.14862 44:0.243663 50:0.313077 53:0.263635 55:0.236181 57:0.454749 58:0.303394 59:0.154391 62:0.369416 63:0.219297 65:0.400274 66:0.33135 67:0.134976 72:0.333454 75:0.267478 77:0.260286 80:0.248432 
0.5 1:0.576918 2:0.633512 3:0.322695 4:0.892165 5:0.160773 6:0.748966 7:0.424994 8:0.849849 9:0.195069 10:0.819733 12:0.704105 13:0.715866 16:0.58128 19:0.731605 20:0.325763 21:0.284439 23:1 25:0.45234 27:0.245104 28:0.699764 29:0.238513 32:0.671446 33:0.245741 35:0.405752 37:0.229338 38:0.88732 39:0.70006 42:0.353642 46:0.239377 50:0.607627 52:0.524682 57:0.220647 62:0.225691 63:0.212808 72:0.323587 73:0.147517 79:0.740492 81:0.240583 
0.5 1:0.595695 2:0.679711 3:0.389901 4:0.967048 5:0.165305 6:0.785681 7:0.840009 8:0.401879 9:0.607336 10:0.684055 12:0.468001 13:0.875938 14:0.337286 15:0.299548 16:0.704506 17:0.22381 18:0.677859 19:0.65512 23:0.522126 25:0.717032 27:0.252014 28:0.737284 29:0.245236 31:0.228052 32:0.374648 33:0.252668 35:0.983774 38:0.859032 39:0.226483 40:0.330026 42:0.551561 43:0.148288 45:0.315593 50:0.312378 54:0.341898 55:0.235654 56:0.228054 59:0.154046 62:0.281547 63:0.218807 64:0.266117 65:0.19969 67:0.134675 70:0.335578 74:0.26327 76:0.21183 82:0.339518 
0.0171926543514825 1:0.505573 2:0.959599 3:0.666604 4:0.931278 6:0.802032 7:0.672999 8:0.555491 9:0.505985 10:0.819733 12:0.969422 13:0.540081 16:0.914194 19:0.555173 21:0.465137 22:0.227762 23:0.311364 25:0.848523 27:0.400813 28:0.713074 29:0.390034 31:0.362704 32:0.465593 35:0.604021 38:0.659743 39:0.388972 42:0.814341 48:0.416928 51:0.259449 62:0.252535 66:0.394362 67:0.107096 69:0.237305 74:0.209358 77:0.206523 82:0.269992 
0.5 1:0.324156 2:0.65363 3:0.206243 4:0.892165 5:0.164665 6:0.72812 7:0.381874 8:0.598542 9:0.0951271 10:0.762156 12:0.674284 13:0.715866 16:0.704506 19:0.527092 21:0.291326 22:0.285305 23:0.76328 25:0.782249 27:0.251039 28:0.345696 29:0.244287 32:0.341927 33:0.25169 35:0.501013 38:0.88732 39:0.661095 42:0.701256 46:0.245172 48:0.261132 57:0.225989 59:0.15345 62:0.769009 63:0.21796 68:0.33365 73:0.151089 77:0.517399 78:0.262451 79:0.505614 81:0.492815 
0.5 1:0.642787 2:0.353194 3:0.412934 4:0.568355 6:0.679642 7:0.652829 8:0.849849 9:0.41957 10:0.659292 12:1 13:0.442525 15:0.835716 16:0.612248 19:0.527092 23:0.856951 25:0.552292 28:1 29:0.68419 32:0.508718 35:0.822681 36:0.279095 37:0.219291 38:0.523151 39:0.70006 42:0.551561 44:0.226094 46:0.228889 48:0.243789 49:0.563102 53:0.244626 59:0.286518 62:0.361477 63:0.40697 66:0.153729 70:0.312079 71:0.227377 76:0.393993 79:0.472034 80:0.23052 
0.5 1:0.532507 2:0.477695 3:0.499032 4:0.521394 6:0.881189 7:0.381874 8:0.555491 9:0.443807 10:0.599461 12:0.753007 13:0.715866 16:0.858219 17:0.205364 19:0.638831 22:0.262808 23:0.39797 24:0.200439 25:0.576692 27:0.462487 28:0.653465 30:0.427468 32:0.697537 35:0.501013 38:0.733644 39:0.345275 41:0.253762 42:0.701256 44:0.223082 46:0.451679 47:0.227448 48:0.240541 59:0.14135 62:0.510064 64:0.244184 66:0.455043 75:0.48977 79:0.232872 80:0.227448 
0.399590505679579 1:0.806982 2:0.654702 3:0.522183 4:1 6:0.533091 7:0.332507 8:0.946372 9:0.466976 10:0.726541 12:0.689751 13:0.678637 16:0.684897 19:0.62105 20:0.324617 21:0.283439 23:1 25:0.402872 27:0.244242 28:0.904394 31:0.22102 32:0.761968 34:0.305247 35:0.573411 37:0.228531 38:0.873491 39:0.81494 42:0.353642 45:0.305861 48:0.254062 57:0.219871 59:0.149296 62:0.346749 63:0.21206 70:0.32523 77:0.251696 78:0.255346 79:0.245963 
0.5 1:0.576918 2:0.492108 3:0.640456 4:0.684056 5:0.173651 6:0.802032 7:0.863215 8:0.401879 9:0.348872 10:0.517129 12:0.809332 13:0.369291 16:0.985373 19:0.62105 21:0.614448 22:0.601749 23:0.46604 25:0.848523 27:0.264738 28:0.787378 31:0.239567 32:0.336638 33:0.265425 35:0.886351 36:0.315263 38:0.477302 39:0.579319 41:0.290518 42:0.776304 45:0.331528 47:0.260393 51:0.342733 60:0.253224 62:0.288678 66:0.173651 77:0.272817 78:0.553546 81:0.519709 
0.5 1:0.754227 2:0.720008 3:0.570607 4:0.967048 6:1 7:0.332507 8:0.504135 9:0.264918 10:0.935409 12:0.416821 13:0.875938 16:0.739041 17:0.197452 18:0.199343 19:0.741865 23:0.664929 24:0.192717 25:0.65172 27:0.222335 28:0.699764 32:0.501897 33:0.222912 35:0.539365 38:0.859032 39:0.661095 42:0.71585 44:0.643462 46:0.217139 51:0.287837 54:0.301634 55:0.207901 57:0.200149 61:0.249044 62:0.460121 63:0.193039 68:0.2955 69:0.26327 80:0.437371 82:0.299534 
0.5 1:0.754227 2:0.50896 3:0.535484 4:0.610575 6:0.679642 7:0.840009 8:0.504135 9:0.447525 10:0.885061 12:0.416821 13:0.496862 16:0.663309 18:0.216628 19:0.741865 23:0.257301 24:0.209428 25:0.576692 27:0.241614 28:0.699764 32:0.444114 34:0.301962 35:0.886351 37:0.226072 38:0.359104 39:0.579319 42:0.685532 47:0.237648 50:0.299487 52:0.258605 61:0.541279 62:0.295588 64:0.51027 66:0.158483 71:0.468816 74:0.252406 
0.5 1:0.324156 2:0.339454 3:0.627772 4:0.468494 6:0.881189 7:0.332507 8:0.683031 9:0.472782 10:0.706318 12:0.50871 13:0.821304 14:0.375328 15:1 16:0.806818 19:0.494251 21:0.325443 23:0.76328 24:0.24308 25:0.576692 26:0.572712 27:0.280438 28:0.567891 30:0.259204 32:0.0557665 33:0.281166 35:0.501013 38:0.659743 39:0.513991 40:0.367249 42:0.551561 45:0.351189 56:0.253776 60:0.268241 62:0.335721 63:0.243486 64:0.296132 69:0.332071 70:0.373428 73:0.337565 75:0.296982 76:0.235722 77:0.288996 78:0.293187 81:0.550529 
0.5 1:0.711578 2:0.556968 3:0.501014 4:0.892165 5:0.131681 6:0.768063 7:0.851809 8:0.531047 9:0.199379 10:0.384354 12:0.689751 13:0.606652 16:0.612248 19:0.579701 20:0.266816 21:0.465941 23:0.630206 25:0.524357 28:0.904394 29:0.195354 32:0.558961 35:0.742012 38:0.523151 39:0.226483 40:0.262897 42:0.245659 46:0.196061 48:0.208824 49:0.24117 51:0.259897 56:0.181667 62:0.442735 67:0.214563 68:0.266816 70:0.26732 77:0.206879 78:0.209879 80:0.197458 81:0.19705 
0.5 1:1 2:0.70755 3:0.400317 4:0.648926 5:0.17281 6:0.869764 7:0.117822 8:0.401879 9:0.660895 10:1 12:0.619069 13:0.84112 16:0.612248 17:0.467943 19:0.958932 21:0.305736 22:0.598834 23:0.257301 25:0.693487 28:0.725548 31:0.238406 32:0.26433 35:0.604021 36:0.313736 38:0.563198 39:0.579319 40:0.34501 42:1 47:0.259132 52:0.281983 53:0.274989 59:0.16104 60:0.251998 62:0.462508 66:0.17281 70:0.701628 71:0.255599 76:0.221448 79:0.265311 81:0.258596 
0.5 1:1 2:0.324564 3:0.584698 4:0.468494 6:0.579461 7:0.463271 8:0.598542 9:0.343662 10:0.562111 11:0.319466 12:0.619069 13:0.698067 16:0.612248 17:0.235141 19:0.938269 21:0.307263 23:0.724768 25:0.45234 26:0.270359 27:0.264772 28:0.725548 30:0.489448 32:0.335704 35:0.702599 36:0.315304 38:0.423681 39:0.458972 42:0.245659 44:0.766281 48:0.275417 50:0.328192 52:0.283392 55:0.247584 56:0.2396 62:0.0474982 64:0.838768 66:0.347347 68:0.351903 70:0.352567 71:0.256876 80:0.520853 
0.5 1:0.436136 2:0.775152 3:0.591743 4:0.521394 5:0.1664 6:0.993291 7:0.863215 8:0.356731 9:0.348035 10:0.726541 12:0.704105 13:0.496862 16:0.768771 17:0.225292 19:0.555173 23:0.522126 25:0.922239 28:0.567891 29:0.24686 32:0.423151 33:0.254341 35:0.886351 38:0.827971 39:0.513991 42:0.930148 48:0.263882 57:0.228369 59:0.155067 60:0.24265 62:0.22466 63:0.220256 66:0.1664 67:0.406701 71:0.246117 73:0.15268 74:0.530027 76:0.213233 
0.5 1:0.436136 2:0.417756 3:0.412333 4:0.610575 6:0.72812 7:1 8:0.531047 9:0.437043 10:0.631397 12:0.468001 13:0.575967 16:0.754422 18:0.227953 19:0.601474 22:0.288948 23:0.257301 25:0.524357 28:0.505573 29:0.247407 32:0.454638 35:0.938955 38:0.477302 39:0.458972 42:0.551561 44:0.245271 46:0.248303 47:0.250071 51:0.329147 59:0.15541 62:0.350258 63:0.220744 73:0.153018 75:0.269243 76:0.213705 77:0.262003 79:0.256035 80:0.250071 81:0.499108 
0.5 1:0.806982 2:0.562662 3:0.406252 4:0.568355 6:0.948261 7:0.332507 8:0.302359 9:0.405605 10:0.935409 12:0.542511 13:0.657246 15:0.283522 16:0.684897 19:0.638831 22:0.271091 23:0.357592 25:0.402872 27:0.238531 28:0.75886 29:0.232116 32:0.504607 35:0.457104 36:0.56811 37:0.223188 38:0.423681 39:0.458972 40:0.31237 42:0.668487 51:0.308805 59:0.145805 60:0.228157 61:0.267187 62:0.262933 67:0.12747 71:0.462835 76:0.200497 79:0.480423 
0.5 1:0.711578 2:0.593877 3:0.425066 4:0.568355 6:0.650886 7:0.851809 8:1 9:0.586161 10:0.659292 11:0.272824 12:0.846544 13:0.496862 15:0.268764 16:0.985373 19:0.62105 23:0.76328 24:0.195993 25:0.782249 28:0.909246 32:0.375159 35:0.604021 38:0.63071 39:0.790649 42:0.580945 48:0.235206 50:0.280275 56:0.204618 62:0.247612 64:0.477537 70:0.301092 72:0.298517 74:0.236214 79:0.227708 80:0.222404 
0.5 1:0.768882 2:0.116045 3:0.515956 4:0.80091 6:0.579461 7:0.968541 8:0.833875 9:0.520884 10:0.792816 12:0.853222 13:0.93204 16:0.722469 18:0.238468 19:0.709299 23:0.611318 25:0.598352 26:0.271585 28:0.92313 32:0.367675 33:0.266663 35:0.849772 37:0.248864 38:0.843882 39:0.559324 41:0.875617 42:0.71585 44:0.256585 46:0.259757 52:0.569353 53:0.277615 55:0.248706 56:0.240686 58:0.638967 62:0.322664 63:0.230926 65:0.632253 71:0.25804 72:0.351137 73:0.320153 82:0.358324 
0.1168027653750298 1:0.881666 2:0.536494 3:0.460174 4:0.521394 5:0.558215 6:0.802032 7:0.652829 8:0.555491 10:0.684055 12:0.889185 13:0.540081 16:0.768771 19:0.670147 20:0.377024 21:0.329198 23:0.76328 25:0.774176 28:0.904394 29:0.276044 32:0.551195 33:0.28441 35:0.722945 37:0.265426 38:0.477302 39:0.388972 40:0.371486 42:0.685532 47:0.279018 57:0.255367 62:0.508231 63:0.98518 68:0.377024 69:0.671804 82:0.382171 
0.5 1:0.436136 2:0.681012 3:0.47544 4:0.407929 5:0.493749 6:1 7:0.710081 8:0.531047 9:0.297141 10:0.599461 12:0.416821 13:0.657246 16:0.867169 17:0.445665 18:0.224966 19:0.555173 21:0.29118 23:0.724768 24:0.217488 25:0.693487 28:0.345696 32:0.599361 35:1 38:0.598748 39:0.597876 42:1 48:0.261001 52:0.268558 53:0.261897 54:0.340405 62:0.413103 63:0.217851 66:0.164583 74:0.26212 77:0.25857 78:0.26232 79:0.25268 80:0.493589 
0.5 1:0.474073 2:0.580011 3:0.456633 4:1 5:0.178553 6:0.993291 7:0.884943 8:0.798738 9:0.617139 10:0.911667 12:0.468001 13:0.732286 16:0.639297 17:0.241747 18:0.244062 19:0.709299 22:0.309368 23:0.39797 24:0.235949 25:0.75694 26:0.555911 28:0.465116 31:0.246329 32:0.663704 35:0.604021 36:0.324163 37:0.254701 38:0.811219 39:1 40:0.356476 42:0.930148 43:0.160173 49:0.65403 54:0.3693 55:0.25454 58:0.326978 59:0.332785 60:0.260373 62:0.267658 63:0.236343 66:0.178553 67:0.290937 68:0.36179 72:0.359374 73:0.327663 77:0.280519 
0.5 1:1 2:0.709065 3:0.477281 4:0.77461 6:0.971888 7:0.381874 8:0.735464 9:0.508214 10:0.706318 12:0.596659 13:0.875938 16:0.985373 19:0.958932 25:0.75694 26:0.246576 28:0.77832 30:0.223195 32:0.391744 34:0.301795 35:0.702599 37:0.451893 38:0.63071 39:0.537651 40:0.316231 42:1 46:0.235837 47:0.237517 49:0.290097 53:0.252051 55:0.225804 57:0.217384 62:0.195071 63:0.419322 66:0.158396 70:0.964655 79:0.243181 
0.5 1:0.628374 2:0.470027 3:0.386554 4:0.568355 6:0.831583 7:0.851809 8:0.598542 9:0.562377 10:0.562111 12:0.853222 13:0.575967 16:0.612248 17:0.209167 18:0.21117 19:0.494251 21:0.273324 22:0.267675 23:0.76328 25:0.617827 26:0.240496 28:0.685498 32:0.488084 35:1 36:0.560951 38:0.563198 39:0.458972 41:0.258461 42:0.475808 43:0.138587 44:0.227213 45:0.589892 47:0.23166 60:0.225283 62:0.433037 63:0.204492 64:0.248706 65:0.186626 67:0.125864 72:0.310942 74:0.492092 78:0.246233 81:0.231181 
0.5 1:0.436136 2:0.40685 3:0.517365 4:0.77461 5:0.150107 6:0.869764 7:0.608517 8:0.710533 9:0.407974 10:0.517129 12:0.704105 13:0.540081 16:0.446607 19:0.527092 22:0.780243 23:0.664929 25:0.922239 27:0.228844 28:0.567891 29:0.222689 32:0.572984 35:0.822681 36:0.272519 38:0.523151 39:0.674747 42:1 43:0.134655 47:0.225088 48:0.238045 50:0.283658 57:0.206009 61:0.256335 62:0.33443 63:0.19869 65:0.181331 66:0.150107 73:0.137731 79:0.230456 80:0.450176 82:0.308304 
0.5 1:0.505573 2:0.253122 3:0.619011 4:0.610575 6:0.768063 7:0.528946 8:0.798738 9:0.521031 10:1 12:0.619069 13:0.925787 16:0.612248 18:0.205886 19:0.911006 22:0.260977 23:0.39797 24:0.199042 25:0.797448 28:0.685498 30:0.848981 31:0.207799 32:0.625859 35:0.849772 38:0.859032 39:1 40:0.300717 42:0.765568 44:0.221528 53:0.239685 54:0.934604 55:0.429451 57:0.206719 62:0.446992 67:0.490858 68:0.6104 71:0.222784 73:0.138205 75:0.243179 76:0.193018 78:0.240072 81:0.225396 
0.5 1:0.225176 2:0.67618 3:0.571456 4:0.521394 5:0.166077 6:1 7:0.497686 8:1 9:0.308098 10:0.875429 12:0.542511 13:0.925787 14:0.338861 16:0.839113 17:0.224855 18:0.227008 19:0.769745 20:0.33651 21:0.293823 23:0.724768 25:0.747709 26:0.258533 28:0.240139 29:0.492763 32:0.375419 35:0.573411 38:0.659743 39:0.81494 42:0.805478 48:0.26337 49:0.304165 50:0.313836 53:0.264274 55:0.236754 60:0.242179 62:0.384225 63:0.219829 66:0.166077 67:0.135304 69:0.299807 73:0.304768 76:0.212819 77:0.260917 78:0.794103 
0.5 1:0.474073 2:0.628895 3:0.440782 4:0.77461 6:0.881189 7:0.463271 8:0.233998 9:0.352027 10:0.706318 12:0.717498 13:0.442525 16:0.754422 19:0.527092 23:0.357592 25:0.774176 27:0.241329 28:0.567891 29:0.234839 32:0.51281 35:0.501013 36:0.287387 38:0.523151 39:0.513991 41:0.26483 42:0.701256 46:0.23569 48:0.251032 49:0.289915 50:0.299134 53:0.251894 56:0.218386 61:0.540641 62:0.378093 66:0.158297 70:0.321351 73:0.145245 80:0.474737 
0.5 1:0.474073 2:0.49932 3:0.451397 4:0.684056 5:0.149649 6:0.679642 7:0.583999 8:0.683031 9:0.530264 10:0.894291 12:0.34784 13:0.633454 15:0.271177 16:0.639297 18:0.204553 19:0.62105 23:0.39797 24:0.197753 25:0.233542 26:0.23296 27:0.228145 28:0.465116 29:0.22201 31:0.206453 32:0.516547 34:0.28513 35:0.702599 37:0.21347 38:0.733644 39:0.458972 40:0.298769 42:0.517195 45:0.285703 47:0.224401 49:0.274077 55:0.213335 59:0.278913 61:0.255553 62:0.317869 64:0.240913 76:0.383535 78:0.238517 79:0.689257 
0.5 1:0.768882 2:0.408167 3:0.472085 4:0.80091 6:0.617964 7:0.424994 8:0.598542 9:0.524068 10:0.706318 12:0.853222 13:0.875938 15:0.320546 16:0.754422 18:0.483584 19:0.697105 21:0.312959 23:0.495312 24:0.233755 25:0.797448 28:0.92313 29:0.524854 30:0.24926 32:0.448297 35:0.405752 38:0.733644 39:0.661095 40:0.353161 42:0.776304 46:0.263378 47:0.530507 52:0.288645 53:0.562971 55:0.504346 59:0.32969 60:0.257951 62:0.204858 64:0.284772 72:0.356032 73:0.162308 75:0.285589 76:0.453359 78:0.28194 81:0.264705 
0.5 1:0.720925 2:0.439519 3:0.402353 4:0.684056 6:0.650886 7:0.381874 8:0.849849 9:0.36979 10:0.684055 11:0.343194 12:0.50871 13:0.949765 14:0.380681 15:0.338088 16:0.768771 17:0.252606 18:0.255024 19:0.911006 23:1 25:0.3362 27:0.284438 28:0.725548 30:0.262901 32:0.635993 33:0.285177 35:0.539365 38:0.710873 39:0.674747 42:0.629396 44:0.274399 47:0.27977 48:0.295874 53:0.29689 55:0.531946 57:0.512111 62:0.00297819 63:0.246959 69:0.336808 74:0.594285 75:0.301218 76:0.239084 80:0.27977 81:0.279191 
0.5 1:0.324156 2:0.748825 3:0.494538 4:0.568355 5:0.158477 6:0.948261 7:0.652829 8:0.504135 9:0.512979 10:0.875429 12:0.730048 13:0.540081 16:0.768771 19:0.731605 22:0.274583 23:0.357592 25:0.848523 27:0.241604 28:0.615252 29:0.470213 31:0.655898 32:0.606402 33:0.484463 35:0.573411 36:0.287714 38:0.710873 39:0.458972 42:0.814341 48:0.251318 50:0.299475 59:0.295367 62:0.292595 63:0.209769 66:0.158477 74:0.252396 78:0.252588 
0.5 1:0.38844 2:0.3758 3:0.511725 4:0.251796 5:0.360537 6:0.579461 7:0.424994 8:0.617715 9:0.596798 10:0.982526 12:0.657519 13:0.657246 16:0.722469 17:0.244069 19:0.494251 20:0.365266 23:0.357592 25:0.598352 27:0.274826 28:0.737284 31:0.248696 32:0.408727 35:0.573411 36:0.327276 37:0.514296 38:0.598748 39:0.687713 42:0.71585 48:0.285876 50:0.340654 59:0.167991 60:0.262874 62:0.494101 65:0.217766 66:0.360537 67:0.146866 68:0.365266 69:0.650852 80:0.540631 
0.5 1:0.795128 2:0.448089 3:0.325956 4:0.684056 6:0.869764 7:0.851809 8:0.531047 9:0.461513 10:0.935409 11:0.273979 12:0.416821 13:0.698067 14:0.303906 15:0.269902 16:0.58128 17:0.403321 19:0.85295 22:0.258068 23:0.611318 25:0.65172 28:0.59298 31:0.205483 32:0.435632 35:0.604021 38:0.477302 39:0.458972 42:0.71585 44:0.219058 47:0.223346 48:0.236202 50:0.281463 56:0.205484 59:0.138801 62:0.313997 66:0.148945 67:0.36404 69:0.26888 70:0.604734 71:0.440601 75:0.240468 76:0.190866 
0.2963171251313857 1:1 2:0.858443 3:0.180015 4:0.144547 6:0.90245 7:0.672999 8:0.635603 9:0.373514 10:1 12:0.571414 13:0.84112 14:0.3792 15:0.336772 16:0.806818 17:0.503245 19:0.958932 21:0.328801 23:0.591244 24:0.245587 25:0.598352 26:0.28931 28:0.77832 30:0.523755 31:0.512784 32:0.398389 35:0.501013 38:0.477302 39:0.876529 42:0.765568 56:0.256394 62:0.394218 63:0.245998 64:0.299187 69:0.335497 75:0.600091 77:0.291977 78:0.592423 79:0.285327 82:0.381709 
0.5 1:0.754227 2:0.306933 3:0.602136 4:0.610575 6:0.748966 7:0.117822 8:0.555491 9:0.424899 10:0.885061 12:0.596659 13:0.496862 16:0.722469 17:0.21664 19:0.741865 20:0.648432 22:0.277238 23:0.522126 25:0.598352 26:0.249088 27:0.243941 28:0.699764 31:0.441493 32:0.385147 35:0.501013 37:0.228249 38:0.359104 39:0.579319 42:0.629396 57:0.219599 62:0.116909 63:0.211798 67:0.260721 73:0.146817 
0.5 1:0.711578 2:0.195768 3:0.497396 4:0.521394 5:0.157027 6:0.948261 7:0.497686 8:0.474202 9:0.635076 10:0.819733 12:0.619069 13:0.606652 16:0.684897 18:0.214638 19:0.601474 22:0.272071 23:0.39797 24:0.207504 25:0.576692 26:0.244446 28:0.725548 32:0.0904508 35:0.573411 38:0.733644 39:0.70006 42:0.874024 52:0.256229 53:0.249874 55:0.223853 61:0.80446 62:0.628348 63:0.20785 65:0.189691 73:0.14408 76:0.603668 77:0.2467 80:0.235465 81:0.234978 
0.5 1:0.691346 2:0.848756 3:0.537081 4:0.967048 6:0.617964 7:0.463271 8:0.598542 9:0.288375 10:0.935409 12:0.542511 13:0.875938 16:0.739041 18:0.413327 19:0.741865 23:0.433814 25:0.491686 28:0.539167 29:0.224301 32:0.489564 33:0.231098 35:0.573411 38:0.859032 39:0.597876 42:0.71585 48:0.239767 50:0.285711 52:0.493419 53:0.24059 55:0.431073 57:0.2075 60:0.220475 62:0.352292 63:0.200128 67:0.123178 76:0.193747 77:0.237534 80:0.226717 82:0.310534 
0.5 1:0.595695 2:0.541304 3:0.354799 4:0.568355 5:0.14482 6:0.72812 7:0.840009 8:0.302359 9:0.404124 10:0.982526 11:0.266391 12:0.468001 13:0.875938 14:0.295489 15:0.262427 16:0.754422 19:0.65512 23:0.495312 25:0.402872 27:0.220784 28:0.737284 29:0.214846 30:0.204066 31:0.399583 32:0.655184 33:0.221357 35:0.983774 37:0.206582 38:0.827971 39:0.579319 41:0.242283 42:0.423774 47:0.21716 49:0.265233 55:0.206451 59:0.134957 62:0.217308 68:0.293439 69:0.261433 70:0.293993 75:0.233808 76:0.371159 78:0.230821 
0.5 1:0.505573 2:0.336089 3:0.578892 4:0.892165 6:0.964281 7:0.463271 8:0.779267 9:0.515017 10:0.762156 12:0.50871 13:0.633454 16:0.914194 18:0.429831 19:0.709299 20:0.318585 21:0.278172 23:1 25:0.830915 26:0.244762 28:0.75886 31:0.216912 32:0.496996 33:0.240326 35:0.604021 36:0.570901 37:0.224284 38:0.733644 39:0.661095 40:0.627809 42:0.776304 44:0.231243 45:0.300177 47:0.235769 50:0.297119 53:0.250197 54:0.325197 56:0.216914 59:0.146521 62:0.357151 63:0.208119 64:0.253118 65:0.189936 78:0.2506 80:0.235769 
0.5 1:0.768882 2:0.524097 3:0.583865 4:0.967048 5:0.162988 6:0.956412 7:0.205241 8:0.233998 9:0.240971 10:0.762156 12:0.468001 13:0.93204 15:0.29535 16:0.867169 17:0.220673 19:0.709299 20:0.330252 21:0.288359 23:0.46604 25:0.524357 27:0.248482 28:0.787378 32:0.52628 34:0.310546 35:0.501013 37:0.232498 38:0.827971 39:0.426336 40:0.325401 42:0.838821 45:0.31117 46:0.242675 49:0.298508 57:0.223687 59:0.151887 62:0.29105 71:0.241071 73:0.14955 79:0.250232 81:0.243898 
0.5 1:0.795128 2:0.349671 3:0.376751 4:0.983848 6:0.845035 7:0.424994 8:0.401879 9:0.415441 10:0.562111 12:0.639218 13:0.821304 15:0.331328 16:0.684897 17:0.247555 19:0.85295 23:0.611318 25:1 26:0.284633 28:0.75886 29:0.271254 32:0.371424 33:0.279475 35:0.631825 38:0.873491 39:0.226483 40:0.36504 41:0.305896 42:0.830984 45:0.349076 46:0.272237 47:0.274176 48:0.579916 49:0.334871 56:0.25225 58:0.334834 59:0.34078 62:0.436532 63:0.242021 65:0.441753 67:0.297926 71:0.270438 73:0.167767 74:0.291202 77:0.287258 79:0.280715 
0.2204983253617228 1:0.595695 2:0.587282 3:0.526629 4:1 6:0.90245 7:0.497686 8:0.302359 9:0.288498 10:0.875429 12:1 13:0.955359 16:0.839113 17:0.394221 19:0.579701 21:0.772706 22:0.252245 23:0.311364 25:1 27:0.22195 28:0.787378 29:0.21598 30:0.205144 32:0.660608 35:0.573411 38:1 39:0.458972 42:0.90952 43:0.261196 50:0.275112 51:0.287338 54:0.602223 57:0.199803 62:0.259764 67:0.474435 69:0.262814 72:0.293018 74:0.231863 79:0.223513 81:0.217855 
0.5 1:0.505573 2:0.219652 3:0.578002 4:0.610575 6:0.948261 7:0.672999 8:0.598542 9:0.505975 10:0.819733 12:0.416821 13:0.657246 16:0.704506 17:0.2346 19:0.527092 20:0.351094 21:0.613114 22:0.300221 23:0.495312 24:0.228973 25:0.65172 26:0.269738 27:0.264163 28:0.414251 32:0.390835 33:0.264849 34:0.330144 35:0.631825 38:0.563198 39:0.646681 40:0.345936 42:0.71585 44:0.509679 46:0.25799 51:0.341989 55:0.247014 58:0.317311 61:0.295898 62:0.150692 68:0.351094 73:0.158988 76:0.222042 81:0.25929 
0.3567315026716959 1:1 2:0.647309 3:0.307438 4:0.521394 5:0.153679 6:1 7:0.381874 8:0.504135 9:0.649532 10:0.517129 12:0.846544 13:0.698067 16:0.985373 17:0.20807 19:0.938269 20:0.31139 23:0.591244 25:0.922239 26:0.478468 28:0.909246 32:0.335375 34:0.292809 35:0.457104 38:0.477302 39:0.458972 42:1 53:0.244546 59:0.143212 60:0.448201 61:0.262436 62:0.485686 65:0.185646 68:0.31139 71:0.454605 73:0.282017 77:0.724319 79:0.23594 
0.5 1:0.436136 2:0.344607 3:0.387807 4:0.521394 5:0.305041 6:0.72812 7:0.851809 8:0.946372 9:0.480805 10:0.792816 12:0.571414 13:0.657246 16:0.739041 19:0.527092 21:0.26984 23:0.856951 24:0.201548 25:0.617827 26:0.23743 28:0.345696 30:0.214917 31:0.210415 32:0.46338 35:0.742012 38:0.659743 39:0.829951 40:0.304503 42:0.786502 44:0.224317 45:0.291186 47:0.228707 52:0.248876 54:0.315457 56:0.210417 62:0.246606 66:0.152521 67:0.248519 68:0.309042 75:0.246241 78:0.243094 82:0.313261 
0.4173606388211984 1:0.628374 2:0.677979 3:0.598753 4:0.468494 6:0.785681 7:0.863215 8:0.807966 9:0.50089 10:0.706318 11:0.261629 12:0.894597 13:0.496862 16:0.754422 17:0.19257 19:0.4547 21:0.503271 22:0.246435 23:0.856951 25:0.680543 27:0.216837 28:0.685498 29:0.211005 32:0.510109 35:0.983774 38:0.359104 39:0.661095 41:0.237952 42:0.742226 44:0.209184 46:0.423539 47:0.213278 53:0.226329 56:0.196222 60:0.207406 62:0.47921 63:0.188265 66:0.142231 67:0.231753 69:0.25676 70:0.577474 74:0.226522 75:0.229629 78:0.226695 
0.5 1:0.436136 2:0.544406 3:0.386548 4:0.468494 6:0.993291 7:0.274772 8:0.598542 9:0.637019 10:0.631397 12:0.704105 13:0.575967 16:0.684897 17:0.224242 19:0.555173 21:0.586045 23:0.433814 25:0.922239 27:0.505001 28:0.567891 29:0.24571 30:0.233381 31:0.456985 32:0.583167 33:0.253156 35:0.501013 38:0.754889 39:0.458972 42:0.930148 55:0.236109 57:0.227305 58:0.303301 59:0.154344 60:0.241519 62:0.281953 63:0.21923 65:0.200076 66:0.496872 69:0.29899 70:0.336226 78:0.263979 
0.5 1:0.436136 2:0.562087 3:0.765436 4:0.521394 6:0.948261 7:0.608517 8:0.807966 9:0.526872 10:0.384354 12:0.846544 13:0.732286 16:0.722469 18:0.216295 19:0.555173 23:1 24:0.41821 25:0.782249 27:0.482484 28:0.567891 30:0.222975 32:0.432785 35:0.573411 38:0.477302 39:0.661095 42:0.874024 50:0.299026 52:0.258207 54:0.654569 57:0.434339 58:0.289778 59:0.147462 62:0.27601 66:0.158239 75:0.510947 79:0.242941 81:0.236792 
0.5 1:0.642787 2:0.459554 3:0.522093 4:0.967048 6:0.993291 8:0.440483 9:0.357069 10:0.982526 12:0.773597 13:0.698067 16:0.839113 17:0.331219 19:0.494251 23:0.46604 25:0.789998 28:0.909246 29:0.907319 32:0.392501 33:0.186963 34:0.233056 35:0.573411 37:0.174484 38:0.859032 39:0.687713 42:0.830984 47:0.183418 48:0.193976 57:0.167871 59:0.227975 61:0.208881 62:0.353236 67:0.597921 69:0.220813 73:0.112233 79:0.187792 80:0.183418 
0.5 1:0.436136 2:0.384926 3:0.352369 4:0.80091 6:0.617964 7:1 8:0.233998 9:0.30545 10:0.792816 12:0.657519 13:1 14:0.308564 15:0.27404 16:0.768771 19:0.769745 23:0.39797 24:0.199841 25:0.797448 27:0.230553 28:0.414251 31:0.208632 32:0.526799 35:0.957684 37:0.215723 38:0.925516 39:0.426336 41:0.253004 42:0.776304 46:0.225166 47:0.226769 48:0.239823 57:0.207548 59:0.140929 61:0.516501 62:0.438082 63:0.200174 64:0.243456 66:0.151228 79:0.232177 81:0.2263 
0.5 1:0.436136 2:0.344272 3:0.429471 4:0.568355 6:0.802032 7:0.463271 8:0.401879 9:0.531691 10:0.911667 12:0.730048 13:0.606652 15:0.29168 16:0.754422 17:0.217932 19:0.4547 20:0.326149 21:0.284776 23:0.357592 24:0.212705 25:0.848523 27:0.49079 28:0.505573 29:0.238795 32:0.431088 35:0.501013 37:0.22961 38:0.63071 39:0.579319 40:0.321358 42:0.776304 48:0.510522 52:0.262652 55:0.229464 57:0.220908 60:0.234722 62:0.278545 63:0.21306 65:0.194446 67:0.131138 68:0.326149 71:0.238076 79:0.247123 
0.5 1:0.754227 2:0.695854 3:0.630909 4:0.967048 6:0.72812 7:0.851809 8:0.598542 9:0.37123 10:0.819733 12:0.416821 13:0.606652 14:0.698327 16:0.704506 17:0.231691 18:0.23391 19:0.670147 20:0.346741 22:0.592998 23:0.46604 25:0.3362 28:0.699764 31:0.472166 32:0.373395 35:0.957684 37:0.244107 38:0.686338 39:0.661095 40:0.341648 41:0.572586 42:0.629396 50:0.323378 54:0.353938 58:0.313377 59:0.159471 62:0.280217 70:0.347395 77:0.26885 79:0.262726 
0.1701343947788783 1:1 2:0.754224 3:0.362883 4:0.77461 6:0.956412 7:0.528946 8:0.401879 9:0.151138 10:0.792816 12:0.571414 13:0.867754 16:0.722469 17:0.248462 19:1 23:0.46604 25:0.524357 26:0.285676 28:0.77832 32:0.451528 35:0.849772 38:0.925516 39:0.537651 40:0.732753 42:0.838821 44:0.269897 45:0.350354 56:0.253173 58:0.33606 62:0.448958 63:0.485815 74:0.292268 77:0.28831 
0.5 1:0.691346 2:0.285617 3:0.370309 4:0.684056 6:0.881189 7:0.463271 8:0.401879 9:0.36872 10:0.706318 11:0.290875 12:0.730048 13:0.925787 16:0.704506 19:0.98055 23:0.357592 25:0.848523 28:0.615252 30:0.222822 32:0.678794 35:0.631825 36:0.57417 38:0.859032 39:0.292648 41:0.529103 42:0.786502 44:0.232567 52:0.258029 54:0.327059 55:0.225426 57:0.21702 60:0.230591 61:0.270037 62:0.411014 63:0.20931 71:0.467772 72:0.318269 76:0.202636 77:0.248433 
0.1751014242236525 1:0.656164 2:0.405419 3:0.445162 4:0.684056 5:0.573788 6:1 7:0.672999 8:0.302359 9:0.279213 10:0.706318 12:1 13:0.633454 16:0.663309 17:0.388432 19:0.601474 20:0.290657 21:0.253786 23:0.46604 25:1 26:0.223305 27:0.21869 28:0.653465 31:0.395795 32:0.511019 35:0.702599 38:0.733644 39:0.537651 42:1 57:0.196869 59:0.133677 61:0.734886 62:0.351784 63:0.379749 66:0.573788 67:0.350601 68:0.581314 71:0.212168 77:0.225364 
0.5 1:0.38844 2:0.236224 3:0.520595 4:0.521394 6:0.881189 7:0.117822 8:0.833875 9:0.318285 10:0.832053 12:0.730048 13:0.657246 16:0.722469 19:0.494251 20:0.35334 23:0.710826 24:0.230438 25:0.848523 27:0.531707 28:0.505573 31:0.240576 32:0.431682 34:0.332256 35:0.501013 37:0.497505 38:0.811219 39:0.615189 42:0.786502 43:0.156432 48:0.276542 55:0.248595 57:0.239326 62:0.205224 63:0.230823 66:0.348766 71:0.257925 72:0.350981 73:0.160005 78:0.27794 
0.4535582645607873 1:0.720925 2:0.507148 3:0.373545 4:0.610575 6:0.679642 7:0.710081 8:0.401879 9:0.655959 10:0.726541 12:1 13:0.540081 16:0.754422 19:0.579701 21:0.275127 23:0.357592 25:1 26:0.242083 27:0.47416 28:1 30:0.438257 32:0.460765 35:1 37:0.22183 38:0.710873 39:0.458972 40:0.310469 42:0.830984 47:0.233189 48:0.493224 51:0.306926 53:0.247458 55:0.221689 57:0.426846 62:0.391293 63:0.411682 64:0.250347 67:0.126694 68:0.315098 74:0.247669 
0.5 1:0.711578 2:0.452956 3:0.53608 4:0.337099 5:0.15697 6:0.845035 7:0.851809 8:0.504135 9:0.531075 10:0.911667 12:0.846544 13:0.496862 16:0.545063 18:0.214559 19:0.62105 25:0.922239 28:0.909246 29:0.465741 32:0.449944 35:1 38:0.563198 39:0.579319 42:0.830984 59:0.146279 60:0.228898 62:0.358302 63:0.207774 67:0.255768 72:0.315932 73:0.144027 76:0.201149 79:0.240992 80:0.235378 81:0.234892 
0.01852253771548194 1:0.806982 2:0.699474 3:0.575535 4:0.468494 6:0.869764 7:0.968541 8:0.779267 9:0.560135 10:0.684055 12:0.704105 13:0.657246 16:0.722469 18:0.436363 19:0.638831 22:0.276562 23:1 25:0.693487 28:0.75886 29:0.236801 31:0.220208 32:0.395133 35:0.849772 38:0.423681 39:0.345275 42:1 44:0.234757 46:0.237659 48:0.253129 50:0.301633 55:0.227548 62:0.499788 67:0.130043 71:0.236088 73:0.146459 75:0.257701 76:0.204544 77:0.501544 79:0.24506 82:0.327841 
0.5 1:0.474073 2:0.490342 3:0.717711 4:0.684056 6:0.802032 7:0.710081 8:0.555491 9:0.241878 10:0.885061 12:0.619069 13:0.633454 15:0.631015 16:0.545063 17:0.235735 19:0.579701 21:0.30804 23:0.522126 25:0.789998 28:0.685498 29:0.258302 32:0.296217 35:0.849772 36:0.3161 38:0.827971 39:0.579319 40:0.347609 42:0.765568 47:0.261084 53:0.277061 60:0.253897 62:0.188404 63:0.230465 67:0.851102 70:0.353458 
0.5 1:0.474073 2:0.546811 3:0.299024 4:0.892165 6:0.802032 7:0.332507 8:0.710533 9:0.326615 10:0.792816 12:0.468001 13:0.867754 14:0.343735 15:0.305275 16:0.782219 19:0.579701 21:0.596099 23:0.257301 25:0.598352 27:0.256832 28:0.685498 29:0.249925 30:0.237385 32:0.421314 33:0.257499 35:0.573411 38:1 39:0.597876 41:0.281842 42:0.668487 47:0.252617 53:0.268075 55:0.240159 62:0.240955 65:0.203509 67:0.549 69:0.608238 70:0.341994 72:0.339071 74:0.268304 78:0.805524 81:0.504189 
0.4066019571122754 1:0.595695 2:0.70898 3:0.428635 4:0.77461 6:0.869764 7:0.583999 8:0.598542 9:0.235441 10:0.819733 12:0.773597 13:0.93204 14:0.34988 16:0.639297 17:0.232167 19:0.709299 20:0.347452 21:0.606755 23:0.357592 24:0.226598 25:0.789998 28:0.699764 29:0.508785 32:0.406491 35:0.604021 36:0.622631 38:0.843882 39:0.661095 42:0.765568 51:0.338442 55:0.244452 59:0.319596 62:0.305709 65:0.414293 67:0.41911 73:0.314677 76:0.219739 78:0.273308 
0.5 1:0.576918 2:0.275232 3:0.565396 4:0.80091 6:0.964281 7:0.463271 8:0.735464 9:0.385557 10:1 11:0.328184 12:0.468001 13:0.633454 16:0.58128 17:0.241557 18:0.24387 19:0.709299 23:0.546864 25:0.524357 28:0.653465 30:0.251402 31:0.246136 32:0.582115 35:0.573411 36:0.323908 38:0.686338 39:1 42:0.776304 43:0.160047 47:0.267533 50:0.337148 52:0.291125 54:0.36901 55:0.50868 60:0.260168 62:0.355809 65:0.215525 69:0.322076 72:0.359092 73:0.163703 76:0.228627 81:0.26698 
0.06392195879913505 1:0.474073 2:0.252535 3:0.462954 4:0.80091 5:0.149914 6:0.579461 7:0.968541 8:0.779267 9:0.418194 10:0.762156 11:0.275761 12:0.689751 13:1 14:0.305883 16:0.704506 19:0.741865 21:0.795684 23:0.786596 25:0.797448 27:0.22855 28:0.567891 32:0.543995 35:0.983774 36:0.272168 37:0.213848 38:0.925516 39:0.661095 40:0.299298 41:0.250806 42:0.71585 44:0.220483 52:0.244622 56:0.206821 62:0.452385 64:0.24134 66:0.149914 67:0.244272 72:0.301732 81:0.673 
0.5 1:0.556034 2:0.224545 3:0.441674 4:0.716466 5:0.152494 6:0.474792 7:0.827786 8:0.474202 9:0.442475 10:0.562111 11:0.280507 12:0.846544 13:0.715866 14:0.311146 16:0.704506 17:0.206465 19:0.494251 21:0.809376 23:0.46604 25:0.45234 27:0.232483 28:0.567891 32:0.540535 35:0.938955 36:0.276852 37:0.217528 38:0.88732 39:0.137307 40:0.304449 41:0.255121 42:0.475808 44:0.224277 52:0.248832 56:0.21038 62:0.430375 64:0.245493 66:0.152494 67:0.248475 73:0.139921 81:0.684582 
0.5 1:0.225176 2:0.446215 3:0.522841 4:0.80091 5:0.163424 6:1 7:0.608517 8:0.683031 9:0.402243 10:0.911667 11:0.300611 12:0.468001 13:0.698067 16:0.722469 17:0.221263 19:0.337954 21:0.867387 23:0.76328 25:0.666669 27:0.249146 28:0.414251 32:0.589052 33:0.249792 35:0.759952 36:0.296695 38:0.827971 39:0.559324 40:0.32627 42:0.742226 46:0.243323 52:0.266666 56:0.225459 62:0.360988 64:0.263088 66:0.163424 67:0.133142 73:0.149949 81:0.733648 
0.5 1:0.505573 2:0.466841 3:0.546927 4:0.521394 6:0.617964 7:0.692044 8:0.401879 9:0.271895 10:0.599461 12:0.704105 13:0.84112 16:0.501446 17:0.241297 19:0.4547 21:0.315308 23:0.797645 25:0.680543 26:0.277438 28:0.567891 29:0.264397 31:0.245871 32:0.55074 33:0.27241 34:0.339568 35:0.573411 37:0.508454 38:0.63071 39:0.674747 40:0.355812 42:0.71585 46:0.265355 47:0.267245 59:0.332165 60:0.259888 61:0.304345 62:0.257303 69:0.321729 77:0.279996 79:0.273618 81:0.266692 
0.4297608776466783 1:0.806982 2:0.422295 3:0.428194 4:0.568355 5:0.533989 6:0.802032 7:0.332507 8:0.735464 9:0.351928 10:1 12:0.81735 13:0.747526 15:0.645092 16:0.914194 17:0.481987 19:0.731605 20:0.360662 22:0.308403 23:0.611318 25:0.524357 28:0.92313 31:0.245561 32:0.428409 33:0.272067 35:0.457104 38:0.925516 39:1 40:0.355364 42:0.606612 47:0.533817 48:0.282273 49:0.325995 50:0.336361 57:0.244285 62:0.658451 63:0.706819 66:0.533989 73:0.326641 77:0.279644 78:0.283699 
0.1115920943070537 1:0.738319 2:0.404004 3:0.457193 4:0.892165 5:0.360072 6:0.971888 7:0.583999 8:0.531047 9:0.614149 10:0.684055 12:0.596659 13:1 15:0.652483 16:0.82888 17:0.487509 19:0.98055 20:0.364794 22:0.311937 23:0.710826 25:0.717032 28:0.787378 31:0.49675 32:0.279046 33:0.275184 35:0.702599 38:1 39:0.426336 40:0.359436 42:0.742226 47:0.539933 48:0.285507 49:0.32973 50:0.340215 57:0.247084 59:0.167774 62:0.640768 63:0.714917 66:0.360072 67:0.146676 73:0.330384 77:0.282848 78:0.286949 
0.5 1:0.656164 2:0.441923 3:0.355445 4:0.337099 5:0.269024 6:0.869764 7:0.205241 8:0.635603 9:0.433475 10:1 12:0.809332 13:0.633454 16:0.704506 17:0.182119 19:0.601474 20:0.545105 23:0.591244 25:0.818215 26:0.418792 28:0.653465 29:0.199554 30:0.189541 32:0.696331 36:0.244206 37:0.191878 38:0.733644 39:0.876529 42:0.805478 49:0.246355 59:0.125351 62:0.355524 68:0.545105 69:0.242825 73:0.123421 75:0.217166 78:0.214391 
0.5 1:1 2:0.619707 3:0.524522 4:0.684056 6:0.90245 7:0.851809 8:0.474202 9:0.424301 10:0.982526 12:0.773597 13:0.698067 16:0.704506 17:0.726437 19:0.938269 21:0.316417 23:0.311364 25:0.789998 28:0.909246 29:0.795981 31:0.246735 32:0.156426 33:0.273368 35:1 36:0.324697 38:0.563198 39:0.597876 42:0.765568 47:0.804555 50:0.675939 53:0.284596 57:0.245453 59:1 61:0.305415 62:0.145283 63:0.236733 65:0.21605 67:0.582833 71:0.264528 73:0.164101 78:0.570111 79:0.549161 81:0.26763 
0.3050279292961625 1:1 2:0.164339 3:0.398801 4:0.468494 6:0.802032 7:1 8:0.652366 9:0.279208 10:1 12:0.596659 13:0.831443 16:0.914194 19:0.938269 22:0.350743 23:0.311364 25:0.717032 26:0.31513 28:1 29:0.300317 31:0.837821 32:0.323082 33:0.309418 35:0.983774 38:0.277914 39:0.876529 42:0.551561 47:0.303552 48:0.321025 50:0.382539 53:0.322127 57:0.833466 59:0.188646 60:0.295195 61:0.345692 62:0.477425 63:0.267952 65:0.244542 68:0.410176 69:0.365438 70:0.41095 71:0.299413 73:0.185742 74:0.322402 77:0.318035 80:0.303552 
0.5 1:0.474073 2:0.477183 3:0.281658 4:0.746546 6:0.72812 7:0.497686 8:0.356731 9:0.378654 10:0.819733 12:0.596659 13:0.761744 14:0.323452 16:0.754422 19:0.709299 22:0.274666 23:0.39797 25:0.402872 28:0.615252 31:0.218699 32:0.593152 33:0.242305 35:0.501013 37:0.452263 38:0.733644 39:0.646681 42:0.629396 44:0.466294 45:0.605298 47:0.237711 57:0.217562 62:0.340609 63:0.209833 71:0.23447 74:0.252472 79:0.486759 80:0.237711 
0.5 1:0.436136 2:0.74391 3:0.286718 4:0.967048 5:0.16259 6:0.72812 7:0.332507 8:0.233998 9:0.490634 10:0.460576 12:0.730048 13:0.633454 15:0.294627 16:0.768771 19:0.579701 24:0.214854 25:0.797448 27:0.247874 28:0.615252 32:0.341227 33:0.248518 35:0.604021 38:0.859032 41:0.272012 42:0.776304 44:0.239125 48:0.25784 60:0.237094 62:0.33607 64:0.261746 66:0.16259 69:0.293512 70:0.330066 78:0.259143 79:0.49924 81:0.243301 82:0.333941 
0.3746179731705622 1:0.576918 2:0.539664 3:0.370083 4:0.967048 6:0.748966 7:0.692044 8:0.504135 9:0.339121 10:0.762156 12:0.809332 13:0.747526 16:0.722469 18:0.241756 19:0.731605 20:0.716744 21:0.312912 23:0.257301 25:0.727808 26:0.27533 27:0.26964 28:0.787378 32:0.700891 34:0.336988 35:0.722945 38:1 39:0.646681 41:0.295897 42:0.606612 49:0.323926 50:0.334225 52:0.288602 56:0.244004 59:0.16482 62:0.137824 64:0.284729 67:0.576376 68:0.358372 70:0.359049 73:0.162284 78:0.281898 79:0.271539 81:0.264666 
0.1467675350105531 1:0.691346 2:0.565089 3:0.55598 4:0.892165 6:0.679642 7:1 8:1 9:0.331456 10:0.762156 12:0.542511 13:1 14:0.613126 16:0.663309 17:0.203424 18:0.205371 19:0.98055 23:0.797645 24:0.198545 25:0.45234 28:0.539167 32:0.664676 35:0.983774 36:0.272774 37:0.214324 38:1 39:0.790649 40:0.299964 42:0.71585 44:0.441947 47:0.225299 48:0.238267 52:0.245166 56:0.207281 61:0.256575 62:0.271936 64:0.483753 65:0.181501 66:0.150248 69:0.542463 70:0.305011 80:0.225299 
0.5 1:0.576918 2:0.734324 3:0.454362 4:0.521394 5:0.148257 6:0.275234 7:0.851809 8:0.598542 9:0.58402 10:0.792816 12:1 13:0.949765 14:0.302502 16:1 17:0.802915 19:0.741865 22:0.256876 23:0.76328 25:0.552292 27:0.226024 28:0.685498 29:0.219945 31:0.204533 32:0.579668 33:0.226611 35:0.604021 37:0.422969 38:0.710873 39:0.458972 42:0.475808 43:0.132995 47:0.222314 49:0.543057 52:0.241919 57:0.20347 59:0.552639 62:0.253759 66:0.148257 67:0.120786 69:0.535276 73:0.680166 79:0.227616 
0.5 1:0.474073 2:0.661466 3:0.580311 4:0.684056 5:0.152979 6:0.768063 7:0.672999 8:0.652366 9:0.483349 10:0.843721 12:0.689751 13:0.698067 16:0.639297 19:0.555173 22:0.795173 23:0.39797 25:0.727808 26:0.238144 28:0.615252 31:0.211048 32:0.438737 35:0.501013 37:0.218221 38:0.477302 39:0.81494 41:0.255934 42:0.701256 46:0.227773 49:0.280177 50:0.578172 52:0.249624 53:0.243433 60:0.22308 62:0.254422 63:0.202492 65:0.184801 67:0.249266 73:0.140366 77:0.24034 78:0.243825 79:0.469731 
0.5 1:0.474073 2:0.718569 3:0.512305 4:0.521394 6:0.748966 7:0.497686 8:0.617715 9:0.221888 10:0.982526 12:0.704105 13:0.442525 14:0.359263 16:0.722469 19:0.601474 20:0.356771 21:0.311514 22:0.305076 23:0.522126 25:0.680543 28:0.737284 32:0.561902 33:0.269132 35:0.573411 36:0.319665 37:0.251168 38:0.359104 39:0.687713 42:0.580945 46:0.262162 48:0.279227 50:0.332732 53:0.280186 62:0.436932 65:0.212702 67:0.286901 69:0.317858 77:0.276627 79:0.270326 80:0.264029 81:0.263483 82:0.361641 
0.2938454557671047 1:0.711578 2:0.251046 3:0.287352 4:0.80091 5:0.144539 6:0.869764 7:0.424994 8:0.440483 9:0.494896 10:0.982526 12:0.674284 13:0.633454 16:0.806818 17:0.391388 19:0.579701 20:0.292869 22:0.250433 23:0.311364 25:0.738015 26:0.225005 28:0.92313 31:0.199403 32:0.439629 35:0.631825 38:0.843882 39:0.597876 42:0.71585 50:0.273136 57:0.198367 62:0.418819 63:0.19132 65:0.174604 66:0.144539 67:0.235513 69:0.260925 71:0.213783 73:0.265243 80:0.216738 
0.5 1:0.720925 2:0.629086 3:0.408206 4:0.610575 5:0.16016 6:0.72812 7:0.332507 8:0.555491 9:0.402803 10:0.384354 12:0.825058 13:0.94402 14:0.326787 16:0.501446 19:0.769745 23:0.710826 24:0.211643 25:0.635516 28:0.59298 29:0.237603 32:0.458043 35:0.405752 37:0.228463 38:0.811219 39:0.226483 40:0.319753 41:0.267946 42:0.776304 47:0.480324 48:0.253986 49:0.293327 50:0.605309 52:0.26134 59:0.149251 62:0.251135 64:0.257834 65:0.193475 67:0.260966 70:0.325133 73:0.146954 77:0.251621 78:0.25527 
0.5 1:0.738319 2:0.610792 3:0.503573 4:0.892165 6:0.748966 7:0.205241 8:0.531047 9:0.676703 10:0.819733 12:0.50871 13:0.949765 14:0.374165 16:0.768771 17:0.248282 19:0.98055 21:0.324435 22:0.63546 23:0.433814 25:0.598352 27:0.279569 28:0.539167 31:0.252988 32:0.300009 35:0.604021 37:0.261586 38:0.88732 39:0.661095 42:0.629396 45:0.350101 47:0.274981 49:0.335854 51:0.723867 53:0.291808 57:0.251673 59:0.17089 62:0.485275 66:0.18338 68:0.37157 69:0.331042 70:0.372271 73:0.16826 77:0.288101 
0.3941946125554245 1:0.754227 2:0.47229 3:0.402554 4:0.892165 5:0.133782 6:0.748966 7:0.851809 8:0.302359 9:0.561674 10:0.885061 12:0.50871 13:0.657246 16:0.806818 17:0.18113 19:0.670147 22:0.231795 23:0.357592 25:0.717032 28:0.685498 29:0.198471 31:0.184564 32:0.52456 35:0.938955 37:0.190836 38:0.63071 39:0.579319 40:0.267091 41:0.223817 42:0.629396 43:0.12001 47:0.401216 48:0.212156 49:0.245018 51:0.264043 59:0.249341 62:0.342771 66:0.133782 67:0.217986 77:0.42036 80:0.200608 81:0.200193 
0.04818494963221351 1:0.754227 2:0.811138 3:0.436272 4:0.892165 6:0.748966 7:0.205241 8:0.598542 9:0.349342 10:0.819733 12:0.596659 13:0.949765 14:0.33792 16:0.639297 19:0.98055 22:0.286952 23:0.39797 25:0.598352 27:0.252487 28:0.699764 29:0.245697 32:0.350801 35:0.604021 37:0.236246 38:0.88732 39:0.661095 42:0.629396 47:0.248343 49:0.30332 50:0.625929 51:0.653746 57:0.227293 59:0.154336 61:0.282819 62:0.366248 65:0.200066 66:0.165616 70:0.336209 71:0.244957 79:0.508532 
0.5 1:0.738319 2:0.568641 3:0.556209 4:0.892165 6:0.748966 7:0.381874 8:0.531047 9:0.359831 10:0.819733 12:0.50871 13:0.949765 14:0.283014 16:0.768771 19:0.98055 22:0.240327 23:0.611318 24:0.183293 25:0.598352 28:0.539167 32:0.651527 34:0.26428 35:0.604021 37:0.19786 38:0.88732 39:0.487944 40:0.276922 42:0.629396 45:0.264812 46:0.206521 48:0.219965 51:0.273762 57:0.190362 62:0.263145 72:0.279174 73:0.12727 74:0.220908 75:0.223937 77:0.217916 
0.1183793108437748 1:0.782467 2:0.488215 3:0.475866 4:0.967048 6:0.72812 7:0.884943 8:0.531047 9:0.435896 10:0.706318 12:0.50871 13:0.867754 16:0.612248 17:0.205812 18:0.207783 19:1 22:0.526762 23:0.495312 25:0.830915 26:0.236638 27:0.231748 28:0.75886 29:0.225515 31:0.419426 32:0.348695 35:0.604021 36:0.275976 38:1 39:0.513991 42:0.838821 44:0.223568 46:0.226332 53:0.241893 57:0.208623 59:0.141659 62:0.37335 66:0.152012 67:0.371535 72:0.611908 74:0.242099 75:0.245419 76:0.194795 79:0.23338 80:0.683832 
0.3885757004865398 1:0.576918 2:0.51246 3:0.482124 4:1 6:0.993291 7:0.652829 8:0.531047 9:0.278 10:0.792816 12:0.889185 13:0.732286 16:0.704506 19:0.709299 23:0.495312 24:0.231185 25:1 28:0.956011 32:0.647384 34:1 35:0.573411 38:0.811219 39:0.426336 42:0.930148 44:0.257302 47:0.262338 52:0.285472 55:0.249401 58:0.320376 60:0.255116 62:0.209117 63:0.231571 66:0.174948 71:0.258761 74:0.278628 79:0.268594 81:0.261795 
0.02072649546553784 1:0.595695 2:0.492726 3:0.489849 4:0.77461 6:0.845035 7:0.968541 8:0.833875 9:0.461321 10:1 12:0.468001 13:0.606652 16:0.612248 19:0.579701 22:0.24216 23:0.710826 25:0.75694 28:0.465116 31:0.192816 32:0.4898 34:0.532591 35:0.849772 37:0.199369 38:0.63071 39:1 42:0.830984 47:0.419156 51:0.27585 52:0.22806 58:0.255944 59:0.130245 62:0.389325 66:0.139764 71:0.413442 74:0.222592 78:0.222762 79:0.214576 
0.2432015906684255 1:1 2:0.482466 3:0.487535 4:0.77461 5:0.169916 6:0.72812 7:0.332507 8:0.474202 9:0.332694 10:0.792816 12:0.704105 13:0.867754 15:0.615808 16:0.704506 17:0.230054 19:1 22:0.294403 23:0.39797 25:0.738015 28:0.909246 32:0.427378 34:0.323746 35:0.501013 38:0.90057 39:0.597876 41:0.568539 42:0.838821 47:0.254792 48:0.269459 50:0.321092 54:0.351436 59:0.316687 62:0.232141 73:0.311813 76:0.435479 77:0.533899 79:0.521737 82:0.34899 
0.5 1:0.881666 2:0.456288 3:0.403271 4:0.684056 6:0.802032 7:0.463271 8:1 9:0.349336 10:0.894291 12:0.704105 13:0.540081 16:0.639297 18:0.20743 19:0.670147 21:0.268483 22:0.262934 23:0.797645 25:0.576692 27:0.462709 28:0.75886 30:0.427673 32:0.499052 35:0.702599 37:0.216473 38:0.710873 39:0.829951 42:0.874024 45:0.579444 51:0.299514 53:0.482964 54:0.313871 55:0.216336 58:0.277901 60:0.221293 62:0.43091 70:0.616137 74:0.241688 75:0.245003 77:0.238415 79:0.232984 80:0.227557 82:0.623371 
0.5 1:0.436136 2:0.414593 3:0.514886 4:0.684056 5:0.178971 6:0.785681 7:0.827786 8:0.401879 9:0.159558 10:0.762156 11:0.329211 12:1 13:0.633454 16:0.58128 19:0.555173 22:0.310092 23:0.495312 25:0.774176 26:0.278606 27:0.272848 28:0.685498 32:0.55678 35:0.957684 38:0.477302 39:0.426336 41:0.598836 42:0.701256 44:0.263218 47:0.26837 48:0.283818 52:0.292036 53:0.284793 55:0.255136 57:0.245622 58:0.327743 62:0.450229 68:0.362637 71:0.264711 73:0.164215 74:0.855106 80:0.53674 
0.4302567176634063 1:0.532507 2:0.546843 3:0.555736 4:0.967048 5:0.164199 6:0.869764 7:0.840009 8:0.617715 9:0.690282 10:0.631397 12:0.894597 13:0.698067 16:0.839113 17:0.222313 19:0.494251 22:0.284497 23:0.46604 24:0.216981 25:0.922239 26:0.25561 28:0.89942 30:0.231373 32:0.453533 33:0.250978 35:0.983774 38:0.859032 39:0.426336 42:1 46:0.244478 48:0.260392 49:0.300726 55:0.468154 58:0.300692 61:0.2804 62:0.390384 63:0.217343 66:0.164199 68:0.332706 70:1 73:0.150661 78:0.261708 
0.1799839701927597 1:0.951406 2:0.411472 3:0.567076 4:0.684056 5:0.169432 6:0.617964 7:0.205241 8:1 9:0.493978 10:0.875429 12:0.889185 13:0.875938 15:0.307026 16:0.722469 17:0.229397 18:0.231594 19:0.958932 22:0.293563 23:0.76328 25:0.738015 26:0.527512 28:0.956011 31:0.233745 32:0.489585 35:0.657294 38:0.686338 39:0.81494 40:0.676529 42:0.71585 46:0.252269 47:0.254065 49:0.620618 52:0.27647 53:0.539225 57:0.23253 61:0.289336 62:0.252406 73:0.155462 75:0.273543 80:0.508131 
0.5 1:0.806982 2:0.794842 3:0.635707 4:1 5:0.132787 6:0.785681 7:0.274772 8:0.440483 9:0.608222 10:0.684055 12:0.894597 13:0.678637 16:1 18:0.181505 19:0.62105 21:0.234927 25:0.680543 28:0.92313 29:0.196995 32:0.365262 33:0.40593 35:0.539365 36:0.241074 38:0.873491 39:0.388972 42:0.742226 44:0.195294 48:0.210578 50:0.250929 51:0.26208 52:0.216676 60:0.193635 62:0.250091 64:0.213768 66:0.132787 68:0.269058 69:0.239711 76:0.17016 82:0.27273 
0.5 1:1 2:0.385349 3:0.393727 4:0.568355 6:0.72812 7:0.608517 8:0.141864 9:0.453694 10:0.819733 12:0.50871 13:0.678637 16:0.612248 17:0.19921 19:0.85295 20:0.29813 23:0.357592 24:0.194432 25:0.491686 27:0.224314 28:0.725548 32:0.491799 35:0.573411 37:0.209885 38:0.63071 39:0.426336 42:0.606612 44:0.216396 45:0.280905 54:0.304318 56:0.202988 57:0.201931 62:0.403352 63:0.194757 65:0.177741 66:0.147135 67:0.119872 69:0.531226 71:0.435248 72:0.296139 77:0.231159 78:0.234511 82:0.3022 
0.5 1:0.324156 2:0.572895 3:0.557362 4:0.521394 6:0.748966 7:0.424994 8:0.555491 9:0.621365 10:0.631397 12:1 13:0.678637 14:0.312729 16:0.985373 17:0.207515 19:0.234761 23:0.611318 25:0.738015 26:0.238596 28:0.653465 31:0.211448 32:0.525121 34:0.292028 35:0.573411 38:0.63071 39:0.345275 40:0.305998 42:0.580945 44:0.225418 50:0.289634 57:0.210349 62:0.240178 66:0.15327 68:0.62112 69:0.276687 77:0.722389 81:0.229355 
0.3928292539157209 1:0.951406 2:0.538124 3:0.397002 4:1 5:0.335927 6:0.845035 7:0.424994 8:0.401879 9:0.498649 10:0.819733 12:0.542511 13:0.831443 15:0.304366 16:0.782219 19:0.938269 23:0.495312 24:0.221956 25:0.65172 26:0.261471 27:0.256067 28:0.768828 32:0.383924 34:0.320025 35:0.405752 37:0.239596 38:0.843882 39:0.487944 42:0.629396 48:0.266362 50:0.317402 55:0.239444 62:0.369764 63:0.666979 66:0.167964 69:0.303213 72:0.33806 76:0.215237 78:0.267708 79:0.257871 
0.5 1:0.436136 2:0.62297 3:0.277742 4:0.80091 6:0.579461 7:0.381874 8:0.302359 9:0.427508 10:0.706318 12:0.717498 13:0.606652 14:0.335922 16:0.985373 19:0.337954 23:0.357592 25:0.552292 28:0.567891 32:0.560356 33:0.251646 34:0.313686 35:0.657294 38:0.733644 39:0.388972 42:0.517195 43:0.147688 46:0.490258 48:0.261086 49:0.301526 60:0.240078 62:0.455318 66:0.164636 69:0.297206 77:0.258654 80:0.246875 81:0.246364 
0.3753809138409462 1:0.806982 2:0.559586 3:0.321337 4:0.684056 6:0.768063 7:0.332507 8:0.779267 9:0.336219 10:0.762156 12:0.853222 13:0.606652 16:0.985373 19:0.62105 21:0.288643 22:0.565355 23:1 25:0.617827 28:0.92313 31:0.450155 32:0.471426 34:0.310852 35:0.501013 36:0.296196 38:0.563198 39:0.661095 42:0.701256 45:0.622954 50:0.308303 52:0.266218 58:0.298768 62:0.415135 65:0.197086 66:0.163149 68:0.330577 73:0.149697 77:0.512634 
0.5 1:0.806982 2:0.723819 3:0.275158 4:0.521394 6:0.802032 7:0.274772 8:0.302359 9:0.544026 10:0.631397 12:0.894597 13:0.715866 16:0.663309 17:0.434206 19:0.731605 20:0.324909 21:0.283694 23:0.495312 25:0.782249 27:0.244462 28:0.92313 30:0.451902 32:0.412781 33:0.245096 35:0.604021 37:0.228737 38:0.710873 39:0.388972 42:0.874024 44:0.235833 49:0.293678 51:0.316483 52:0.261653 53:0.255163 54:0.331653 57:0.220068 60:0.23383 62:0.504987 63:0.21225 69:0.289471 74:0.255381 75:0.258883 78:0.255575 81:0.239952 
0.5 1:0.474073 2:0.71478 3:0.233023 4:0.521394 5:0.160621 6:0.617964 7:0.463271 8:0.531047 9:0.468796 10:0.517129 12:0.50871 13:0.540081 16:0.806818 19:0.527092 21:0.284171 23:0.357592 25:0.402872 26:0.250041 28:0.505573 29:0.476576 32:0.525691 35:0.573411 38:0.659743 39:0.345275 42:0.423774 46:0.239151 48:0.254719 50:0.303527 52:0.262094 53:0.255593 62:0.337059 65:0.582098 66:0.160621 77:0.252346 80:0.240854 81:0.480712 82:0.329899 
0.5 1:0.806982 2:0.380636 3:0.45181 4:0.251796 5:0.317569 6:0.679642 7:0.424994 8:0.598542 9:0.619806 10:0.684055 12:0.889185 13:0.657246 14:0.647963 16:0.754422 17:0.214982 19:0.638831 21:0.280921 23:0.797645 24:0.209825 25:0.552292 28:0.904394 29:0.235563 31:0.219056 32:0.465055 35:0.501013 37:0.226501 38:0.598748 39:0.579319 42:0.551561 45:0.303144 47:0.2381 48:0.251805 53:0.50534 57:0.435836 58:0.290776 62:0.447637 64:0.25562 67:0.129363 68:0.321734 69:0.286642 78:0.253078 79:0.243778 80:0.2381 81:0.237607 
0.5 1:0.505573 2:0.597137 3:0.715868 4:0.825655 6:0.617964 7:0.424994 8:0.735464 9:0.495251 10:1 11:0.297135 12:0.674284 13:0.747526 15:0.292714 16:0.914194 19:0.731605 21:0.57157 23:0.611318 25:0.782249 26:0.251461 27:0.738792 28:0.685498 29:0.239641 32:0.586697 33:0.246903 35:0.343908 36:0.293263 37:0.230423 38:0.925516 39:1 42:0.685532 49:0.295844 50:0.305251 55:0.230277 56:0.445702 60:0.235554 62:0.201695 70:0.655844 71:0.23892 73:0.148215 76:0.206997 77:0.253779 78:0.514919 79:0.247999 
0.5 1:0.628374 2:0.451234 3:0.430169 4:0.521394 6:0.533091 7:0.710081 8:0.798738 9:0.335831 10:0.949927 12:0.674284 13:0.925787 16:0.754422 19:0.741865 20:0.336483 23:0.611318 25:0.524357 28:0.240139 32:0.393558 34:0.949214 35:0.849772 38:0.659743 39:1 42:0.606612 44:0.244234 50:0.313811 60:0.242159 62:0.345387 66:0.166063 72:0.334235 77:0.260896 79:0.254953 
0.3755079794334604 1:0.720925 2:0.414235 3:0.311558 4:0.568355 6:0.768063 7:0.672999 8:0.946372 9:0.278727 10:0.875429 12:0.753007 13:0.540081 14:0.297115 15:0.263871 16:0.768771 17:0.197154 19:0.4547 21:0.515251 23:1 25:0.3362 26:0.226683 27:0.221999 28:0.505573 29:0.216028 31:0.602673 32:0.347833 33:0.222575 35:0.604021 38:0.563198 39:0.81494 42:0.742226 45:0.278006 59:0.407098 60:0.212344 62:0.532419 66:0.145617 67:0.118635 73:0.133611 77:0.457547 78:0.464182 81:0.435807 
0.5 1:0.474073 2:0.64533 3:0.541234 4:0.80091 5:0.281819 6:0.831583 7:0.672999 8:0.440483 9:0.477031 10:0.659292 12:0.704105 13:0.633454 14:0.28751 15:0.255341 16:0.545063 19:0.601474 20:0.285515 21:0.249297 23:0.433814 25:0.680543 28:0.737284 31:0.194397 32:0.655491 33:0.21538 35:0.604021 38:0.827971 39:0.292648 42:0.423774 47:0.211296 49:0.258072 53:0.224226 55:0.200876 57:0.193386 59:0.131312 60:0.205479 62:0.501235 63:0.373032 66:0.563638 67:0.688799 69:0.254374 74:0.224417 78:0.449176 
0.5 1:0.474073 2:0.585925 3:0.5663 4:0.825655 6:0.748966 7:0.710081 8:0.555491 9:0.614805 10:0.982526 12:0.674284 13:0.633454 15:0.244816 16:0.839113 19:0.579701 21:0.239021 23:0.39797 25:0.680543 26:0.210314 28:0.685498 29:0.200428 30:0.380744 32:0.523076 35:0.849772 37:0.192718 38:0.843882 39:0.687713 40:0.269726 42:0.71585 43:0.121194 49:0.494869 54:0.279429 60:0.19701 61:0.230711 62:0.328019 66:0.135101 75:0.218118 76:0.346252 78:0.430662 
0.442546069007809 1:0.628374 2:0.63561 3:0.486631 4:0.983848 6:0.964281 7:0.463271 8:0.735464 9:0.529244 10:0.819733 12:0.894597 13:0.831443 15:0.248449 16:0.806818 17:0.742524 19:0.579701 22:0.237555 23:0.611318 25:0.922239 28:0.685498 29:0.203402 32:0.518201 33:0.419132 35:0.539365 38:0.843882 39:0.615189 40:0.547455 42:0.930148 52:0.223723 59:0.511072 60:0.199933 62:0.387854 67:0.335103 69:0.247508 73:0.503206 74:0.21836 76:0.175695 79:0.210496 
0.5 1:0.38844 2:0.616696 3:0.5116 4:0.892165 6:0.679642 7:0.608517 8:0.440483 9:0.688167 10:0.819733 11:0.278099 12:0.571414 13:0.496862 16:0.839113 17:0.204693 19:0.527092 22:0.523897 23:0.611318 25:0.524357 26:0.235351 28:0.345696 32:0.37396 34:0.288056 35:0.501013 37:0.431322 38:0.423681 39:0.487944 42:0.742226 45:0.288636 47:0.453409 51:0.298391 56:0.208574 59:0.140888 61:0.258176 62:0.286272 67:0.123171 70:0.306914 71:0.447227 75:0.244084 77:0.237521 78:0.240965 79:0.464221 81:0.226235 
0.3709762330826193 1:1 2:0.742669 3:0.565599 4:0.468494 5:0.170853 6:0.964281 7:0.424994 8:0.635603 9:0.398181 10:0.832053 12:1 13:0.821304 16:0.58128 19:0.85295 23:0.522126 25:1 26:0.265969 27:0.520945 28:1 29:0.253467 32:0.566565 33:0.261149 35:0.405752 37:0.243717 38:0.277914 39:0.426336 40:0.341103 41:0.571674 42:0.90952 44:0.251279 45:0.326186 51:0.33721 53:0.271875 57:0.234481 58:0.312877 59:0.159217 62:0.303627 63:0.678453 73:0.156766 74:0.816319 
0.3078472701960168 1:0.738319 2:0.428882 3:0.539679 4:0.871148 5:0.159817 6:0.72812 7:0.381874 8:0.683031 9:0.536377 10:1 12:0.846544 13:0.657246 16:0.612248 17:0.21638 19:0.670147 23:0.76328 25:0.782249 28:0.699764 29:0.237095 32:0.368218 35:0.343908 36:0.580294 37:0.227974 38:0.873491 39:0.559324 42:0.701256 47:0.239648 48:0.253443 50:0.302007 58:0.292667 59:0.297864 62:0.535901 66:0.159817 67:0.260408 73:0.29328 76:0.204798 79:0.245363 
0.5 1:0.505573 2:0.486601 3:0.454024 4:0.610575 5:0.166802 6:0.650886 7:0.424994 8:0.683031 9:0.462144 10:0.726541 12:0.50871 13:0.657246 16:0.704506 17:0.225837 19:0.731605 23:0.39797 24:0.220421 25:0.402872 28:0.615252 29:0.247457 32:0.395792 35:0.405752 38:0.811219 39:0.458972 42:0.629396 47:0.750368 48:0.26452 50:0.315207 53:0.265429 55:0.237788 57:0.228922 58:0.305459 59:0.466325 62:0.331721 63:0.220789 67:0.27179 68:0.33798 76:0.213749 80:0.250123 
0.5 1:0.951406 2:0.551614 3:0.627716 4:0.746546 5:0.199243 6:0.845035 7:0.78825 8:0.798738 9:0.705666 10:0.726541 12:0.753007 13:0.775069 16:0.612248 19:1 20:0.403713 21:0.352501 22:0.345216 23:0.39797 25:0.75694 28:0.653465 31:0.274873 32:0.426601 35:0.957684 36:0.361725 38:0.733644 39:0.559324 41:1 42:0.830984 51:0.786487 53:0.634103 57:0.273444 59:0.185673 61:0.340245 62:0.373609 63:0.26373 68:0.403713 73:0.182816 79:0.305894 
0.5 1:0.628374 2:0.542052 3:0.644707 4:0.746546 6:0.869764 7:0.608517 8:0.504135 9:0.450523 10:0.684055 12:0.730048 13:0.732286 16:0.612248 19:0.4547 20:0.298715 23:0.495312 25:0.576692 26:0.229496 28:0.713074 29:0.218709 32:0.473206 33:0.450674 34:0.280891 35:0.604021 36:0.267647 38:0.359104 39:0.579319 41:0.24664 42:0.668487 47:0.221065 49:0.270003 50:0.278588 62:0.15223 65:0.17809 69:0.266134 73:0.135269 77:0.231612 78:0.234971 79:0.226337 
0.5 1:0.38844 2:0.495318 3:0.545412 4:0.684056 5:0.322602 6:0.881189 7:0.884943 8:0.302359 9:0.501155 10:0.982526 12:0.619069 13:0.540081 14:0.329116 16:0.58128 17:0.218389 19:0.337954 23:0.357592 25:0.576692 26:0.251099 27:0.245909 28:0.414251 30:0.227289 31:0.222528 32:0.362632 35:1 38:0.359104 39:0.597876 42:0.701256 50:0.304811 57:0.221371 62:0.250948 63:0.427014 66:0.161301 69:0.291185 75:0.260416 77:0.506828 79:0.247641 81:0.482746 
0.5 1:0.768882 2:0.473452 3:0.507979 4:0.521394 5:0.322498 6:0.579461 7:0.884943 8:0.598542 9:0.523147 10:0.517129 12:0.50871 13:0.84112 14:0.32901 16:0.867169 17:0.218318 19:0.697105 23:0.76328 25:0.3362 26:0.251018 27:0.24583 28:0.787378 30:0.227216 31:0.222457 32:0.34104 35:0.849772 38:0.63071 39:0.226483 42:0.551561 50:0.304713 57:0.2213 62:0.247583 63:0.426876 66:0.161249 69:0.291091 75:0.260332 77:0.253332 79:0.247562 81:0.482591 
0.5 1:0.532507 2:0.312821 3:0.482579 4:0.684056 5:0.319905 6:0.533091 7:0.884943 8:0.356731 9:0.456758 10:0.706318 12:0.81735 13:0.540081 16:0.704506 17:0.216563 19:0.638831 20:0.3241 23:0.433814 25:0.717032 26:0.248999 27:0.243853 28:0.89942 30:0.225389 31:0.220668 32:0.248774 35:0.604021 36:0.290392 38:0.859032 39:0.513991 42:0.423774 50:0.302263 57:0.219521 62:0.260897 63:0.423444 65:0.193224 66:0.159952 68:0.3241 69:0.288751 75:0.258239 77:0.251295 79:0.245571 81:0.239355 
0.5 1:0.505573 2:0.442981 3:0.409599 4:1 5:0.133527 6:0.993291 7:0.463271 8:0.531047 9:0.316107 10:0.659292 12:0.894597 13:0.732286 16:0.768771 18:0.182517 19:0.555173 20:0.270557 22:0.231354 23:0.433814 25:0.922239 28:0.685498 32:0.482407 33:0.204096 35:0.631825 36:0.242418 38:0.811219 39:0.487944 41:0.223391 42:0.930148 48:0.211752 55:0.190353 57:0.549764 60:0.194714 61:0.228023 62:0.573287 63:0.706978 65:0.161303 66:0.133527 68:0.270557 73:0.122518 77:0.20978 
0.5 1:0.576918 2:0.493346 3:0.266139 4:0.892165 5:0.145445 6:0.993291 7:0.840009 8:0.531047 9:0.453077 10:0.684055 12:0.50871 13:0.633454 14:0.593529 16:0.704506 17:0.196922 18:0.397614 19:0.601474 21:0.257322 23:0.797645 25:0.45234 26:0.226416 28:0.653465 32:0.596562 34:0.277121 35:0.849772 38:0.827971 39:0.458972 41:0.243329 42:0.629396 44:0.213911 45:0.555356 46:0.43311 56:0.200656 59:0.135539 62:0.461241 67:0.118495 75:0.469635 77:0.228504 78:0.231817 79:0.223299 81:0.217646 
0.5 1:0.691346 2:0.697708 3:0.566678 4:0.684056 6:0.802032 7:0.381874 8:0.555491 9:0.469659 10:0.762156 12:0.542511 13:0.925787 16:0.612248 17:0.399044 19:0.98055 23:0.39797 25:0.617827 27:0.224665 28:0.539167 32:0.622233 35:1 38:0.859032 39:0.687713 42:0.776304 43:0.396587 45:0.281345 56:0.203305 58:0.269866 62:0.343544 71:0.217965 77:0.231521 81:0.22052 
0.5 1:0.720925 2:0.224433 3:0.434101 4:1 5:0.156791 6:0.785681 7:0.332507 8:0.474202 9:0.574942 10:0.460576 12:0.773597 13:0.94402 16:0.867169 17:0.212283 18:0.214315 19:0.911006 20:0.317694 23:0.39797 25:0.797448 26:0.244078 27:0.239034 28:0.909246 30:0.220934 31:0.216306 32:0.513726 33:0.479308 35:0.501013 36:0.284653 38:1 39:0.597876 40:0.313028 42:0.814341 44:0.461194 49:0.287158 57:0.215182 59:0.146112 62:0.264434 63:0.415074 64:0.25241 65:0.189405 66:0.156791 70:0.318294 71:0.231905 75:0.253135 80:0.470221 
0.4906362140381751 1:0.576918 2:0.586538 3:0.209667 4:0.521394 5:0.345545 6:0.617964 7:0.884943 8:1 9:0.352568 10:0.894291 12:1 13:0.633454 16:0.501446 17:0.233921 19:0.4547 21:0.305669 23:0.76328 25:0.552292 26:0.268957 28:0.685498 31:0.238355 32:0.607587 35:0.849772 36:0.313668 37:0.246455 38:0.733644 39:0.829951 40:0.344935 42:0.475808 45:0.32985 49:0.316428 53:0.274929 59:0.161005 62:0.447648 63:0.228692 66:0.172773 67:0.140759 71:0.255543 73:0.158527 74:0.82549 81:0.517079 
0.5 1:0.436136 2:0.558025 3:0.303904 4:0.684056 5:0.155734 6:0.72812 7:0.583999 8:0.555491 9:0.478896 10:0.885061 12:0.571414 13:0.606652 14:0.317758 16:0.806818 19:0.404974 23:0.522126 25:0.45234 26:0.484865 28:0.414251 32:0.7102 35:0.631825 36:0.282734 37:0.22215 38:0.733644 39:0.579319 41:0.521085 42:0.629396 44:0.229043 46:0.231874 49:0.285222 58:0.57038 62:0.485744 63:0.206138 65:0.188129 81:0.233043 
0.5 1:0.505573 2:0.535642 3:0.644138 4:0.610575 5:0.126387 6:0.993291 7:0.381874 8:0.531047 9:0.412952 10:0.599461 11:0.232483 12:0.468001 13:0.775069 16:0.839113 17:0.171118 19:0.527092 22:0.218982 23:0.76328 25:0.717032 28:0.505573 29:0.187499 31:0.348722 32:0.679349 35:0.604021 37:0.180287 38:0.88732 39:0.597876 41:0.211444 42:0.629396 44:0.371761 50:0.238833 52:0.206231 59:0.117779 62:0.32743 63:0.167292 66:0.252773 67:0.102968 74:0.201287 75:0.204048 77:0.198561 79:0.194038 
0.5 1:0.474073 2:0.565545 3:0.348205 4:0.568355 6:0.869764 7:0.692044 8:0.849849 9:0.512278 10:0.517129 12:0.416821 13:0.84112 16:1 17:0.226002 19:0.697105 21:0.590644 22:0.578437 23:0.680972 25:0.402872 28:0.465116 32:0.418568 35:0.822681 37:0.238112 38:0.63071 39:0.674747 42:0.606612 45:0.318684 47:0.50061 52:0.272378 59:0.155555 61:0.570107 62:0.351295 67:0.67997 71:0.246892 72:0.335968 73:0.153161 78:0.266051 79:0.256274 80:0.250305 
0.3634845427253182 1:0.576918 2:0.742409 3:0.119944 4:0.568355 6:0.617964 7:0.463271 8:0.598542 9:0.325952 10:0.935409 12:0.846544 13:0.715866 16:0.722469 17:0.388539 19:0.731605 20:0.290737 21:0.253856 23:0.522126 24:0.18961 25:0.782249 26:0.223367 28:0.699764 29:0.212868 31:0.197952 32:0.404778 33:0.219319 35:0.501013 38:0.733644 39:0.597876 42:0.685532 50:0.542294 55:0.20455 59:0.133714 60:0.209237 61:0.24503 62:0.721234 67:0.233799 76:0.183871 79:0.220291 82:0.294705 
0.5 1:0.881666 2:0.43132 3:0.256887 4:0.568355 6:0.617964 7:0.332507 8:0.531047 9:0.283464 10:0.935409 12:0.730048 13:0.657246 15:0.308504 16:0.768771 17:0.230502 19:0.670147 23:0.710826 25:0.402872 26:0.265026 28:0.904394 32:0.622433 35:0.501013 38:0.563198 39:0.458972 40:0.339893 42:0.245659 44:0.250388 46:0.506966 47:0.255289 48:0.269984 50:0.321717 52:0.277801 62:0.278198 63:0.225349 66:0.170247 72:0.342657 76:0.218163 
0.2587465399347121 1:0.881666 2:0.695286 3:0.346721 4:0.746546 5:0.173093 6:0.948261 7:0.424994 8:0.531047 9:0.312913 10:0.745066 12:0.894597 13:0.633454 15:0.31366 16:0.82888 17:0.468708 18:0.236598 19:0.741865 23:0.630206 24:0.228733 25:0.782249 28:0.92313 32:0.30556 33:0.264572 35:0.539365 38:0.733644 39:0.579319 40:0.691148 42:0.874024 47:0.259556 49:0.317014 53:0.275439 54:0.358006 57:0.237555 59:0.161304 60:0.25241 62:0.290248 63:0.458231 66:0.346186 67:0.14102 70:0.351388 73:0.317642 75:0.279454 77:0.27194 
0.5 1:0.324156 2:0.690266 3:0.51858 4:0.931278 5:0.326326 6:0.785681 7:0.381874 8:1 9:0.357932 10:0.819733 12:0.894597 13:0.496862 14:0.332916 16:0.985373 17:0.22091 19:0.337954 21:0.577337 23:0.724768 25:0.782249 28:0.59298 32:0.515763 35:0.405752 37:0.232748 38:0.827971 39:0.790649 42:0.874024 47:0.244666 48:0.258749 49:0.298828 50:0.924991 52:0.266241 53:0.259638 57:0.223927 62:0.458998 63:0.431944 65:0.197103 67:0.13293 68:0.330606 78:0.520114 
0.1904684422497878 1:0.951406 2:0.298998 3:0.622142 4:0.77461 6:0.845035 7:0.332507 8:0.946372 9:0.643258 10:0.819733 11:0.326374 12:0.894597 13:0.867754 16:0.446607 17:0.48045 19:1 23:0.786596 25:0.922239 28:0.89942 30:0.250015 32:0.126739 35:0.501013 36:0.644243 37:0.253097 38:0.90057 39:0.790649 42:0.830984 48:0.281373 49:0.324956 52:0.28952 55:0.252937 57:0.487012 58:0.324919 59:0.165345 61:0.302993 62:0.312587 64:0.285635 71:0.26243 78:0.282794 79:0.272402 81:0.265507 
0.5 1:0.656164 2:0.410435 3:0.290899 4:0.337099 6:0.831583 7:0.424994 8:0.356731 9:0.551583 10:0.894291 12:0.571414 13:0.949765 14:0.31596 16:0.768771 19:0.769745 20:0.313768 23:0.357592 25:0.233542 27:0.23608 28:0.414251 31:0.213633 32:0.60321 33:0.473385 34:0.590091 35:0.573411 36:0.281135 38:0.710873 39:0.458972 41:0.259069 42:0.245659 44:0.227747 47:0.232205 48:0.245571 49:0.567218 50:0.292627 56:0.213635 57:0.425045 59:0.144306 60:0.225812 62:0.518542 65:0.374129 67:0.12616 71:0.229039 72:0.311673 77:0.243284 78:0.493624 81:0.231724 
0.5 1:1 2:0.614651 3:0.472462 4:0.716466 6:0.90245 7:0.332507 8:0.401879 9:0.498474 10:0.792816 12:0.619069 13:0.867754 16:0.639297 17:0.216035 18:0.218103 19:1 23:0.495312 24:0.421706 25:0.693487 28:0.725548 29:0.236716 31:0.220129 32:0.482539 35:0.457104 38:0.90057 39:0.597876 42:0.90952 43:0.143136 44:0.234673 45:0.304629 47:0.239266 53:0.253907 54:0.660041 55:0.227467 58:0.2922 59:0.148695 61:0.272482 62:0.294707 66:0.159562 74:0.254124 76:0.204471 82:0.327723 
0.5 1:0.951406 2:0.467379 3:0.450182 4:0.80091 5:0.566423 6:0.617964 7:0.332507 8:0.635603 9:0.221338 10:0.894291 12:0.730048 13:0.698067 16:1 17:0.255631 19:0.85295 22:0.327135 23:0.522126 24:0.2495 25:0.402872 28:0.956011 31:0.520953 32:0.448677 35:0.501013 38:0.423681 39:0.388972 42:0.353642 44:0.277685 47:0.28312 48:0.299417 53:0.300445 61:0.322424 62:0.401582 63:0.249917 66:0.377615 67:0.153823 68:0.765136 73:0.17324 75:0.304825 78:0.30093 
0.5 1:0.532507 2:0.457767 3:0.593499 4:0.521394 5:0.156071 6:0.802032 7:0.710081 8:0.531047 9:0.594419 10:0.885061 12:0.894597 13:0.540081 16:0.768771 19:0.337954 23:0.433814 25:0.782249 27:0.475871 28:0.89942 32:0.417006 35:1 36:0.283345 38:0.523151 39:0.388972 40:0.31159 42:0.874024 45:0.297963 47:0.23403 48:0.247502 49:0.285839 57:0.214193 62:0.41385 63:0.413168 71:0.23084 72:0.314123 73:0.143202 79:0.239611 
0.5 1:0.505573 2:0.735186 3:0.381743 4:0.967048 6:0.396218 7:0.381874 8:0.598542 9:0.427336 10:0.517129 11:0.291474 12:0.596659 13:0.698067 14:0.323311 16:0.704506 17:0.429074 19:0.638831 21:0.28034 22:0.274547 23:0.357592 24:0.209392 25:0.598352 28:0.699764 31:0.218604 32:0.613516 33:0.242199 35:0.604021 38:0.859032 39:0.661095 40:0.316352 41:0.530192 42:0.685532 43:0.142144 46:0.235927 55:0.22589 56:0.218605 58:0.290175 61:0.270593 62:0.310313 66:0.158456 74:0.252362 77:0.497889 79:0.243274 82:0.325451 
0.5 1:0.754227 2:0.378754 3:0.475562 4:0.77461 5:0.158791 6:0.785681 7:0.463271 8:0.555491 9:0.442087 10:0.792816 12:0.34784 13:0.442525 16:0.639297 19:0.670147 21:0.280933 23:0.433814 24:0.419668 25:0.3362 27:0.242083 28:0.465116 29:0.235572 31:0.438131 32:0.373097 34:0.302548 35:0.501013 36:0.288284 38:0.523151 39:0.345275 40:0.317021 41:0.265656 42:0.551561 50:0.300068 55:0.452735 56:0.219067 59:0.147976 61:0.542329 62:0.276853 66:0.476372 71:0.234863 76:0.203482 81:0.237617 82:0.326139 
0.5 1:0.768882 2:0.44936 3:0.462207 4:0.892165 5:0.131334 6:0.72812 7:0.381874 8:0.401879 9:0.502078 10:0.819733 12:0.468001 13:0.761744 16:0.704506 19:0.709299 21:0.232357 23:0.257301 25:0.45234 28:0.787378 29:0.389679 31:0.181187 32:0.585433 34:0.250235 35:0.604021 37:0.187345 38:0.523151 39:0.426336 42:0.629396 44:0.193157 47:0.393876 51:0.259213 59:0.244779 62:0.47798 66:0.131334 67:0.320997 68:0.266114 70:0.266616 72:0.264337 77:0.206335 78:0.209327 80:0.196938 
0.5 1:0.711578 2:0.800698 3:0.51409 4:0.468494 5:0.156001 6:0.679642 7:0.528946 8:0.531047 9:0.382612 10:0.684055 12:0.889185 13:0.633454 14:0.636605 15:0.282689 16:0.612248 17:0.211213 18:0.213236 19:0.62105 23:0.495312 25:0.774176 26:0.485697 28:0.904394 32:0.505935 35:0.539365 38:0.563198 39:0.458972 41:0.260989 42:0.685532 53:0.992964 54:0.322656 62:0.16342 63:0.206492 68:0.632189 70:0.316691 76:0.199908 77:0.245088 
0.5 1:0.556034 2:0.521348 3:0.603717 4:0.521394 6:0.396218 7:0.851809 8:0.598542 9:0.561005 10:0.762156 12:0.619069 13:0.369291 15:0.238582 16:0.722469 18:0.179966 19:0.555173 23:0.76328 25:0.576692 27:0.200722 28:0.414251 32:0.428575 33:0.201244 35:0.849772 36:0.23903 38:0.359104 39:0.646681 42:0.701256 43:0.118108 46:0.196032 48:0.208792 50:0.497601 53:0.209509 55:0.187692 62:0.294805 63:0.174274 65:0.318096 67:0.21453 72:0.264994 74:0.209688 77:0.206848 
0.5 1:0.656164 2:0.476101 3:0.37482 4:0.684056 6:0.881189 7:0.332507 8:0.504135 9:0.444961 10:0.726541 12:0.809332 13:0.875938 16:0.722469 17:0.220469 19:0.601474 20:0.329946 23:0.311364 24:0.430362 25:0.848523 26:0.25349 27:0.248251 28:0.653465 29:0.241575 31:0.224648 32:0.235968 33:0.248896 34:0.310258 35:0.539365 37:0.232283 38:0.827971 39:0.458972 42:0.786502 48:0.258232 57:0.67044 59:0.303493 62:0.314211 63:0.431081 64:0.524288 65:0.196709 67:0.132664 74:0.25934 79:1 
0.5 1:0.38844 2:0.489587 3:0.392947 4:0.684056 6:0.748966 7:1 8:0.401879 9:0.614335 10:0.843721 12:0.730048 13:0.747526 16:0.722469 17:0.206236 19:0.527092 21:0.269493 23:0.495312 24:0.20129 25:0.402872 28:0.653465 30:0.214641 31:0.210145 32:0.654188 35:0.874641 38:1 39:0.458972 42:0.245659 51:0.300641 57:0.209053 59:0.14195 60:0.222125 61:0.260123 62:0.375741 63:0.201626 64:0.245221 67:0.2482 73:0.139766 75:0.245925 77:0.239312 78:0.485564 81:0.227941 
0.5 1:0.38844 2:0.595509 3:0.24394 4:0.521394 5:0.166226 6:0.785681 7:0.557581 8:0.598542 9:0.110749 10:0.706318 12:0.657519 13:0.606652 15:0.301216 16:0.782219 19:0.404974 21:0.294087 23:0.76328 25:0.797448 26:0.51753 27:0.253417 28:0.567891 29:0.246602 30:0.234229 32:0.824785 35:0.457104 36:0.301782 38:0.477302 39:0.661095 42:0.786502 49:0.304437 50:0.314118 53:0.264511 60:0.484792 61:0.283861 62:0.49578 63:0.220026 64:0.267599 65:0.401605 66:0.166226 69:0.600151 71:0.24586 78:0.529876 82:0.341409 
0.5 1:0.828643 2:0.584681 3:0.404292 4:0.468494 6:0.679642 7:0.381874 8:0.233998 9:0.592012 10:0.792816 11:0.543638 12:0.853222 13:0.575967 14:0.30151 16:0.722469 17:0.20007 19:0.65512 20:0.299418 21:0.261436 22:0.256033 23:0.11033 25:0.617827 27:0.225283 28:0.89942 29:0.219224 31:0.203863 32:0.425252 35:0.573411 38:0.423681 39:0.226483 42:0.742226 53:0.235144 55:0.210658 57:0.202803 58:0.270607 59:0.137707 62:0.352233 63:0.391196 64:0.23789 66:0.147771 67:0.36117 69:0.266761 71:0.218564 73:0.135587 76:0.189361 
0.5 1:0.324156 2:0.760449 3:0.530412 4:0.407929 6:0.869764 7:0.840009 8:0.531047 9:0.539189 10:0.745066 12:0.689751 13:0.698067 15:0.289306 16:0.806818 17:0.216158 19:0.579701 23:0.630206 25:0.848523 26:0.497067 28:0.567891 29:0.236851 32:0.613135 35:0.874641 38:0.598748 39:0.579319 42:0.814341 50:0.905092 59:0.297559 61:0.272637 62:0.540154 63:0.211326 73:0.14649 77:0.250825 79:0.245112 81:0.238907 
0.5 1:0.38844 2:0.726423 3:0.411739 4:0.80091 6:0.90245 7:0.528946 8:0.440483 9:0.649606 10:0.517129 12:0.657519 13:0.93204 16:0.612248 17:0.19544 19:0.4547 22:0.250108 23:0.357592 24:0.190752 25:0.789998 28:0.414251 29:0.4283 32:0.235296 35:0.983774 38:0.827971 39:0.597876 42:0.765568 44:0.212301 50:0.272781 53:0.229702 56:0.199146 59:0.134519 61:0.246506 62:0.506251 64:0.232384 67:0.235207 73:0.132449 74:0.229898 78:0.230073 79:0.221619 80:0.216457 
0.5 1:0.225176 2:0.759476 3:0.301196 4:0.521394 6:0.948261 7:0.863215 8:0.504135 9:0.467614 10:0.792816 12:0.596659 13:0.496862 14:0.282418 16:1 19:0.4547 22:0.239821 23:0.357592 25:0.576692 28:0.505573 31:0.190954 32:0.599592 34:0.263723 35:0.874641 38:0.659743 39:0.388972 41:0.231566 42:0.668487 45:0.264254 50:0.261561 56:0.381911 57:0.189961 60:0.20184 62:0.328918 63:0.183212 67:0.6766 70:0.280988 72:0.557171 
0.4652487468000027 1:0.951406 2:0.530434 3:0.560317 4:0.684056 5:0.132726 6:0.679642 7:0.652829 8:0.440483 9:0.389426 10:0.762156 12:0.50871 13:0.698067 16:0.754422 17:0.359402 19:1 21:0.234819 23:0.19219 25:0.45234 26:0.413232 27:0.202346 28:0.653465 29:0.196904 31:0.183107 32:0.404211 35:0.822681 38:0.563198 39:0.661095 42:0.517195 49:0.243084 57:0.182155 59:0.247373 62:0.148501 63:0.175684 66:0.265452 69:0.239601 77:0.417043 79:0.203772 82:0.272605 
0.5 1:0.691346 2:0.562878 3:0.540449 4:0.931278 5:0.150223 6:0.845035 7:0.583999 8:0.598542 9:0.279197 10:0.562111 12:0.571414 13:0.949765 16:0.739041 18:0.205337 19:0.98055 21:0.265774 22:0.260281 23:0.357592 25:0.747709 27:0.458041 28:0.539167 29:0.222861 32:0.294765 35:0.604021 38:0.827971 39:0.226483 40:0.299915 42:0.765568 48:0.238228 49:0.275128 56:0.207247 57:0.206168 58:0.275097 61:0.256533 62:0.379509 64:0.241837 66:0.300445 67:0.122387 71:0.22219 78:0.239432 79:0.230633 
0.2657064937347272 1:1 2:0.669728 3:0.449641 4:0.967048 5:0.182228 6:0.90245 7:0.557581 8:0.555491 9:0.570424 10:0.762156 12:0.50871 13:0.875938 15:0.330214 16:0.739041 17:0.246722 19:0.958932 21:0.322398 22:0.315734 23:0.611318 25:0.65172 26:0.283676 28:0.725548 30:0.256778 31:0.251399 32:0.590385 33:0.557069 34:0.347203 35:0.702599 36:0.661667 38:0.686338 39:0.579319 42:0.838821 44:0.268008 49:0.667489 50:0.688714 53:0.289975 55:0.259778 62:0.347304 63:0.241207 65:0.220133 66:0.182228 73:0.167203 76:0.467032 81:0.272688 
0.5 1:0.881666 2:0.570977 3:0.532297 4:0.931278 6:0.396218 7:0.968541 8:0.758263 9:0.420877 10:0.832053 11:0.29593 12:0.825058 13:0.657246 15:0.291527 16:0.663309 19:0.670147 22:0.278744 23:0.357592 25:0.552292 28:0.75886 29:0.23867 32:0.590691 35:0.983774 36:0.584148 38:0.659743 39:0.615189 40:0.321189 42:0.475808 45:0.307143 46:0.239534 49:0.294644 52:0.262514 58:0.294611 60:0.234599 62:0.313764 67:0.131069 70:0.326593 75:0.259735 76:0.618474 79:0.246993 
0.5 1:0.324156 2:0.611921 3:0.538455 4:0.610575 6:0.802032 7:0.652829 8:0.504135 9:0.433657 10:0.885061 12:0.689751 13:0.657246 16:0.663309 19:0.527092 20:0.265278 21:0.231627 23:0.495312 25:0.848523 27:0.199596 28:0.240139 29:0.194228 31:0.180618 32:0.600193 35:0.722945 38:0.811219 39:0.579319 42:0.776304 49:0.719339 57:0.359358 59:0.122005 60:0.190915 62:0.382855 68:0.265278 69:0.945378 77:0.205687 78:0.626008 79:0.201002 
0.3273269110767684 1:0.828643 2:0.689537 3:0.335819 4:0.568355 5:0.327494 6:0.679642 7:0.583999 8:0.302359 9:0.459941 10:0.762156 12:0.969422 13:0.875938 14:0.334107 15:0.296725 16:0.739041 19:0.65512 21:0.289701 22:0.283714 23:0.311364 25:0.797448 26:0.254907 27:0.249639 28:0.956011 29:0.48585 31:0.225903 32:0.339876 35:0.604021 38:0.827971 39:0.426336 40:0.653831 41:0.273948 42:0.64988 45:0.312619 46:0.243805 49:0.299898 53:0.260567 62:0.443152 65:0.197808 66:0.327494 67:0.266811 68:0.331789 69:0.295601 74:0.260789 
0.5 1:0.806982 2:0.51999 3:0.813244 4:0.610575 6:0.948261 7:0.463271 8:0.779267 9:0.430464 10:0.684055 12:0.853222 13:0.678637 16:0.704506 17:0.223198 19:0.62105 23:0.856951 24:0.217845 25:0.797448 26:0.256628 28:0.92313 30:0.232294 32:0.886694 33:0.251977 34:0.314098 35:0.631825 36:0.299289 38:0.563198 39:0.345275 41:0.275798 42:0.814341 44:0.242454 51:0.325367 54:0.681926 58:0.603778 62:0.347269 63:0.218208 65:0.398288 73:0.151261 74:0.26255 76:0.211251 81:0.246688 
0.5 1:0.720925 2:0.274162 3:0.579043 4:0.77461 6:0.768063 7:0.463271 8:0.440483 9:0.362755 10:0.982526 12:0.825058 13:1 14:0.360336 16:0.612248 19:0.769745 20:0.357836 21:0.312444 23:0.433814 24:0.23337 25:0.552292 26:0.274917 27:0.269236 28:0.59298 32:0.263123 35:0.405752 37:0.251917 38:0.90057 39:0.687713 42:0.701256 44:0.519466 45:0.674321 48:0.280061 50:0.333725 51:0.697112 57:0.242371 58:0.323404 62:0.440345 64:0.284303 65:0.213337 66:0.176602 68:0.357836 71:0.261207 79:0.271132 82:0.362721 
0.5 1:0.691346 2:0.350824 3:0.643603 4:0.892165 6:0.964281 7:0.205241 8:0.401879 9:0.408395 10:0.819733 11:0.301309 12:0.542511 13:1 15:0.296825 16:0.722469 17:0.221776 19:0.98055 23:0.11033 25:0.598352 27:0.249723 28:0.539167 32:0.606236 35:0.343908 36:0.297383 38:1 39:0.487944 40:0.327026 41:0.274041 42:0.765568 46:0.487775 48:0.259763 53:0.260655 57:0.224805 62:0.341854 70:0.332528 75:0.264455 76:0.209905 81:0.245117 
0.5 1:0.642787 2:0.454536 3:0.573074 4:0.716466 5:0.151688 6:0.533091 7:0.381874 8:0.833875 9:0.263764 10:0.949927 11:0.279024 12:1 13:0.606652 16:0.754422 17:0.205374 19:0.527092 21:0.268366 23:0.710826 25:0.774176 28:1 32:0.401224 35:0.405752 37:0.216378 38:0.423681 39:1 40:0.30284 42:0.580945 44:0.446183 46:0.22585 48:0.240551 50:0.573291 52:0.247517 61:0.259035 62:0.334256 63:0.200783 75:0.244896 80:0.227458 
0.5 1:0.711578 2:0.408525 3:0.458303 4:0.521394 6:0.768063 7:0.463271 8:0.849849 9:0.523809 10:0.659292 12:0.81735 13:0.540081 16:0.722469 19:0.527092 22:0.317446 23:1 25:0.717032 27:0.279319 28:0.92313 29:0.271807 31:0.252761 32:0.209511 35:0.539365 36:0.332627 38:0.563198 39:0.70006 42:0.551561 47:0.274734 50:0.346223 56:0.252763 58:0.335516 62:0.347452 65:0.663979 66:0.183215 70:0.371937 76:0.234781 79:0.281286 80:0.274734 81:0.274166 
0.5 1:0.474073 2:0.652199 3:0.376852 4:0.967048 5:0.167054 6:0.956412 7:0.381874 8:1 9:0.581552 10:0.726541 12:0.674284 13:0.747526 15:0.302717 16:0.722469 17:0.226178 19:0.527092 22:0.289443 23:0.76328 25:0.738015 28:0.59298 31:0.460929 32:0.422699 33:0.255341 35:0.573411 38:0.90057 39:0.81494 42:0.838821 46:0.497456 47:0.751499 50:0.631365 59:0.155676 61:0.285275 62:0.265477 63:0.442244 66:0.167054 73:0.15328 81:0.249982 
0.5 1:0.828643 2:0.377556 3:0.567069 4:0.521394 6:0.748966 7:0.608517 8:0.356731 9:0.452255 10:0.659292 12:0.853222 13:0.575967 15:0.300976 16:0.612248 19:0.65512 21:0.587703 22:0.287778 23:0.11033 24:0.438967 25:0.617827 26:0.517116 27:0.253215 28:0.89942 31:0.229139 32:0.223495 35:0.759952 36:0.301541 37:0.236927 38:0.477302 39:0.292648 42:0.606612 50:0.313866 57:0.227948 58:0.30416 61:0.283634 62:0.321294 63:0.21985 65:0.200642 66:0.166093 74:0.264525 75:0.536305 76:0.425679 77:0.260942 78:0.529452 79:0.254998 81:0.497087 
0.5 1:0.556034 2:0.568878 3:0.445886 4:0.684056 5:0.150519 6:0.802032 7:0.528946 8:1 9:0.515044 10:0.875429 12:0.773597 13:0.657246 16:0.754422 17:0.203792 19:0.555173 21:0.266299 23:0.495312 24:0.198904 25:0.789998 26:0.234315 27:0.229473 28:0.567891 29:0.446602 30:0.212097 32:0.562737 33:0.230068 35:0.501013 38:0.598748 39:0.81494 41:0.251818 42:0.765568 45:0.574731 53:0.239518 55:0.429152 59:0.140268 60:0.219493 62:0.134047 66:0.150519 67:0.122629 71:0.222629 73:0.276218 74:0.239722 77:0.236476 79:0.231089 80:0.225706 
0.5 1:0.711578 2:0.616027 3:0.755196 4:0.468494 6:0.785681 7:0.968541 8:0.735464 9:0.226659 10:0.726541 12:0.468001 13:0.575967 15:0.286208 16:0.612248 17:0.213843 18:0.647671 19:0.555173 22:0.273658 23:0.546864 25:0.402872 26:0.245872 28:0.75886 32:0.413315 35:0.874641 38:0.754889 39:0.559324 41:0.264239 42:0.606612 43:0.141684 46:0.470327 51:0.31173 54:0.653345 55:0.225159 56:0.217898 58:0.289236 62:0.289235 68:0.32003 71:0.23361 76:0.202397 79:0.242487 82:0.324398 
0.5 1:0.505573 2:0.397473 3:0.482173 4:0.468494 6:0.948261 7:0.381874 8:1 9:0.398391 10:0.843721 12:0.704105 13:0.496862 16:0.768771 18:0.436426 19:0.4547 20:0.323473 22:0.276603 23:0.76328 24:0.21096 25:0.576692 28:0.414251 32:0.45089 35:0.657294 38:0.733644 39:0.81494 42:0.874024 46:0.237694 50:0.301678 52:0.260497 53:0.254036 55:0.455163 61:0.272619 62:0.327323 65:0.19285 69:0.288192 72:0.321313 73:0.14648 74:0.254252 75:0.257739 76:0.409148 77:0.250809 79:0.245096 80:0.239387 
0.5 1:0.738319 2:0.490632 3:0.40744 6:0.869764 7:0.381874 8:0.474202 9:0.673513 10:0.706318 12:0.773597 13:0.657246 16:0.704506 17:0.198618 19:0.670147 23:0.39797 25:0.789998 28:0.699764 29:0.217632 31:0.202382 32:0.400841 34:0.279508 35:0.573411 38:0.63071 39:0.513991 41:0.245425 42:0.765568 46:0.436841 47:0.219976 48:0.232639 57:0.20133 59:0.273414 61:0.250514 62:0.257808 66:0.146698 67:0.239032 71:0.216977 78:0.233814 79:0.225222 80:0.219976 82:0.602604 
0.5 1:0.628374 2:0.493929 3:0.479239 4:0.931278 5:0.182003 6:0.533091 7:0.78825 8:0.833875 9:0.474091 10:1 12:0.853222 13:0.633454 15:0.329807 16:0.612248 17:0.246418 19:0.527092 21:0.322 22:0.315345 23:0.710826 24:0.240508 25:0.598352 28:0.685498 29:0.270009 30:0.256461 32:0.471598 35:0.957684 37:0.519245 38:0.477302 39:1 42:0.64988 43:0.163268 47:0.272917 48:0.288627 49:1 52:0.296984 54:0.376435 55:0.259458 56:0.251091 59:0.169607 62:0.287939 66:0.182003 67:0.296558 70:0.369476 72:0.366318 73:0.166997 78:0.290085 79:0.55885 
0.5 1:0.720925 2:0.431823 3:0.500962 4:0.684056 6:0.785681 7:0.332507 8:0.946372 9:0.313565 10:1 12:0.689751 13:0.925787 14:0.305619 16:0.768771 17:0.202797 18:0.204739 19:0.769745 23:0.786596 24:0.197933 25:0.524357 26:0.233171 28:0.670127 30:0.211062 31:0.206641 32:0.315736 33:0.228946 34:0.570778 35:0.631825 38:0.563198 39:0.876529 42:0.551561 49:0.274326 50:0.283049 51:0.295628 55:0.213529 62:0.503159 64:0.241132 65:0.180942 67:0.122031 69:0.270396 75:0.241824 76:0.191942 77:0.235321 
0.5 1:0.881666 2:0.574682 3:0.529333 4:0.684056 5:0.156498 6:0.948261 7:0.827786 8:0.302359 9:0.226468 10:0.517129 12:0.825058 13:0.633454 16:0.754422 17:0.423773 18:0.213915 19:0.741865 20:0.317101 25:0.617827 27:0.238588 28:0.75886 30:0.220522 32:0.4888 33:0.239207 35:0.938955 38:0.733644 39:0.388972 42:0.814341 44:0.230166 46:0.233012 53:0.747096 55:0.223099 59:0.291679 60:0.456422 62:0.315332 64:0.251939 66:0.156498 73:0.143595 76:0.200545 79:0.480536 80:0.234672 
0.2400161269385041 1:0.38844 2:0.354618 3:0.530193 4:0.967048 6:0.964281 7:0.827786 8:0.758263 9:0.339543 10:0.911667 12:0.639218 13:0.875938 16:0.684897 17:0.213365 19:0.4547 21:0.278809 23:0.46604 24:0.208248 25:1 28:0.505573 31:0.217409 32:0.381463 35:0.957684 36:0.286104 38:0.733644 39:1 42:0.930148 43:0.141368 44:0.231773 46:0.234638 48:0.249912 57:0.216279 59:0.146857 61:0.269114 62:0.212026 65:0.190371 66:0.15759 67:0.641949 75:0.254426 78:0.753524 80:0.472619 81:0.23582 
0.5 1:0.436136 2:0.370614 3:0.394324 4:0.568355 5:0.149895 6:0.802032 7:0.205241 8:0.302359 9:0.510063 10:0.792816 12:0.773597 13:0.369291 14:0.305843 16:0.612248 17:0.202946 19:0.404974 21:0.265193 23:0.46604 24:0.198078 25:0.789998 26:0.233342 28:0.539167 29:0.444748 32:0.474893 35:0.657294 38:0.477302 39:0.345275 42:0.765568 44:0.440909 47:0.224769 55:0.213685 59:0.139686 62:0.396312 63:0.198409 67:0.12212 71:0.221705 76:0.192082 77:0.470988 79:0.23013 
0.008235929155856114 1:0.768882 2:0.73876 3:0.437147 4:0.967048 6:0.768063 7:0.672999 8:0.849849 9:0.384418 10:0.684055 11:0.284035 12:0.704105 13:0.93204 14:0.63012 16:0.839113 17:0.418124 19:0.709299 22:0.26754 23:0.680972 25:0.491686 28:0.75886 29:0.229076 30:0.217582 32:0.469809 35:0.702599 38:0.827971 39:0.674747 42:0.742226 47:0.231543 62:0.263384 67:0.880603 69:0.278749 73:0.141681 75:0.498589 80:0.231543 82:0.317145 
0.4492798802732411 1:1 2:0.459991 3:0.588046 4:0.684056 6:0.72812 7:0.863215 8:0.356731 9:0.479731 10:0.819733 12:0.704105 13:0.93204 16:0.612248 18:0.208669 19:0.938269 22:0.264504 23:0.46604 25:0.598352 26:0.237647 28:0.909246 29:0.226477 30:0.215113 32:0.261984 33:0.23334 35:0.874641 38:0.827971 39:0.292648 42:0.551561 46:0.227297 51:0.301303 53:0.242924 55:0.217627 56:0.210609 58:0.559121 61:0.260695 62:0.303237 64:0.24576 65:0.184415 67:0.497492 68:0.309324 73:0.140073 74:0.243131 80:0.228916 
0.5 1:0.436136 2:0.471156 3:0.63067 4:0.825655 5:0.167678 6:0.579461 7:0.557581 8:0.683031 9:0.304771 10:0.949927 12:0.730048 13:1 15:0.303848 16:0.768771 17:0.227023 19:0.741865 21:0.296656 23:0.39797 25:0.797448 27:0.255631 28:0.505573 31:0.462652 32:0.392343 35:0.457104 38:0.925516 39:0.559324 42:0.64988 44:0.246609 50:0.316862 57:0.460247 59:0.312515 62:0.490204 63:0.221948 66:0.335356 68:0.339754 73:0.307706 81:0.501832 
0.1876109141388131 1:1 2:0.431235 3:0.392673 4:0.610575 5:0.161012 6:0.817287 7:0.332507 8:0.652366 9:0.380029 10:0.843721 12:0.50871 13:0.698067 15:0.291768 16:0.839113 17:0.217997 19:1 22:0.55795 23:0.311364 25:0.65172 27:0.490937 28:0.725548 29:0.477734 30:0.226882 32:0.598416 35:0.573411 38:0.859032 39:0.81494 42:0.776304 46:0.239732 47:0.24144 53:0.256214 62:0.620162 64:0.259205 66:0.161012 67:0.131177 73:0.147736 76:0.206329 77:0.25296 79:0.247198 80:0.24144 
0.5 1:0.711578 2:0.614507 3:0.564034 4:0.684056 5:0.174486 6:0.768063 7:0.424994 8:0.807966 9:0.223135 10:0.819733 12:0.674284 13:0.540081 14:0.356018 16:0.839113 17:0.23624 19:0.62105 21:0.617401 22:0.30232 23:1 25:0.45234 28:0.92313 30:0.245868 32:0.760743 34:0.332452 35:0.573411 36:0.316778 38:0.359104 39:0.646681 42:0.475808 44:0.256621 51:0.34438 62:0.586427 63:0.461919 65:0.210781 66:0.174486 69:0.314987 73:0.160099 75:0.281703 76:0.223595 78:0.278103 80:0.261644 81:0.261103 
0.5 1:0.576918 2:0.648243 3:0.568392 4:0.892165 6:0.579461 7:0.827786 8:0.555491 9:0.475435 10:0.706318 12:0.704105 13:0.698067 16:1 17:0.183767 19:0.638831 21:0.480264 22:0.235169 23:0.19219 25:0.45234 28:0.699764 29:0.402718 31:0.18725 32:0.344184 35:0.983774 36:0.246415 37:0.193614 38:0.827971 39:0.537651 40:0.270979 42:0.475808 47:0.407056 51:0.267887 57:0.186277 59:0.25297 60:0.197925 62:0.364356 67:0.331738 74:0.432333 80:0.203528 81:0.203107 
0.5 1:0.691346 2:0.446164 3:0.60757 4:0.77461 6:0.474792 7:0.332507 8:0.531047 9:0.358708 10:0.631397 12:0.730048 13:1 15:0.304955 16:0.739041 19:0.98055 21:0.297737 23:0.591244 25:0.797448 26:0.523954 28:0.615252 29:0.249663 31:0.464337 32:0.27623 35:0.604021 38:0.90057 39:0.426336 42:0.580945 46:0.250567 51:0.664298 57:0.461924 59:0.156827 62:0.394648 63:0.66827 66:0.168289 68:0.340992 76:0.215654 79:0.25837 
0.5 1:0.474073 2:0.432297 3:0.35175 4:0.521394 5:0.604386 6:0.72812 7:0.463271 8:0.555491 9:0.579314 10:0.706318 11:0.277937 12:0.416821 13:0.761744 16:0.754422 17:0.204573 19:0.709299 23:0.433814 25:0.45234 26:0.235213 28:0.465116 31:0.208451 32:0.525875 35:0.457104 37:0.215535 38:0.523151 39:0.537651 42:0.423774 43:0.135543 54:0.312511 57:0.207367 60:0.220334 62:0.501382 63:1 66:0.45329 69:0.272764 71:0.223483 73:0.138639 77:0.712147 81:0.226103 
0.5 1:0.628374 2:0.272988 3:0.569189 4:0.746546 6:0.948261 7:0.381874 8:0.849849 9:0.329044 10:0.460576 12:0.889185 13:0.761744 15:0.285669 16:0.867169 19:0.579701 21:0.557815 23:1 25:0.774176 27:0.240337 28:0.713074 32:0.704086 33:0.240961 35:0.405752 37:0.224877 38:0.523151 39:0.597876 40:0.314735 42:0.874024 46:0.234721 48:1 50:0.297904 57:0.216355 59:0.146909 61:0.269209 62:0.217323 65:0.190438 66:0.315292 67:0.128435 73:0.433944 76:0.202015 78:0.502526 80:0.236393 81:0.471807 
0.5 1:0.642787 2:0.588183 3:0.561864 4:0.521394 6:0.964281 7:0.205241 8:0.531047 9:0.233699 10:0.659292 12:1 13:0.657246 16:0.663309 19:0.638831 23:0.357592 25:1 27:0.747112 28:1 29:0.727019 31:0.225359 32:0.204053 35:0.457104 38:0.811219 39:0.345275 42:0.90952 48:0.25905 49:0.299175 52:0.26655 53:0.259939 57:0.224187 59:0.152227 62:0.429716 63:0.216223 66:0.490058 67:0.266169 69:0.294889 73:0.299768 74:0.260161 
0.0477085584469857 1:0.881666 2:0.481008 3:0.330172 4:0.684056 5:0.165166 6:0.705169 7:0.332507 8:0.531047 9:0.382387 10:0.982526 12:0.704105 13:0.606652 14:0.337003 16:0.612248 19:0.670147 20:0.66933 22:0.286173 23:0.76328 25:0.491686 28:0.75886 32:0.822621 35:0.539365 37:0.235605 38:0.686338 39:0.661095 41:0.552645 42:0.742226 44:0.242915 47:0.24767 48:0.261926 59:0.153917 60:0.240851 62:0.549007 68:0.334665 71:0.244293 73:0.151548 78:0.26325 79:0.507152 
0.5 1:0.505573 2:0.635631 3:0.290828 4:0.684056 5:0.15139 6:0.679642 7:0.381874 8:0.710533 9:0.50342 10:0.599461 12:0.542511 13:1 16:0.704506 17:0.40994 19:0.911006 22:0.262303 23:0.664929 24:0.400108 25:0.635516 26:0.23567 28:0.414251 31:0.208855 32:0.511845 35:0.657294 36:0.274847 37:0.215953 38:1 39:0.674747 40:0.302245 41:0.253274 42:0.71585 55:0.215817 59:0.423237 60:0.220762 62:0.265975 63:0.200388 65:0.182881 67:0.246676 73:0.138908 74:0.723325 75:0.244415 79:0.46485 
0.1563820446937596 1:0.642787 2:0.478951 3:0.323191 4:0.521394 5:0.139937 6:0.869764 7:0.840009 8:0.531047 9:0.427837 10:0.460576 12:1 13:0.369291 16:0.704506 19:0.337954 20:0.283546 23:0.591244 25:1 26:0.435684 28:1 29:0.207603 32:0.429416 33:0.213894 35:0.983774 36:0.254056 38:0.63071 39:0.226483 41:0.234115 42:0.830984 47:0.209839 48:0.443835 50:0.264441 57:0.384104 58:0.256262 59:0.130407 62:0.380569 63:0.555688 65:0.169046 68:0.283546 79:0.214843 
0.5 1:0.656164 2:0.488346 3:0.363863 4:0.521394 5:0.458357 6:0.72812 7:0.583999 8:0.635603 9:0.524593 10:0.875429 12:0.773597 13:0.633454 16:0.501446 19:0.601474 22:0.529444 23:0.664929 25:0.598352 26:0.237843 28:0.539167 29:0.226663 31:0.421562 32:0.220937 35:0.604021 38:0.733644 39:0.81494 42:0.776304 45:0.291692 53:0.243124 56:0.210783 62:0.608028 63:0.202236 65:0.184567 67:0.124475 69:0.275813 70:0.620327 73:0.280377 77:0.240036 80:0.229105 
0.3208053803656994 1:0.38844 2:0.245111 3:0.48957 4:0.80091 6:0.964281 7:0.827786 8:0.946372 9:0.377679 10:0.659292 12:0.657519 13:0.698067 16:0.754422 17:0.241353 19:0.555173 21:0.315382 23:1 25:0.789998 28:0.567891 30:0.25119 31:0.245928 32:0.215908 35:0.874641 37:0.254286 38:0.843882 39:0.790649 42:0.765568 56:0.24593 59:0.166121 62:0.0919016 66:0.178262 67:0.580926 69:0.321805 73:0.327129 75:0.2878 76:0.228434 78:0.568245 
0.5 1:0.720925 2:0.506076 3:0.431351 4:0.716466 6:0.579461 7:0.851809 8:0.401879 9:0.655867 10:0.706318 12:0.50871 13:0.949765 16:0.704506 17:0.177158 18:0.178855 19:0.911006 23:0.433814 25:0.45234 27:0.199483 28:0.77832 29:0.194118 31:0.180516 32:0.313207 35:0.957684 38:0.88732 39:0.513991 42:0.517195 55:0.186533 57:0.179578 58:0.239618 59:0.121936 62:0.431154 63:0.173198 66:0.130848 67:0.213206 73:0.12006 77:0.411142 82:0.268748 
0.5 1:0.324156 2:0.520197 3:0.387329 4:0.610575 6:0.869764 7:0.840009 8:0.440483 9:0.366852 10:0.517129 12:0.894597 13:0.657246 14:0.312054 16:0.839113 19:0.555173 21:0.27058 23:0.546864 25:0.782249 28:0.685498 29:0.226891 31:0.210992 32:0.647926 35:0.983774 38:0.563198 39:0.226483 41:0.255866 42:0.874024 45:0.291984 48:0.242535 53:0.486736 57:0.419791 58:0.280071 62:0.335304 63:0.404877 67:0.1246 70:0.310474 74:0.243575 78:0.243761 
0.07365090270246544 1:0.576918 2:0.702935 3:0.375131 4:0.77461 6:0.993291 7:0.968541 8:0.440483 9:0.285211 10:0.745066 12:0.809332 13:0.657246 16:0.768771 19:0.527092 22:0.282479 23:0.591244 24:0.215442 25:0.818215 26:0.253797 27:0.248552 28:0.685498 31:0.22492 32:0.189432 34:0.310633 35:0.886351 37:0.232564 38:0.659743 39:0.661095 42:0.830984 49:0.298592 50:0.308087 51:0.321778 58:0.597117 62:0.404437 73:0.299184 75:0.263215 77:0.256137 82:0.334855 
0.04235302570015725 1:0.806982 2:0.558382 3:0.526511 4:0.468494 5:0.26469 6:0.785681 7:0.692044 8:0.531047 9:0.658698 10:0.631397 12:0.753007 13:0.657246 16:0.58128 19:0.731605 21:0.702435 22:0.229306 23:0.724768 25:0.3362 28:0.787378 29:0.196339 30:0.186488 31:0.365163 32:0.573781 35:0.822681 38:0.88732 39:0.458972 42:0.742226 43:0.118721 48:0.209877 49:0.484772 52:0.215954 54:0.273728 57:0.181632 59:0.123331 62:0.244026 66:0.132345 67:0.431289 68:0.268162 69:0.238913 71:0.195748 78:0.632813 81:0.198043 82:0.271822 
0.1161551898928081 1:0.556034 2:0.395914 3:0.501578 4:0.967048 5:0.142699 6:0.617964 7:0.332507 8:0.440483 9:0.546871 10:0.982526 12:0.773597 13:0.698067 14:0.291162 16:0.754422 17:0.386408 19:0.555173 23:0.664929 25:0.797448 26:0.222141 28:0.567891 31:0.393732 32:0.589965 35:0.501013 37:0.203557 38:0.827971 39:0.661095 42:0.776304 45:0.272436 47:0.21398 48:0.226297 49:0.26135 57:0.195843 58:0.26132 59:0.13298 62:0.218476 63:0.188885 66:0.142699 69:0.257605 77:0.67257 78:0.454882 
0.5 1:0.576918 2:0.400051 3:0.456515 4:0.684056 5:0.522952 6:1 7:0.424994 8:0.440483 9:0.286276 10:0.935409 12:0.809332 13:0.925787 15:0.631759 16:0.858219 17:0.236012 19:0.741865 21:0.616805 23:0.357592 25:0.818215 27:0.265754 28:0.685498 30:0.245631 32:0.358952 35:0.539365 38:0.859032 39:0.597876 40:0.696038 42:0.805478 44:0.256374 50:0.329409 59:0.32489 61:0.297679 62:0.26364 64:0.280626 65:0.210578 66:0.174317 68:0.353207 73:0.31989 78:0.55567 80:0.261392 81:0.260851 
0.5 1:0.576918 2:0.564411 3:0.207616 4:0.716466 5:0.443233 6:0.802032 7:0.710081 8:0.474202 9:0.165459 10:0.460576 11:0.271771 12:1 13:0.442525 14:0.301456 16:0.754422 17:0.200035 19:0.527092 21:0.26139 23:0.46604 25:0.774176 28:0.685498 29:0.219185 32:0.444363 35:0.849772 36:0.268229 37:0.210753 38:0.523151 39:0.226483 40:0.294967 42:0.685532 48:0.468596 53:0.235102 60:0.215446 62:0.504412 66:0.147745 69:0.266713 75:0.23853 76:0.189327 80:0.221545 
0.3336929297994861 1:0.782467 2:0.440131 3:0.608144 4:0.80091 6:0.679642 7:0.608517 8:0.555491 9:0.298152 10:0.762156 12:0.416821 13:0.875938 15:0.326544 16:1 19:0.958932 21:0.318815 22:0.312226 23:0.710826 25:0.693487 26:0.280523 28:0.414251 31:0.248605 32:0.528035 35:0.759952 36:0.654314 38:0.686338 39:0.579319 41:0.301479 42:0.830984 49:0.330036 56:0.248607 57:0.247313 58:0.329999 59:0.16793 61:0.30773 62:0.306106 69:0.650615 72:0.362694 73:0.165345 76:0.230921 77:0.28311 78:0.574431 81:0.539316 82:0.370117 
0.5 1:0.711578 2:0.606858 3:0.381866 4:0.568355 6:0.956412 7:0.424994 8:0.531047 9:0.420581 10:0.819733 12:0.846544 13:0.442525 16:0.914194 19:0.62105 23:0.433814 25:0.922239 26:0.249248 27:0.244097 28:0.909246 32:0.51639 35:0.161358 37:0.228396 38:0.563198 39:0.661095 42:0.90952 44:0.235482 48:0.253911 58:0.293208 60:0.700444 62:0.278216 66:0.160112 71:0.236817 73:0.146911 74:0.255 77:0.251546 79:0.491633 81:0.239594 
